svm_type c_svc
kernel_type wgkm
L 11
k 7
d 3
M 50
H 50
nr_class 2
total_sv 5936
rho 0.235914
label 1 -1
nr_sv 1830 4106
SV
1 GTGAGGTGTGTAGGAGGGTGAGGTGTGTAGGAGGGTGAGGTGTGTAGGAGGGTGAGGTGTGTAGGAGGGTTTGGTGTGTAGGAGGGTGAGGTGTGTAGGAGGGTGAGGTGTGTAGGAGGGTGAGGTGTGTAGGAGGGTGAGGTGTGTAGGTGGGTGAGGTGTGTAGGAGGGTGAGGTGTGTAGGAGGGTGAGGTGTGTAGGAGGGTTTGGTGTGTAGGAGGGTGAGGTGTGTAGGAGGGTGAGGTGTGTAGGAGGGTGAGGTGTGTAGGAGGGTGAGGTGTGTAGGAGGGTGAGGTGTGT
1 ACCGCCCACCTTCTATTCCTGCCTCTCCCTGCCCACACCGCCCGCCTTTCTGCTCCTGCCTCTCCCTGCCCACACCGCCCGCCTTTCTATTCCTGCCTCTCCCTGCCCACACCGCCCGCCTTTCTATTCCTGCCTCTCCCTGCCCACACCACCCGCCTTTCTATTCCTGCCTCTCCCTGCCCACACCGCCCGCCTTTCTGCTCCTCACCGCACGTCCTACTCCAGGCGATCTGCAGGCAGCCTCTTACTCTGCCTGTGGTGGGGTGGTGGTGGTGGGTGGTATGAGCCACGCCCTCCCCT
1 AGATATATGCATATCTATACACACCTACGGGTGTGTCTGTATCTATACACACACCTATGGGTGTGTCTATCTATATCTATACACACCTATGGGTGTGTCTGTCTGTATCTATACACACCGATGGGTGTGTCTGTCTGTATCTTTACACACCTATGGGTGTGTCTGTCTGTATCTATACACACCTATGGGTGTGTCTGTCTGTACCTATACACACCTATGGGTGTGTCTTTCTGTATCTATACACACCTATGGGTGTGTCTTTCTATATCTATACATTATATGTACTAAATAATATATATA
1 GCACTGGAGGTGTGTACTGGGTGCGTGTGTGTGCACGGGTGTGTGCCCTTGGCGTGTGGGCGTGTGCACTGGGTGTGTCCTGGGTGTGTGTGCATGGGTGTGTGTACACGGGTGTGTCCTGGGTGCATGCACATGTGTACACAGGTGTGTGTGCATGGGTGTGTGTCCTGGGTGCGTGCATGTGTGCACTCGGTGTGTGGGTGTGTGCACTGGGTGTGTGTGCACGTGTGCATGGGTGTGTGTGCACGGGTGTGTGTCCTGGGTGCATGCGCGTGTGCATGGGTGTGTGTGCACGCGGTG
1 CGCTTATTACTGAGGTGACAAAATAATCTGTACATCAAACCCCTGAGTCACGAGTTTACCTATATAACAAAACTGCACATGTACCCCTGAACCTAAAATAAATGTGTGTGTGTGTGTATATGTGTGTATATATGTGTATATATGTGCATATATACGCATATATGTGTGTATATGTGCATATATATGCATATATGTGTGTATATGTGCATATATATGCATATATGTGTGTATATGTGCATATATATGCATATATGTGTGTATATGTGCATATATATGCATATATGTGTGTATATGTGCATA
1 ACACCACACCCACCATACAGACACACACACACCCATCACCCACACCCAGACACACCACACCCACCACACAGACACACACACACCCATCACCCACACACAGACACACCACACCCACCACACAGACACACCCACACACCCAGACACACCACACCCACCATACAGACATGCACACATGCCCAGACATACCACACCCACCATACAGACACACACACACACACCCATCACCACACACAGACACACCACACCCACCATGCAGGCACCTACTGTGTGTGCACACACACCCATCACCCACACACAGAC
0.3513342429585315 TGTGCGTGTGTGTGTGGGTGTGTGCGTGTGGGTGTGTGTGTGGGTGTGCATGTGTGCATGGGTGTTCGCACGTGTGCATGTGGGTGTGTGTGCATGTGGGTGCACGTGTGTGCATGGGTGGGTACATGTGTGCATGGGTGTGTGCACGTGTGAGTGTATGCATACATATGTGTACGTTGGTGTGCATGCATGTGTGTATCCATGTGAGTGCATTGTGTTCACGTAGGTGTGTGCATGGGGGTGTGTGCATGTGTGTGCATGTGTGTGAGTGTGTGTATGTGGGTGTGTGCATGTGTGTGC
1 CCCTTCCACTCCTCTATCCACCCCTCCACCCACCCCTCCATCCATCCACCCACCACTCTATCCACCCATCCACTTCTCTATCCACTCCTCCACCCACCCCCCAGGCATCCATCCATCCACCCAACCAACCATCTCCATCCACCACTCTATCCACCCATCCACTCCTCTATCCACCCATCCACCCACCCCTCCATCCTCCCTCCACCCATCCATTCCTCTATCCACCCCTCCACCCTCCATCCACCCATCTCTCTATCCACCCATCCATCTATCTCTCTATCTGCCCTTCCACTCCTCTAT
1 CCAGGTCATACGCTGCCCATCCACCCACCCAGGTCATACGCTGCCCATCCACCCACCAAGGTCATATACTGCCCATCCACCCACCAAGACGATACACCACCCATCCACTTACCAAGGGTCATAAACCACCCATCCACCCACCAAGGTCATACACCTCCCATCCACTTACTAAGGACCATAAACCACCCATCCACCCACCCAGGTCATACGCTGCCCAACCACCCACCAAGATGATACACCACCCATCCACTTACCAAGGATCATAAACCACCCATCCACCCACCAAGGTCATACACTACC
1 GCATGCCCACTATGCCACCATCCTTCTGCACACGCCTGCCATGCCCCCACTGTGCCACACCTGCCATGTCACACTCACCCCACACCTGCTATGTCCCCACCATGCCACACCTAGGTCACACCCTTGCCACACCCCCAAACCCCATCGTGGCATGCCTACTGAGTCACGCCCTTGCCACACCTGCCACCCCCCACTGTGCCGCACCTACCATGTCACACCTATGCCACACACACCAAGCCCCCACCATGCCATGCCTTTACCATGCCCCTACTGTGCCCTGCCACACCCCATGCCACATTC
1 ATGTGGGTGTGTGTATGTGGGGACATGTGGGGGGTGTGGGTGAGTGTGAGGGTGTGTGTATGTGGGTGTGTGTGGGTGTGTGTATGTGGGTGCATGTGGGTGTGGGTGTGTATGTGGGTGTGTGTATGTGGGGGTGTATGTATGTGGGTGTGTGTGGGTGTGTGTGGGTGTAATGTGGGTGTGGGTACGTGTGTATGTGGGTGTGTGTATATGTGGGGGGTGTATGTGGGTGTGTGGGTGTGTGTATGTGGGTGTGTGGGTGTGTATATGTGGGTGTGTGTGGGTGGGGGTGTGTGTATG
1 CCCACGACGCCCATCCACACCCACGACGCCCATCCACACGGATGCCCATACACTCCGACACCCATCCACACCCACGACGCCCATCCACACCCACGACACCCATCCACACCCATGACGCCCATCCACACAGATGCCCATCCACACCCACCACACCCATCCACACCCATGACGCCCATCCACACCCACCACACCCATCCACACCCTCGACGCCCATCCAGATACCCATCCACACCCACGACGCCCATCCACACCCTTGACGCCCATCCACACAGATACCCATCCACACCCACGACACCCATC
1 TCCTCCCTGACCGGTCCTCCTGCCCTAACTCCTCCCTGACCGGTCCTCCAGCCCTAACTCCTCCCTGACCGGTCCTCCTGCCCTAACTCCTCCCTGACCGGTCCTCCAGCCCTAACTCCTCCCTGACCAGTCCTCCTCCCCTAACTCCTCCCTGACCCGTCCTCCTGCCCTAACTCCTCCCTGACCTGTCCTCCAGCCCTAACTCCTCCCTGACCAGTCCTCCAGCCCTAACTCCTCCCTGACCGGTCCTACTGCCCTAACTCCTCCCTGACCGGTCCTCCTGCCCTAACTCCTCCCTGA
1 ACAGGTGACACCCACACCCACACCTTATACAGGCGACACCCACACCCACACCTTATCCAGGTGACACCCACACCACACCTTATACAGGCGACACCCACACCCACACCTTATCCAGGTGACACCCACACCTTATCCAGGCGACACCCACACCCACACCTTATACAGGCGACACCCACGCCCACACCTTATCCGGGTGACACCCACACCTTATCCGGGTGACACCCACACCTTATCCAGGCGACACCCACACCCACACCTTATCCGGGCGACACCCACACCCACACCTTATCCGGGCGACAC
1 GACACACACAAATACACACCCATACACACATACACAGACAAGCACATACACAAATACCTACACACACACAAAAATACCCACCCACACAGAGACACACAAATACACACCCACTGACACACACACACAAATACACACCCATCCACACAGAGACACACACACAAATACCCATTCACATACACGCAAATACACACCCACCCCCACACAAATACACACCCATCCACAGAGACACGCACACACACATACCCATACATACATACACACACAAATACACACCCACCTCCCCACACACCCAGACACACA
0.5781253854976661 AGGGGAGGTGGTCACACTGAGGGGAGGTGGTCACACTGAGGGAAGGTGGTCACACTGAGGGGAGGTGGTCATAGTGTGAGGGGAGGTGGTCATAGTGTGAGGGGAGGTGGTCACAGTGTGAGGGGAGGTGGTCACACTGAGGAGAGGTGGTCATAGTGTGAGGGGAGGTGGTCACACTGAGGGGAGGTGGTCACACTGTGAGGGGAGGTGGGCACACTGTGAGGGGTGGTAGTCACACTGAGAGGAGGTGGTCACACTGAGGGGAGGTGGTCACACTGAGGGGAAGTGGTCACACTGAGG
1 ATGGATGGGTGGAAGGATGGATGGATGATGGATGGGTAGGTGGGTGGATGCGTGAATGGGTGGGTGGGTGGAGGAATGGGTGTTTTGGTGTATGGGTGGGTGGATGGGTGAATGGGTGGATGGGTGGAGGAATGGGTGTTTGGGTGTATGGGTGTGTAGATGGGTGGCAGAGACTTGCAAAAGTGCCACAGTGCCTTAGAGGAGTGATACAGTATCACCACACTCTCTACCTATTAGGATAATCGTACCTTCCTGAGCACTTCTAGAAATATATAAAGCTCCTTCCACTTGGCAAAGATA
1 TCACGCACACACACCATGTGCATGGCACACCCACTCACATGTACACCCCATACCCACCCACATGTGCAGCACACACACCACATGCACAGCATACACACCACCACATACTCACATGTACACCACATACATACCCACGTGCACATCACACCCACATCATGTGCATAGCACACATGTACACATGCACCGCACACACACCCCACATGTGCAGCACACACACCCACATGCATACCACACACACCCACATGCACACCACACACACCCACATGCACACCACACACACCCACATGCATAGCACACACA
1 TGGGATCCAGCTATACTCTACAATAGAAACACCCATCTGGGGATCCACCTACACTCTACACTAGACACATTCAATGTCCTCCATCTGGGGATCCACCTACACTCTACAATAGAAACACTCAGCGTCCTCCATCTGGGGCTCCACCTACACTCTACAATAGACACACCCATCTGGGGATCCACCTACACTCTACAATAGACACACCCATCTGGGAATCCACCTACACTCTATTGTAGATCCACAATCTACAATAGACACACTCAGCGTCCTCCATCAGGGGATCCACCTACACTGTACAAT
1 GCTAAAAGATGACTCAATTTCTAAGTTGTTATTTCCACCCAAATATCACATTCTTCCAACTTTCCATCATCATCCACTCCTACCCCAGTGCAACTTATGCAAATGTCAGCACCCTACACCAAACCTTTCCTACACCAACCCTTTCCTACACCACCCCTTTCCTACACCAACCCCTTCGTACACCAAATCTTTCCTACATCAACCCTTTCCTACACCACCCCTTTCCTACAACACCTGTTTCCTACACCAAACCTTTCCTACGCTACCCCTTTCCTACACCAAACTTTTCCTATACTACCC
0.5826229991745987 CCCTCACCCAGACACGCCCTCACCCAGACACGCCCTCACCCGGGCACACCCTCACCCGGGCACACCCTCACCCGGGCACATCCTCACCGGGGCACACCCTCACCCAGACACACCCTCACCCGGGCACAGAATCGCCCAGACACACCCTCACCTGGGCACACCCTCACCCGGGCACAGCCTCACCCAGACACGCCCTCACCCGGGCACAGCCTCGCCCGGGCACACCCTCGCCTGGGCACAGCCTCGCCCGGGCACACGCTCACCCAGACACACCCTTGCCCGGGCACACCCTCGCCCGGA
1 AGGGGTGTGTGTATGTGTGTGGTATGTGGGGTGTGTGTGTGAGACATGTGTATTTGTGTGTGTGGTGTGTGTGGGGTGTGAGGGGTGGGTGTGGTGTATGTCTGTGTGTGGGGTGTGAAGGGTGTGTGTGTTAGGTGTATGTGTGTGTGGTGTATGTATGTGTGGGGTGTGATGGGTGTGTGTGTGGTGTATGTGTGTGAGGGGTGTGTGTATGTGTGTGGTGTCAGTGTGTGTGTGGTGTCTGTATGTGTGGGGTGTGAGGGGTGTACGTGGGGTGTGTGTGGTGTATTTGTGTATGAG
1 CATCCATTTATTCACCCATCCATCCATCTACCCACCCAGCTATCCACCCATCCATTCATCCGTCCATCCGTTCATCCACCCATCCATTAACTCACCTATACATCCACGCACCCTTTCATCCACCCATCCACCTATCCATCTACCCACCCATCTATCCACCCATCCATCCACTCATCCATTCACCCCTCCCTCCACCCACTTACCCATCCATTCACCCGCCCATTTACCCATCCACTCACCGATTCACCCATCTACCCACCCATTCATCTGTCTATCTACCGTTTGCCCATCCACCCACTC
1 GGATCGGTGGGTGGGTGAATGTGTGGATGGATGGGTGGATGAATGGGTGCGTGGATGGGTGGATGGATGAGTGGATCAGTGAATGGGTGGGTAGGGATGGATGGGTGGATAGACAGGTGAATGAGTGGATGGATGGATACATGGGTGGATGGGTGGATAGGTGGATGGATGGGTGGATGGGTGGGTGGATGGGTGAATGGGTGGATGGGTGGATGGATGGGTGGATGGATGGGTGGATAGATGGGTGGATGGGTGAATGGATGGATGGATGGATGGGTGAATAGATGGGTGCATGGGTGA
1 CTTCCACATCCATACCTTCCACACCCTTACCTTCCACACCCATACCTTCCACACCCATACCTTCCACACCCTTACCTTCCACACCCATACCTTCCACGGCCATACCTTCCACGGTCATACCTTCCACACCCATACCTTCCACGGCCATACCTTCCACACCCATACCTTCCACACCCATACCTTCCACACCCATACCTTCCACACCCATACCTTCCACAGTCATACCTTCCACACCCATACCTTCCACACCCATACCTTCCACATCCATACCTTCCACAGTCATACCTTCCACACCCATAC
1 GTGTGCATGTGTTGTGTGTGGCATGTGTAAACGTGTGCACGCATGTGGTATGTGCAGTGTGTGTGTGTGGAGTGTGGAGTATTGTAGTGTGTGCACACATGCATGTATGTGTATGTGTGTGGGTGTGTGCAGGGGTGGAGTATTTTGTGTGCACATATGCATGCATGTGTGTGTGTGTAGTGTGTGTGGAATGTGAAGTATTGTCGTGTGTGCATGCATGCATGTGTGTGTGTCTGCAGGGTGTGGAGTACTGTCGTCGTATGTGCACACATGCATGCATGTGTGTGTGGGGTGTGGAGT
1 CCCTTCACTGCTGGATGAATAGATGAATGAATAGATTGATGAATGAATGGGTGGGTGGGTGAGTGGATGGGTGGGTAGATGATGGGTGGATGGGTGGGTGGGTGGATGAGTGAATGGGTGGATGGATGGGTGGATAGATGGGTGAGTGGGTGGATAGATGGGTGAGTGAGTGAGTGGGTGGATGGGTGGGTGGATGGATAGATGTGTGGATGGGTGGGTGGATGGATAGATGGGTGAATGGGCGGAAAGATGGGTGAATGGGTGGATGGATGAATGGATAAATGGGTAAATGGGTGGGTG
1 GGTGTGTGTGTTCATGTATATATGGGTGTGTGTGCACCCATGTGTATAAGTGTATGTGCACATGTGTATAGGTGTGTGTTTTATGTGTGGGTGTGTGTGCACCTTTGTGTGTATACGTGCATGTCTGTGTGTGTTTGTGGGTGTGTGTGTACCTATGTCTGTATAGGTGTGTGTGTTTGTGTCTGGGTGTGTGTGCACCTATGGGTGTGTGTGTGTATGCATGTGTGCATGTCCCTCACAGGGCAGAGCTGGAAAGAACTGGAGAGGCTGAGGCTGGTCCCTTCATCTCAGGGTGAAGCA
1 ATATTCCACCTATGCTTCAGTATACTCTATCTATACTCCACCCATGTTTCAGTACACTCTATCTATACTCCACCTATACTTCATGTACACTTCAGTACACTCCACCTATACTCCACCTATGCTTCAGCACACTCTACCTACACTCCACCTACGCTTCAGTACACTACCTATGCTCCACCTATGCCTTAGTATACTCTATACTCCACCTATGCTTCATCTATACTTCTGTACACTCTACCTATACTCCACCTACACTTCAGTACACTCTACGTATACTTTACCTACACTTCAGCACATTCT
1 AAATGATGGGGTATCATTGGGCCTTCTAGAGGGCCTGCTGTCTGAAAGGAGTTAAATGCTGATGGACCCAACACCAGGCAGGACCTGATGCATGCTGATTTGTGTGCTAACACATGGGAGGGAGCCAGGGGTGTTGGCATGCCAGGAAGTGGGTGGAGAAGGACTGATTTGCAACAGAACCTTGGGTAAGTCACTGCCTCTCTTGGGGCTTGACTTTTCCCATCTGGAAGACCAGGGAGGTAGGATTTTCAAACTTTTTGGACCAGGACCCATAGTAAGAAGTGCCCACAATTTTATGTT
0.492538153978677 TGAAGGTTATCTTTGGTTCCCAGAAATTTTATTTAATACAGAAATGATTTTTAGTTGAATCATCATTGTGGTTAAGCATTATGTATATATATGTGTGTATATATATGTGTGTGTATATGTACATATGTACATATTCATATGTGTACATATGTGCGTATGTGCATATGTGCATATGTGCATATGTACATATGTGCATATGTGCATATGTACATATGTGCATATGTGCATATGTACATATGTGCATATGTGCATATGTACATATGTGCATATGTGCATATGTACATATGTACATGTACACAT
1 ATACACTCAGCACACACACCCCCCAACACACACCCAACACATACACTCAGCACACACACCCCAACCCACACACACCCAAAACACATACACTCAGCACACACATCCCCAACACACACCCAACACACACACTGAGCACACACACCCAATACATATACACCCACATCATGCACACACACCCAACACACACACCAAACACACACACCCAACACACACACCCACCCCAACACACATGCACACACACCACACACACCTAACACCCAACACACACACACCCAATACACACACCCAACATGTACACAC
0.1103819995508427 GGTGCTACTACACTCCAGCCTGGACAACAGAGCAAGGCCCCAACTCTAAAATAAATAAATAATAAAAATACACACATACATATGTACATCATATACATATATGCACACATATATGCACACACATATACGCACACATATATGCACACACATATGCACACACATATATGCACACATATGTATGCACATATATGCACACCTATGTATACATATATGCACACCCATGTATACACATATATGCACACCTATGTATACACATATGCATACATATATGTATACATATATATGTATACACATATACAC
1 ACTTTCACACACTGCACCTTCTCAGGTGTCACACTCTGCACCCTCCAAGACTTCACACCCTGCACTCTCCCAGCCTTCACTCCCAGCACTTCCCCAGGCTTCACACCCTGCATCCTCCCAGAGTTCACACCCTGCATCCTCCCAGCCTTCATACCCTGAACCCTCGCCTACCTTCACACACTGCACCCTCCCAGGCTTCACACCCAACGCCCTCCCCTACCTTCACACCCTGCACCATCGCAGGCTTCACACCTTGCACCCTCCCAGGCTTCACACCCTGCACCCTCCCAAGCTTCACAC
1 ACCACCCTCCATCACCACCCTCCATCTCCACCCTCCATCACCACCCACCATTTCCACGCTCCATCTCCACCATCCATCACCACCGTCCATCACCACCCTCCATTTCCACTGTCCATTACCACCATTTATCTCCACCCTGTATCACCACTCACCATCTCCACCCTCCATCCACCCTCCATCTCCATCTTCCATTTCCACCGTCCATCGCCACCATTCATCTCCACCTTCTATCACCACTCACCATCTCCACCCTCCATCACCCACCATTTCCACCCTCCATCTCCACCATCCATCACAACC
1 GAGGAGGTGCAGGGGCCTCAGGGAGGAGGTGCAGGGGCCTCAGGGAGGAGGTGCAGGGGCGTCAGGGAGGAGGTGCAGGGAAGTCAGGGAGGAGGTGCTGGGGCGTCAGGGAGGAGGTGCTGGGGCGTCAGGGAGGAGGTGCAGGGAAGTCAGGGAGGAGGTGCAGGGGCGTCAGGGAGGAGGAGGTCCTGGGGCGTCAGGGAGGCGGTGCTGCCATGGCATTGGACACATGGCCTCTGGGGCTGCGGGGTCTGCTTTACTTTTGAGTAATTTGATGTCATGATTTATGTTTCGTTCGGA
1 GCTCTTCCCACCCGCTGTGGGCGTCCCAGCCCTTTTTCCCTGCTCTTCCCACCCTCTGTGGGCGTCTCAGCCCATTGTCCCTGCTCTTCCCATCTGCTGTGGGCGTCTCAGCCCATTGTCCCTGCTCTTCCCACCCGCTGTGGGTGTCCCAGCCCATTGTCCCTGCTCTTCCCACCCTCTGTGGGTGTCCCAGCCCATTGTCCCTGCTCTTCCCACCCACTGTGGGTGTCCCAGCCCTTTGGGTTCCTTGGGATCCAGACATCACCCTCAGCCTTTTCCTGAGAGGCCCAGCTCCAGCCC
0.4676864065117807 GTGTGTGTAGATATGAATTAGGGTGTAGATATGGATGTGGGTGTAGATATGGATGTGGGTGTAGTCATGGACGTGGGTGTAGATATGGATGAGGGTGTAGATATGGACGTGGGTGTAGATATGGATGGGGGTGTAGTCATGGACGTGAGTATAGATATGGATGTGGGTGTAGATATGGATGTGGACGTAGGCACAGATGTGGATGTAGGCATGGATACAGACGTAGACATGTATGTACATGTAGGCATGGATGTGGATGGAGGCGTGGACATGGATGGAGGTATGGATATGGAGGTATTC
1 CATCCATCCATCTATCCATCCATCTACCCATCCACCCATCCATATATCTACCCATCTGTCTACCCATGCAGCTAGCACCTACCCATCCACCTATCCACCCATCCATTCATCCATCCATATACCCATCTACCCATTCATCCACCCATCCACCTATCCATGCACCCATTCACCCATCCCCCATCCATCCACCCATTTATCCATTCATCCATCTATTCATTAACCTATCCACCCACCCATCTACCCATCTATCCATCCACCCACCCACCCACCCACCCACGCAGTCATCCATCTATCTATTCA
1 TGTCAGGCATGGTTTGTGCCCTCTAGGCAGCAAGGGGGAAGAAGGGAGGGTGTGGGGCGCACATATGACACTCACACCCACTCATGCACATGCTCACACACCCACTCATGCACACGCTGACACGCCCACTCATGCACACACACCCATTCATGCACACACTCACACTCATGCACATGCTCACACACCCACTCATGCACACGCATTCACACCCTCATGCACACGCACTCACACCCACTTATGCAACACTCACACACCCACTCATACACACGCACTCACACCCACTCATGCACACACACCCAT
1 CACAGATCACACCCAGCACACAGATCACACCCACAGATCACACCCAGCGCATGCACAGATCACACCCAGCACACCCAAAGATCACACCCAGCACACACACACAGATCACACCCAACACACCCACAGTTCACACTCAGCACACACAGATCACACCCAACACACCCACAGTTCACATGCAGCACACCCACAGTTCACACCTAGCACACACAGATTACACCTAGCACACCCAGCACACGCACAGCTCACACCCAGCACACCCACAGATCACACCCAGCACATGCACAGATCACAGTCAGCACA
1 TGTGTGTCTGTGTGTGTGGTGTGTGTGAGTGTGCATGTGTGTGCATACGTGTGGGTGTGCTTGTGTGTCCATGGGTGCATGTGGGTGTTCATGTGTGTCTGTGGGTGTGTGTGGGTGTGCATGTGTGCCTTGGGTGTGTGGGTGTGCATGTGTGTTTGTGGGTGTGCATGTGTGTCTATGGGTGTGTGGGTGTGCATGTGTGTGTATGGATGTGTCTGGGTAGTGTGTAGGTGTGTGTGTGTGTGTTGGGGAGATGAATGAGGGTGGGAACATTTTCTGTCGCAGTTTCCTTTTAAGCAC
1 CTCCCACGCCATATACCCCTCCCACGCCATACACCCTCCCACGCCATACACCCCTCCCACGCCATACACCCCTCCCACACCATACACTCCTCCCATGCCTCCCATGCCATACAAGCCCTCCCACGCCATACACCCCCTCCCACGCCATACATCCCTCCCACGCCTCCCATGCCATACACCCCTCCCACGCCATACACCCCCTCCCACGCCATACACCCCTTCCCATGCCTCCCACGCCATATACCCCTCCCACGCCTCCCACACCATACACCCCTCCCACGCCATACACCCCTCCTATGC
1 TGAGTGGATGGATGGATGGATGGATGGATGGATGGATGGGTGGGTGGGTGGGTGGGTGGATGAATGGATGGATGGATGGGTTGATGGGTGGGTGGATGGATGGGTGGATGAATGGATGGGTGAGTCAGTAAATGGATGGATAGGTCGGTAGATGGGTAGGTGGGTGGGTGAATGGGTGGAATAATGGATGGATAGGTGGATGGCTGGATGGATGGGTGGGTGAATGGGTAGGTGGGTAGGTGGGTGGGTGAGTGGGTAGATGCATGAATGGATGGATGAATTTATGAGTCAGTAGATGGG
1 ATACGTATGCGTATATGCGTATGTACATACATACGTATGCGTATATGCGTATGTACATACATACGTATGCGTATATGCGTATGTACATACATACGTATGCGTATATGCGTATGTACATACATACGTATGCGTACATGCGTATGCGTATATGCGTATGTACACACATACGTATGCGTACATATGTATGCGTATATGCGTATGTACACACATACGTATGCGTGCATACGTATGCGTATATGCGTATGTACATACATACGTATGCGTATATTTGTATATGTATGTATACACGCATATGTGTAT
1 TGGGTATATGTGTATAGTGTGGGGTGTGGGGTGTGTGGTAGGTTTGTGGTGTGTGTGTGTGTATAGTATGGGGTGTGTGTGTGTGATATGTGTGTGGGGTGTGGTGTGTGTGATGTGAGGCCTGTGCTGTATTTGAGGTGTGTGTGTGGAGGGGTGTATAGTATGGGGTGTGTGTGGTTCGTGGGGTGTGTGTGGTAGGTGGGTATGTGTGTGTAGTGTGGGGTGTGGAGTGTGTGGTGTGTTTGTGATGTGTGTGGGGAGGTATGTATAGTATGGAGTGTGTGTGGTGTGTGACGTGTG
1 CGGGTGAGTGGATGAGTGCATGGGTGGGCGGATGGGTGGGTGGATGGATGGGGGTGGGTGGGAGGGTGGATGGGTGGATGAATGGTAGGTGGGTTTGTGAATGGGTGAGTGGGTGGGTGGATGGGTGGATGGATGGATTAGTGTTTAGATAACTGGAAGTGTGGGTGGATGAATTGATGGGTTGATGGGTAGATGGATGGGTGGATGGATGGGTGGGTGGATGGATAGATGAGTAGGTAGATGGATGGGTGGATGGATGGGTGGGTGGATGGATAGATGAGTAGGTAGATGGATAGATGA
1 CTGAGGGTTGTGATGGTGTGTGTGGGTGTGTCAGGGTGTGTGTGTGGGCATGTGAGGGTGTGAGGGTGTATGAGGGTGTGGGTGTGTGAGGGTGAGTGGGTGTGTCGGTGTGAGGGCACATGAGGGTGTGTGGGTGAGTGTGAGAGAGAATGCGTGTGAAGTCAGTGTGTGATGGGTGAGGGTGTGTGGGTGTGTGAGGGTGTGTATGAGGGCATGTGAGGGTGTGTAAGGGTGTGAGGGGGTGAGGGTGTGACTGAGAGTGTAAGGGTGTGGGGATGTGTGAGGATGTGTGTGTGAGGA
1 GAAGGATGGATGGATGGAGTAATGGATGTTTGGATGGAGGTGTAGGTAGGTGAATAGATGGATGGATGGGTGGATGGTTGGTTGAATGGAGGTGTGGATGGGTGAATACATGAATGGATGGGTGGATGGATCGTTGATTGGATGTAGGTGTGGATAGATGAATAGATGAATGGATGGGTGGATGGATGGTTGCATGGAGGTGTGGATAGGTGAATAGATGGATGGATGGGTGGATGGATGGTTGGTTGGATGGAGGTGTGGATAGGTCAACAGAATGATGGATGGGTGGAGGGATGGTTG
1 GTTTCATGGGTATCCTGGGGTTTTGTGCAGATAGGGGGACTGTAACTACATACCCACCCCATGGCGGCCTTCAGTGTATGTGGGGTGTGGCTTCTTCGCCAAGGAAGAGCTGCCTGAGTCTGTCTCAGACCCACAAAGTGTTCCATAGAGTGGGTGTGGGCAGCAGCCCTGCCCTGCTGTCTGGGTGTGGACGGCAGCCCCACCCTGCTGTCTGGGTGTGAGTGACAGGCCGGCCCTGCTGTCTGGGTGTGAGTGACAGCCCCGCCCTGCTGTCTGGGTGTGAGTGACAGGCCGGCCCTC
1 ACCCATCCATCTATCCTCCCAGCTACCCATCCATTCATCCACTTATCCATCCATCCATCCACTCACCCAGTCATCCATCCACTCACCCACCCATGCATCTATCTATCCATTCATCCATCCTTCTACCTACCCATCCATTTATCTGTCCATCCATACACCCATCCACCCACCCATGTATTCATCTACCCATCCACCCACTCACCCATTAATCCATCTAACCTCCCACTACTCTTCATCCTTCCAACCCTGCTAGCCCATTCATCCATCTGATCACCCACCCATCCATCCTCCCACCTACCT
1 GGGCATTCAATTGAGAGTGGGAATGAGTAGGAACCACTCATCACAGCAGGAGAGGCATGCAACATTCAACATGGCTGCAGTGTAGGGAATGAAGAGCAGTGGAGACAGGGCTGCTACAAAGGTAGGTGGAGCCGCATGGGGAAGGGCGTGTCTACACTTCCCTCTACCTACTTCCTAAGGATGCATCTAAACTCATTTTACTGTCTCTTTGCTCCTCTAGTCCCCACACATACCTAGAATACTCTTGGTCACAAACTATTTGCTTTGCTGACTCCGAATCACAATTTTGATGTTTTAAGA
0.2324862895894238 CACACAGATTCACATGCATGCACAGCACAATCACACACTTGTATACACACACAGGCACACAGATTCACATGCATGCACACACTGCACTCGTGTTCACACACACATGCCTTCACACACCCAGATACACTTGCATGCACACACACCACACCCACACTTGTGTACACACATGCACACATATTCGCATGCACGCACACACACCTGCACACACACTGATGTGTGCGCACACACATGCTCTCACACATCTTCACATGCATACATTCACCCTACACACACCCACACTCATGTACACACACATGCCCA
1 GGTCGATTTTTAGAGACTGTGCAAGAGAACATCTTACTCTCATTACTCCCACACACACACACACCCTCACACACACACACACACCCCACACACCCTCACACACACACACAGCCCCCCACACACCCACACACACCCGACACACCCACACACACCCAACACACCCACACACACGCACCCCACACACCCACACACACCCCACACCCACCCCCACACCCACACACACACCCAGACACACACACCCTCACACACACACACACCCTCACCCTTGATGTTAACCCTGAGGGGCTTAATAGTCAGGTC
1 ATGTCCAGCACGCTTTTGAACTAGAGAGCAGCGGGCTGGGAGCCCAAGTGTCCTTCGTCCCTTTGTGGTTGGTACCACCCCTGGCCACTCCTGTCTTGGGGAGCCGTGTCCTCCCTGCCCCCGCCCCCAGCCACTCCTGTCCTGGGGAACCGTGTCCTCCCTGCCTCCACCCCTGGCCACTCCTGTCCTGGGGAACCGTGTCCTCCCTGCCCCCGCCCCCGGCCACTCCTGTCCTGGGGGACCGTGTCCTCCCTGCCCCCACCCCTGGCCACTCCTGTCCTGGGGGACCGTGTCCTCCCT
1 ACCTCCTCAGGATTCACACACTGCACGCTCCTAGGCTTCACACTCTACACCCTCTCGGGATTCATGTCCTACACCCTCCTGGGCTTCACACCCTGCACCTTCAGAGTTCACACCCAACACCTCCCCAAGATTCACACCCTGCGCCCTCCCAGGCTTTACACTCTACACCCTCCTGGGATTCATGCCCTACACCCTCCCAGGCTTCACACCCTGCACCCTCCCCCACCTTCACACTCTGCACACTCCCAGGCCTCACACCCGACACCCTCCCATGTTTCACACATGCACTCTCCCAGGCTT
1 GTGGAGCAGGCATGTAGAAATGTTTACAGGTTTATGGTCCTCACTCTTCCAAATCCCTAACGGCGGCACCCAACAGACACATACCACAATGTAAACACATACACACACACACACCTGCACACCCATACTCACCCACCTACACACACACCCGCACACACCCATACTCACCCACCTACACACAGACACACACCGATACTCACCCACCTACACCTAGACACACCTGCACTCACCCACCCACACCCAGACTCACCCACACATACCTGTAGTCCCCAGCTACTCCCAAGGCTGAGGCGAGAGATG
1 CCTGCGATCATGGTGGAAGGTGAAAGGCACGTCTTACATGGCAGCAGCAGGAGAGAATGAGACCAAGCAAAAGGAGAAACCCTCATAAAACTTTCACATCGGATCTCGTGGGACTTATACCACGAGAACAGTATGGGGGAACCGCCCCATGATTCAATCACCTCCCACCAAGTCCCACCCACCACACAGATTCAATCACCTCCCACCGGGTCCCGCCCACCACACAGATTCAATCACCTCCCACTGGGTCCCGCCCACCACACAGATTCAATCACCTCCCACCGGGTCCCGCCCACCACA
0.6599612971903632 TGGGTGCATGTGTACATGCGTGTGCATGTGTTCATGTGTGTATGTGCATATGGGTGCACGTGTGTGCATATGTGTGTGCTCGTGTGCATGTGCATGCATGCATGTGTGTGCATATTTGTTCATGTATGCATGTGCATGTATGCACATATGCATATGTATGCATCTGTGTATGTACATATGCATGCATCTGTGTATGTGCATATGTGTTCGTGTGTGCATGTGCATGTGTGTGTGTGTGCATTTGAATATGTGTGCATGCTCAGACTGTGATCATGGGAAATGATCTTTTCTGGAAATAGC
1 AGGAGCTCCATCTAGAGCACTGCGGGAGGAGCTCCATCTAGAACACTGCGGGAGGAGCTCCATCTAGAACACTGCGGGAGGAGCTCCATCTAGAACACTGCGGGAGGAGCTCCATCTAGAACAATGCGGGTGGAGCTCCATCTAGGACACTGTGGGTGGAGCTCCATCTAGAACACTGTGGGTGGGGAGTGTTGGCTCCGCTATACCATTTCCTCTTGTAATTTTGGCTTCTTTGTCATGAGCTTCTTTTTCAAAGTTGGCTTTTAGAGCCCATTGGTTACTGATATTTACTGATTTTCA
1 CTCCTATCTACGCCCATCTTTCCTGGGGACAGCCACTCCTATCTACGCCCATCTTTCCTGGGGACAGCCACTCCTATCTACGCCCATCTTTCCTGGGGACAGCCACTCCTATCTACGCCCATCTTTCCTGGGGACAGCCACTCCTATCCACGCCCATCTTTCCTGGGGTCAGCCACTCCGATCTACGCCCATCTTTCCTGGGGTCAGCCACTCCTATCTACGCCCATCTTTCCTGGGGACAGCCACTCCGATCTACGCCCATCTTTCCTGGGGACAGCCACTCCGATCTACGCCCATCTT
1 GGTGCACATGGCAGTGAGTGTGTGCATGCGTGTATGGGTGTGTGTGTGCGTGCATGTATGGGTGTGTGTGGGTGTGCATGCGTGTATGGGTGTGTGTGCGCATGTGTGTATGGGTGTGTGTATGGGTGTGTGTGTGTGCATGCATGTATGGGTGTGTGCATGCATGTATGGGTTGTGTGCATGCGTGTGTGTGCATGTGTGAGTGTGTGTATGCATGTGTGTGCATGCATGTATGGGTGTGTGTGCATGTGTGTGTGTGCATGCATGGGTGTGTGTGCGTGCATGTGTGTGTGTGTGCAT
1 GGGGATGGATGGATGTAGGTATGGATAGGTGGGTGGGTGGGTGGGTGGATGGATGGATGGATAGATGGGTGGATGAATGCATGGGTAGATGGATGAATAGATAGATGGGTGGGTGGATTGATGGGTAGATAGAGGGATGGGTGGGTGCATGAACAGATGGGTGGGTGGATGGGTGGATAAATGGATGGATAGATGGATGGGAGGATGAATGGATGGGTGAGTAGATAGATAGGTGTATGGGTATAGGTATGGATAGGTGGGTGGATGGATGGGTGGGTGGGTGAGTGAGTGAGTGGATGG
1 TTCACTTCTTTAATGTGGCTACTAGAAAATTTTAAATTTCCTGTACTGCTTGCCTTATATTTCTATTAGAAAGGGCTGCTGTGTGTGTGTGTGTGTGTATGTATGGGTGTGTGTGTGTATGGGTGTGTGTGTATGTATGTGTGTGTGTATGGGTGTGTGTGTATGTATGTGTGTGTGTGTATGTATGGGTGTGTGTGTATATATGTGTGCGTGTGTGTGTATGTATGGGTGTGTGTGTGTGTGTGTGTATATATACGGAGAGAGATTTCTGGAGTTTTTCTTGTCTTAACGAGTTTCCGA
1 GACTCTAAGCTGTTATTTGAAGTAGAAGTCATCCAGGAGCAGTGAGTGGGAAGAAGGTACAAGGTGGAGGGAAGAGCATGAGCAAAGGCCTGGAGGTAAGGGAGGGCATGAGGCAATTGAGCAACTGAAGGTAGCTTTCAGGGGTGTGTCTGGGTGTGGGTCAGCACCACCTCACACCCAGATCAAGTGCAGAGGGAAAAGGCACACCCTTCTCCATAGTCACAGGCTCAAGAACAATGTCTGGAAGGGACTGCAAGACCTGCTGATAGTTGTCCTTTGGATCAATGACAAAAAACATGA
1 GGAATTACAATCAACCTGAGATTTGGTTGGGGACACAGATCCAAAGCATATCAGCCTGTGTGGCTGTGTGTTGGCCGTGCAAGGCTTCTCCACCTGCCTGCTGGAGCTCTACCACCCCTATGGCTACAGCTATGGCTATGGCGACAATGGTAACTGCTCCTTCCTTCTCCCTTTCAGCCTAGGGGAGGACTTAGTCCTCCCCTATGTATTGTTGCTTAGGGTGCTGACCCATGCATTGTCTCTTTCCCTTAACCTTGCACATCTTTGTAAATACTTCCCTCACGAAACACTCCTCAGTCA
0.9295652617858696 GCATGTGTATTCATGCATGTGTGTATTCATGTGTGTGCATGGGTGTGTGTCCGTGTATGTGTGCACTCACGTGTACATGTGGGTGTGTGTGCATGTGTATTCATGCGTGTATTCATGTGTGCGCATGGGTGTGTGTCCGTGTACATGCACTTACATATACATGTGGGTGTGTGTATTCATGTGTGTATTCATGCGTGTGCATGGCTGTGTCTGTGTATATGCACTTACATATACATGTGGGTGTATGCGTGTGTATTCATGCGTGTATTCATGTGTGTGCATGGGTGTGTGTCCGTGTAT
1 GAGCCTTTTCTCCACGGTAATCGCTCGCGTCTTCAACCTTTCTTCACTCTTTTGAGCCACTCCTGCGTGTCCACACAGCTTGTGACCGCGTAACAGACCCAGCACAACTAGGGCGACAGCAAAAGAGGCGGAGCCAGGGTGTGTGCAGGGCACGCCCCTCCCTCCTGCTCCAGGTGAGGTATTTCCACCAGCGTGGATGCAACTGAAACCACGCCCTCTTTCCACCGTCTGGCCCAACCCCAGCCAGAAGCAGCTGATGGGACGGTAACAATGACAACTGGCATTTATGGAGAACCTGCT
1 CCATCTACCCACCCATCCACCCACCATCCATCCATCCATCCATCCACCCATCCACCTATCTATCCATTTTCCCACTCAGTTATCTATCCACCCACCCATCCACCTATCCATTCACTCATCCATCCATCTACCCATTCATCCACTCATCCATTCATCCATCCATCCACCCATCCACCCATCTATCCATTTGCCCACTCAGTTATCTATCCATCCACCCATCCACCCATCCATTCACTCATCCATCCATCTACCCATTCATCCACTCATCCATCCAGCCATCCATCCATCCATTCATCTGCT
1 CTCCCTACTCCCACTGCTGCCTACTCCCACTGCCTCCCTACTCCCACTGCTGCCTACTCCCACTGCCTCCCTACTCCCACTACCTCCCTACTCCCACTGCCTCCCTACTCCCACTGCCTCCCTACTCCCACTGCTGCCTACTCCCACTGTCTCCCTACTCCCACTACCTCCCTACTCCCACTGCCTCCCTACTCCCACTGCTGCCTACTCCCACTGCCTCCCTACTCCCACTGCTGCCTACTCCCACTGCCTCCCTACTCCCACTGCTGTCTACTCCCACTGCCTCCCTACTCCCACTGC
1 GCATCCGCAGAGCACTCCACCCAGCAACCGCATCCGCAGAGCACTCCACCCAGCAACCGCATCCGCAGAGCACTCCACCCAGCAACCGCATCCGCAGAGCACTCCACCCAGCAACCGCAGAGCACTCCACCCAGCAACCGCATCTGCAGAACACTCCACCCAGCAACCACATCCGCAGAGCACTCCACCCAGCAACCGCAGAGCACACACACTTCTCAAGTGTGCTGGAGCTTGCTCCAGGAAGAACCACATGTTGGGCCACAGAGAAAGTCTCAATAAATTTCAAAGGACTGAAATCAT
1 GTGGAAGAGGAATGGATGGATGGAGGGATGGAGGTAGGGATGGATGGATGGGTGGGTGGGTGGGTAGGTGGATGAATGGATATGTGGGTGGAAAGATTAGTGGGGTGGATGTATGGCTGTGTGCGTGTATGGGTAGATCAATAGGATGGATGGAGGGAGGATGGATGGATGAATGGATGGATATGTGGGTGGAAAGATTAGTGGGGTGGATGTATGGCTGTGTGTATGGGTAGATAGGATGGATGGATGGATAGATGGATGGGTGGGTGGACGGGTGGGTGGGTGAGTGAGTGAACTGAT
1 TTCATCCACACACCCACCCATTCACCCACCTGTCTGTTCAGTTATCCATCCGTCCATACACATACCCTCCATCCACTCATTTATCCAACCATCTATCCACACACCCATCCACCCATTTATCCACCCATTCATCCACCCATTCACCTATCCACCCACTCATCCATTTATCTACCCATCCATCCACTCATTCATCTATCCACCCATCCATTTATCCAACATCCATCCACACACCCATCCATCTATCCGTCCATCCACCCGCCCACCCACCCACCCATCCACACACCTATCCATTTATCCAAC
1 ATGGGTGGGTGAGTGGATGGGTGGGATAAGTGGATGAATAGTTGGGTAGATAGGTGGGCAGATATGTCGATGGGTAGATGGATGAATGGATGGGTGGATGGATGCAGGGATGATAGATATACAGATGGATGGGTGGATGTATAAATGGGTAAGTGGACGAATGGATGGGTGGACGGATGCAGGAATGGTAGATGTACAGATGGATGGGTGGATGGATAGGTAGGTAAGTGGATGAATGGATGCGTGGATGGATGGATAGATGGGTGGCCAGATGCATGAATGAGTAGATGGATGTTTGGA
1 CACACATACACACACCACACACCCCCCACACACATACACCACACACCCACACACCACACACACCCCCACACACACCACACCACACAACCACACATACACTACACACACCACACACACCCCACACACACACCACACCCCTCACACCACACCCACACACATACACCACACACCCCCACACATACCACACACACACACCCCACACACATACACCACACACACCCCTCACACATACACACACCCCACACACATACACACCACACACCCCACATACACATACACCACACACACACCCATACACAC
0.2566914496347482 ACACACACATGCATGCTCATATATGCATATGCACATACGCACACACATATGCATATGCACATACGCACACACATATGCATATGCACATACGCACACACATATGCATATGCACATACGCACACACATATGCATATGCACATATGCACACACATATGCATATGCACACACATGCAAGGCTGCAAGGCTCATGCACACACACACATGCACACACATGCACACACATGCACATGCACACACATGCACATGCATGCTCACATGTACAGGCACTCATGCACCTAGAGCCTTCTCATCCTTCACTTT
1 AAGGTGCCCACACCCTCCAGGTGGAGTCAAAGGAGGCCAAGCAGGTAGTAAGTGCCCCACCTATGGTGTCAGTGGAGACCATATGGGAAGCACTAACGAGGCACTCCCACCCCTCCCAACCAGGGAGGCATAAATGGGGACCTAGTGAGGAGCTGAAACTCCCATACCCACCCAGCAGTCAATGAAGAGTATCCCCCACCTTGGATGTCAAGGAGGCCAGGTCAGGAACCTATGATTTTCACCCCATCTAGCACTAACATGGCAGCACCCTTCTTCCTTTACCAGAGCAGTTACAAGAAG
1 ATTCACAGCAGGGGCAGGTGCTCCCTGGGCTACCTGCATCGGGGATGGATTGGTGCGTGTTGGGCTGACCCCTGCTTCCCAGGCCTGGGGTGGGGTCCCTGGGAGTCCACACACCCAGCTGGGGCTTCCACCCTGCCCTCCCAGTGGGTGCATCCCCAGGTGGAAGGTGATGGAGGGACCCACTCACTGTGCGCATCCCGCTGCGGGGGAGGGGCTGGGTCTCCGCCCTCCCCACCCCACCCTCCCCACTCCCGCCCCCGCACGGCCACGAGAGGGTGGCATGCTCCGCCTTCCCACGCC
1 GGTGGAGGTTGTAGGTTGGGTGAGGATGGAGGTTGTAGGTTGGGTGAGGTTGTAGATTATAGGCTGAGTGAGGGTGGAGGTTGTAGATTGGGTGAGGGTGAAGGTTGTTGACTGGGTAAGGGTAGAGGTTGTAGGTTGTGTGAGGATGGAGATTGTTGGCTGGATGAGGGTGGAGGTTGTAGGTTGGGTGAGGTTGGAGGTTGTAGGCTGGGTGAGGGTGGAGGTTGTAGGTTGGGTGAGGTTGTAGATTATAGGCTGAGTGAGGGTGGAGGTTGTTGTCTGGGTGAGGGTGGAGGTTGT
1 AAAACCTACATGCCTTCCCACTAGATGGAGCACAATGGCTATGGTGTGGCTACTAGATTGGTGGATGAATGGATGGGTGTGTGAGTGGGCAGAAGGATGAGTGTGTGGATGGATGGATAAATGGTGGATGTGTGGGTGGATGGATGGGCAGATGAATGGGTGGATAGATGGGTGGTATGAGGATGTGTGGATGGATGGATAGGTAGATGGATGGATGAATGGGTGAATGCGTAGATGGACGAATGAGTGGGTAGGTGTATGGATGAATGGATGGATGGGTGGGTGGATATGTGGATGAAT
1 CTGGGATTCATAGGGTTGTGACCCAAATGGCTGCACTTGTAGATTTGTGACCCAGAAGGCTACAATTCATAGGGTTGTGACACAGAGGGCTAAGAGTTGTAGGGTTATGACGCATAGAGTTAGATTTGTATGGCTTTAGCCCATGGGGCTGGGATTCATAGGGGTGTCACCCAAAGGGCTGAATTCGTAGGATTGTGACTCATAGGGCTGGATTTGCTGAGTTTTGACTCAGAGGGCTAAGAGTTGCAGGATTATGCCCTAGAAAGCTAGATTGATTGGGTTGTGACCCATGGGGCTGGG
0.8184450517885952 CATATATGTACATATATACGTATATGTGTACACATAAATGCACATATGTACATATACACGCATATATGTACGTATACACGTGCATATATGTACGTATACACGTGCGTATATGTACGTGTACACGTGCGTATATGTACGTATACACGTGCGTATATGTACGTATATGCACGTATATGTACGTATATGTACATATATGCACGTATATGTACATATATGTACGTATATGTACATATGCGTATATATGTACATATATGTACGTATATGTACATATGCGTATATATGTATATATGTACGTATATG
1 ATGTGCAAGGATTGGCCATGAAGCTTGGTGATAGTTGGGTATCTTCTGTTGGAAAACTGCATGTGGGGTCATTGTGATTATGTACAGTGGTTCCAGTCATCTTGTGCTGAGGTGGTGGGTGGATTAGGTGAGGTGGTGGGTGGATTAGGTGAGGTGGTGGGTGGATTAGGTGGCCATTCTTATCTATGAGTCTTGATTAATTGCACATAACCACAAAAAAAAACAAAAGTTATTTGGAGAGTCCTTTTCATCTTAACTGGCTGAAAGTCTTGCTCTACATTTAAATGTGTTACTCAGTGT
1 TATAAACTAGTAATGTCTTAGGGTTAACATTTCCCTAACACACATATACACATACATACACATATGCCTTCCCACACATATGCACACATACACACACACACACAGACCCCTAAATACCTACACACCCACACACCCACAAAAATGCACACACACCCATGTCTACACATGTGCACTCAGCTCCAGAACACAGGATGTGGCCACGCATACCCAGCACCTCCCCACACACAAATACCCAGCGTCCTTCCCATACCTGCATACCCAGCACTTTCCCACACACATACCCAGCGCTTCCCCACACAC
1 ATGGATGGGTGGATGGGTGGGTGGATGGATGGGTGGATGGATGAATGGGTGGGTATGGATGGATCGATGGGTGGATGGATGGATAGATGGATGAATGGGTGGGTGGATGGATGGGTGGATGGGTGGGTGGGTGGATAGGTGGGTGGATGGGTGGGTGAGTAGGTGGATGGATAGGTGGATAGGTGGGTGGATGGATGAGTGGGTGGGTGGATGTATGGATGGATGCGTGGGTGGATGGATGGGTGGGTGGGTGGGTGGATGGATGCGTGGGTGGATGGATGGGTGGGTGGGTGGGTGGAT
1 CCATCCATTCATCCATCCATCCACCTACCCATCCATTAATCCATCTACCTCCTGTCCACTCACCCACTCATTCTTCTATCCATCCATCTACCCACCCATCCATCTATTCATCCATTCATGCACCCATTCATCCACCCATCCAACCCACGAATCCACCTACCCACCCATCCATTCATCCACCCATCTGTCCTAACATCCACCCACTGATCTACTCATTCATCTGCACATCCATTCATCCTGCCCATCCTCCACCATCAACCTTCCTATTGATCTGTCAGTTATTAAAGTTAATTGCCAAAC
1 TGTATGTATGTATGGGGTGTGCCTGTGTGTGTGTCTGTAGTGTATCTGTGTCTGTATGGGGTGTGTCTGTGTGTGATTGTGTGTGTGTCTGTGGTGTATCTCTGTGTATGTATGGGGTGTGTCTGTATGATTGTGTGTGTCTGTGGTGTATCTGTGTCTGTATGTATGGGGTGTGTCTGTGTGATTGTGTGTCTGTGGTGTATCTCTGTGTCTGGGTGTGTCTGTGATTGTGTGTCTGTGGTGTATCTGTGTATATGGGGTGTGTCTGTGTGATTGTGTGTGTGTGGTCTATTTCTGTGT
1 TGGATGAGTGGATGGATGTGTAGATGGGAAGATGGATTGGTGAGTGAGGTCTTGGATAGTTGGGTGGTGAGTGGATAAGTGAACGGACGGGTGGATAGAAGGGTGGGTGGATGGATGGATCAGCAGATGGATCAGCAGATGAGTGGGTGGAGGGGCAGATACATGGATGGGAGGATGGGCGGATAAATAAGTAGGCAGGTGGAGGTAGCACTGGCATACAGCAAAGAGCACACTGTTTGAGACTCAGAATTCTATTCATAGCAAAATCCGACATGGAAAACATCCACACTCCTGAATCTG
1 GTAGGTGCGAGGGTGTGTGTAGGTGAGGGGGTGTGTGCCTGTAGGGGGCGCGTGCGTGTATGGGTGTGTAGGTGCAAGGGGTGTGTGTAGGTGAGGGGGTGTGTGTAGGTAGGGGGTGTGTGCATGAGGGTGTGTGTAGGTGCAGGGGTGTGTGTGTGTAGGGGTATGCGTGTATACACTTACAGTCCTGCTCCTAGTGGATTCTGGTTCAAGCCTTAGCAAGGCGGAGCAGGCAGTGAGGGATATGGCACTGTCACCTGCAGTCTGCAGCCCGCAGCCAGCTCTGCCGGAGTATATGTA
1 AGTGTGTGTGTGTGGTTGGTGAGTTTGCGTAATATATGTATATGGGTGTGGGTGTGTCTATGTGTGTATGCATGTATATGTGTGTATACAAGTGTTTGTGTGAATATATGTGTATGTGTATGTGCATGTGTATGTCTGTATACAAGTGTATGCATGTACGTGTGTATGTGCATATGTCTATGCATGCGTGTGTGAGTGTGTATGAATGTGAGTATGTACGTATGGATATGCATGTCTTTGTGTGTGTGTGTGTGTGTGTGTGTACACACATGTATATATGTATTTTTTGGCCTGAGTACT
1 CCCATCTGTCACCCATTAACCCATCCATTCATCCACTCATTCACCCACCCACCTGCTTATCCACTCATCGTCCACCTATCTACCCACCCATCCACCTATCCACCTACTTGTCTACCCACCATCCACCCATCCCTCTATCCAGCCAGTCATCCATCCATCCATCCAGTCATCCACCCATCCAGCCATCCAGCCATCAATCCACCCAGCCATCCACCCATCCATGCACCCACCCATCCACCCACCCACTCACCCACTTACCTATCCATCCATCTTTCATCTACCCATTCACCCACCCATCCA
0.3037907313920612 TAATATCATACTCTCCCTCCCTGGATATTAGGAACAATATCACAGGGTGGGTGTACAACCCCTGCGATATTGGGAGTAATGTCATCCTCTTCCTATATGGATGTTAGGAACAATATTACAGGGGTGGTGTACACCTCCCACGATATTGGCAGTAATATCATCCTCTCCCCCCGAATATTAGAAACAATATCACAGGGTGGGGCTGTACATTCCCTGCGATAATGAAAGCAGTATTATCCTCTGTTCCTCTGAAAATTAGGAATAATATCACAGGGGTAATATACACCCCCTGCGATATTG
1 CCCATCCACCCTTCCAACCACCCATCCACCCATTTACCTTTCCATGCACCCATCCACCCTTCCAACCACCCATCCACCCTTCCATCCACCCATCCACCCTTCCATCCACCCGTTTACCCTTCTATCCACCCATCCACCCTTCCATCTACCCATCCACCCTTCCATCCACCCATCCACCCATTTACCCTTCCATTTACCCATTCACCCTTCCAACCACCCAGCCACCCTTCCATCCACCCATCCACCCTTCCATCCACCCATTCACCCTTCCATCCACCAATCCACCTTCCATCTACGCAT
1 GTGTATGTGAATGTGGGGGGGGTGTGTCGTGTGTGTGTATGTGGAGGGATATGGGTGTGTATGCTTGTGTCTGTGCATCTCTGTGTGGGGGGTGTGGGTATGGGTCTGTGTTTGTATATAGGTGTATGTGTGTGTCTGTGTGCTTGTGTATGTGTCTCTGTGTGTAGGGGGTGTGGATATGGGTGTGTGTTTTGTGTGTGTGTGTATGTGGAAGGGTATGGGTATGTATGCTTGTGTGTGTGTGTCTCTGTGTGTGGGGGGGTGTGGGTATGGGTGTGTGTGTGTGTTGAGGATGGGGAG
1 AGCGTTGGGGCGGTAGCGGCCAGAGGTTTAGACATTGTAATGACAGTATGTTCCACCAGACAGTTCAATAGAAACCTCTCCTTCCATTCAGGTACACCTGAGTGCTCAAAGTATGTATGCACGTATTGCATGCTTGTATATGCACATATGCATGTATATGTGTACATGTATATGTGCATGTATGTGCATATGTGTATGAATACATGTACGTGTGCATGGGTGTATGTATGTATTACTAGTGTTTATTTACTTGTTGGGTTTTTATTGTGGGGGGGTTGTTTTTGAGACAGAGTGTTGCTC
0.8593100709243576 TATTTGTGGATGTGAGTGTGATCTATGTGTGTGTGCGTGCATGGGTGTGTATTTGTGCGTGTGTGTGAGGATCCTTGTGCATGGGTGTGTATTTGTGCATGTGTGTGTGAGGATCTATGTGCATGTGTGTCTGGGCATGGGTGTGTGTGCATATGTGTGTGTCTGAGGATATATGTGCATTGTGTGCATGGGTGTGTATTTGTGCATGTGTGTGTATGAGGATCTGTGTGCCTGGGTGTGTATTTGTGCGTATGTCTGAAGGTCTATGTGCATGCGTGTGCGCATGGGTGTGTATTTGTG
1 CGCACCTGCCTCTCTGCACCCCTTAACCCTCTGCATGCATATACCATGTACACCCATACCCCTCACCCTTTGCACACACCTACCCTTGCACATGCACACCCCTCACCCATTGTGCACACCTACCCTTGCACACCCACATTCCTCACCCATTGCACACACCTACCCGTGCATGCCTGCACCCCTCACTTCTGTACACACCTACCCATGCATGCCTGCATCTTCGTTATACACACCCTACTCATGCACACCCACACCACTCACCCCTGTGCACACCTACCCATACATGCCCATAGCTCTCAC
0.5819872853067274 TCAACACAGATTGCCAAGCCCTCAAAGACACTGTTTATGTGCACATACACAGGCACATGTATACACGTGCATATGTGCACACAGACACATACATATGTGATGCAAATGTAAGCACACATGCACATACATACATGCGCACGCATATACTCACATACATACATGCGCACACATATACTCACATACATACATGCACACACATATACTCACATACATACATGCGCACACATGCACATGCATACATGCGCACACATATACTCACATACATACATGTGCACACATACTCACATACATACATGCGCA
1 GTGGTCCTCCCTCAGCTTGGGTGTGTGTGTGTTGCTCCCTCAGCCTGGATGTGTGTTGTTCCCTCAGCTTTGGTGTGTGTTGTTCCCTCTGCTTGGGTGTGTGTGTGTTGTTCTCTCGGCTTGGGTGTGTGTGTGTTGTTCCCTCAGCCTGGGTGTATGTGTGTTGTTCCCTCAGCTTGGGTGTGTGCATGTTGTTCCCTCGGCTTGGGTGTGTGTGTGTTGTTCCCTCAGCTTGGGTGTGTGTGTGTTGTTCCCTCAGCCTGAGTGTGTGTTGTTCTCTCAGCTTGGGTGTGTGTGTGG
1 CAGGTCCCCCAGGAAACTCCGCCCCTTTACAGTGTCGCTGCTCACCAGCCCCCCCCAGGAAACTCCGCCCCTTTACAGTATTGCTGCTCACCAGCCCCCCAGGAAACTCCGCCCCTTTACAGTGTCGCTGCTCACCAGCCCCCCCAGGAAACTCCGCCCCTTTACAGTGTTGCTGCTCACCAGTCCCCCCCAGGAAACTCCGCCCCTTTACAGTGTCGCTGCTCACCAGCCCCCCAGGAAACTCCGCCCCTTTACAGTGTCACTGCTCACCAGCCCCCCAGGAAACTCCGCCCCTTTTGG
1 CACAGAAAGAGAGCTGTATGCAGCATCGCACCACAAACATGCTCATATATGCATACACATGCACGCACCCCACATGCATGCATACACACCACACATATGCATACAAATGCACACCCCCGTGTATGCACACACATGCCAAACACATGCGCACATCCCCCACATGCATGCACACACACCCCACATATGCACACACCCCACATGCATGTACACCCCCCACATATGCACACATATGCACACACCACACATATGCACCCCCCATGCATGCACACACACCACACATATCCACACACATGCACACCC
1 TACACAAACACAGACAGCGAGAATTTGCTTTCTATTAAGGGGCAGGTATTTATTTTTTCTATATTCAGAAGCCAGTGCTTTGGTTCTCAAAGCTTCTTTTCAATGGGTGCTTAGAGACAAAACATTGATGATGCTGGTGGGAGAGGGGCGGCATGTGCCTGGGTGGACTTGCAATCATTCTCTTCCCATTCCTCAAGTCCACACACCCAGCTCAGTGGCAACCAGACATACCACTTCCACTCAGCTCCACAACTGTCTACTAAAAAAGAGACTGGACAACACCAATCTCAGAGCTGTAGG
1 GATAAGTGGATGGATGAGTGGATGGGTGGGTGGGTGGATGGGTGGATGGGTGTGTGATTGGGTGGGCAGATGGGTGGATGGATGGATGCTTGGGCAGATGGATGGATGGGTGGTTGGGTGGATGGATGAAGGGATGGATAAGTGGATGGATGGGTGGATGAGTGGATGGATGAATGGTGGGAGTTGGTAGGTGTTTGGGTGGGTGGATGGATGTGTGGGTGAAATCTGATTAAAGGGTGATGAAGAACCATGAGAACATGAATTGGGTGGGTGGGTTTGTGGGTGGTGGCCAGTGGGTGG
0.6859496583452447 ACATATAAATATATGCACATATGCATATGCATACATGCATGCATGTACAAATGTATATGCATGCTTACATGCACATATACATATGCACATATAAATATACGCACATATGCATATTCATGCATATATGTACATATGCAAGTGCATACATGCATATATGTATGCTTACATATGTGTGTGCATGCATGCACATATGCATATGCATACAGACATACATGTACATGTATATGCATGTACACATACATCCACACATGTGTATGCATGCATACATATATGTATGTATGTCTACGTGTGTATGTGTAT
1 TGGCTGGGTTGGGTGTATAGTGTGGAGGTGTGAGGGGGTGTGTGGAGTGTGCATATGTGGGTGTTGGGTGTGTAGTGGGGGTGTGTGGAGTGTATATGTGGGTGTGTAGTGGGGGTGTGAGGGGTGTGGAGTGTGCATATGTGGGTGTTGGGTGTGTAGTGTGTGAGGGGGTGGGGGTGTGTGGAGTGTGTGTATGTGGGTGTTGGGTGTGTGGTGTGGGGTGTGTGTGGAGTGTGGCTATGGGGGTGCTGGGTGTGTAGTGTGGGGGTGTGGTTTGGTGTGTTGCGTGTGTAGTGTGGG
1 TGCATGTGTGTGGGGGTGGGGGTGTGCATGGGGGTGTGCATGTATGTGCATGTGTGTGTGGGTGCATGTGTGTGTGCATATATGTGTGTGATATATGTGGGTGTGTGTGCATGTGGGTGTCAATGTGTGTGCATGTGTGTATGCATTTGAGTGTGGGTGTGCATGTGTGTTCATGTGGGTGTGCACGTATGTGTGTGTGTGTGTGTTCATGTGGGTGTGCGTGTGTGGGTGTGCATGTATGTGTGGGTGTGTGCGTTTGGGGGGTGTACATGTGTGGGTGTGCATGTGTGTGGGTGGGTG
1 ATGACCGGGTGTGGGATCAGCCCCCTCCTTACTACTTAAATCAAACACACTGCATGACCGGGTGTGTGATCAGCCCCCTCCTTACTACTTAAATCAAACACACTGCATGACCGGGTGTGTGATCAGCCCCCTCCTTACTACTTAAATCAAAGACACCTCATGACCGGGTGTGTGATCAGCCCCCTCCTTACTACTTAAATCAAACACACTGCATGACCGGGTGTGGGATCAGTTCCCCCCTTACTACTTAAATCAAACACACTGCATGACCGGGTGTGGGATCAGTTCCCCCCTTACTAC
1 CATATACACATATACACATATGCATATACACATATACACATATGCATATACACATATACACATATGCATATGCACATATGCATATGCACATATGCATATGCACATATGCATATGCACATATGCATATGCACATATGCATATGCACATATGCATATATACATATGCACATATGCATATATGCATATATACATATGCATATATGCATATATACATATACATATGTATATATACATATGTATATATACATATATACATATACATATATACATATATACATATACATATATACATATATACATG
1 TGTTTCTGTGGAAAAGAGGCAGGCTCCTGGCAAAAGGTCAGAGTCTGGATCACCTTCTGCTGGAGGCCACAGCAAACCTCCTCACAGCCCACTGGTCCTCAAGAGGTGCCACGTCTCCACACATCAGCACAACTACGCAGCGCCTCCCTCCACTCGGAAGGACTATCCTGCTGCCAAGAGGGTCAAGTTGGACAGTGTCAGAGTCCTGAGACAGATCAGCAACAACCGAAAATGCACCAGCCCCAGGTCCTCGGACACCGAGGAGAATGTCAAGAGGCGAACACACAACGTCTTGGAGCG
1 ATCCATCCATCCATTTATTCACCTATCTACCCACCCACCCATCCAACCATCTATCCACCTATTCATCATCCATCTACCCATCCACCCATCCATCCATCCATTCACCTATCCACCCACCCACCCATCCAACAATCTATCCACCTATCTATCATCCATCCACCCATTTACTCATCCACCCATCCACCCATCCATCTACCCATTCATCCATCCATCCATTCATCCAGGGTTTACTAAACCCCTACCACAATGGATTACAGTGATAGGTCATGACAGCTGCTATTACTTCCAGGTTGAGTAGTG
1 AGAAACTTTCGAAGTTGGTAGAAGAGCTCACAACTTCAGGAGAACCCCGACTAAATCCTGAGAAAATGAAGGAACTGAAGAAAATTTGCAAGTATGTCTTAGGGTTCAGTAACAGTAACTGACTGGCCCACTGAGCCCAGGACACACACAGGGCCCTGCCCTCCTGCCCCCACCTGGGAGAGAACCACCCGAGGGACACACCCAGGACATTTTCTCGGGGCCCTGCAGTACCCGGCTCTGACGGGTGGTCATGTTCTGGGGTCGGGGCGTGTGGCGTTGGGGACCCCACTGCTCTGTGGT
0.7157472120681129 CCATGGGGTGTGGGCTGTGAGGTATCAACCCTGAGTGTGAGGTGTGACTGTGAGGTGTGACTGTGAGGTGTGGACTGTGAGGTGTGACTGTGAGGTGTGACTGTGAGGTGTGGACTGTGAGGTGTGAATGTGAGGCGTGACTGTGAGGCGTGACTGTGAGGCGTGACTGTGAGGTGTGGACTGTGAGGTGTGACTGTGAGGTGTGACTGTGAGGTGTGGACTGTGAGGTGTGACTGTGAGGTGTGACTGTGAGGTGTGGACTGTGAGGTGTGACTGTGAGGTGTGACTGTGAGGCATGGA
1 TCCATACACTCATCCATTCACCATCCACCCATCCACTTATTCACACATCTATCCATCTATCCACCCATCCATCCATCCATTCACCTATCTACCTATCCACCGTCCATCCTTCCACCCACCCATCCATCCATTTATCCATTCATCCACCCACACATCCACCCATCCATCCACCCACCATCCATCCATCCATTAATTCACACACCAACCACCCATCCATTCACCCACCCACTTGCCCACCCATCCATTCATCTATTCATCCATCCATCCACCCATCTGTCTATCCACCCATCCATTCATCTA
1 GGTGGGTGGGTAGAGGATGGACGGACAGGTGAGTGGGTGGGTGGATGGATAGATGGGTAAGTGAGTGGATAGATAGATGGGTGGGTGGACAGAGGATGGGTGGATGAATGGATGGGTTAGTGGGTGGCTGGGTGGATGGATGATGGATGGGTGACTGGGTGGATGGATGGATGGGTTAGTGGGTGGCTGGGTGGATAGATGGATGGGTGATTGGGCGAATGGGCGAATGGGTGGATGGGTGGGCGTGGAGTTGGTGGGTACATGATAATGGGGTGGAATACCCATGGATTGGAATGAGCT
1 TGCCCTCCACCCTTCTCTTATAGGTGTTGGCCTCCTTTTCCTATTGCCTTCTCCTCTATGCCTGTGTCTGAAATTGCCCTCCACCCTTCTCTTATAGGTGTTGGCCTCCTTTTCCTATTGCCTGCTCCTCAATGCCTGTGTCTGAAATTGCCCTCCACCCTTCTCTTATAGGTGTTGGCCTCCTTTTCCTATTGCCTTCTCCTCAATGCCTGTGTCTAAAATTGCCCTCCACCCTTCTCTTATAGGTGTTGGCCTCCTTTTCCTATTGCCTTCTCCTCTATGCCTGTGTCTAAAATTGCC
1 GGCCATCCCCTGAGACATCTGCCGCTGCCACAGCCTCCATCTGCCATCAGTCCCGGGGAGAACAGCAAGAGCAGGTTCCCCCCACAGTGCTACGCCACCCAGTACCAGGACTACAGCCTGTCGTCAGCCCACAAGGTGTCAGGTGGGTGTGCCCAGGATCTGTCACCCCCATCCCAGGATTCGATGCCAGGGGAAGCCCACGTCTACTTTTTTTCCAGCGTCTGCACAGTGCCAGGCACAGGGAGGTGCTTGACTTGAAGTCACCTATACAGGGCTCAGGTCTCCTTGGATTTAGGGAAC
1 CCACCCTGCATCCTCCACCCTGCGTCCTCCACCCAGCGTCCTCCACCCTGCATCCTCCACCCAGTGTCCTCCACCCTGCATCCTCCACCCTGCATCCTCCACCCTGCGTCCTCCACCCAGCGTCCTCCACCCTGCATCCTCCACCCAGCGTCCTCCACCCGGCTTCCTCTACCCTGCTTCCTTCAGCAGCACAGTCAGGACTGTGGTTGGGGTTCAGCCTGTGGCCAGGGTCAGGGCGCACGGCTATAACCCAGGGCTGGGGTTCAGGCCATAGCTGGAGTGCAGTAAGGCGAATGACCC
1 TCTACTTTGTGCCTGGGGAGATGCCTCTTAAACTTGAAGCCTGGAATTGTCACCCATAAATGGGGATGCTTCATAGAAATCAGCTCTCTATCCATTCACCCATTCATTCACTCATATGTCCATTCATCCATCCACTCACTAACCTATTTATCCACCCATCCATTGTCCATCTGTCCACCCATCCACCCATCTACCCATCTATGTAACCATCCACCCATCCAACAACACAAATTATTAATCTATCACATGCCATGAGCTCTGCTGGGGCTGCTCCTGGGAGGAGGCGGATGAGTAGACACA
1 TTAAGATGCATAAATGGCACAATATATATTGAATCAGTTTAAAACATATTGAGAAACAAGGAGAAAGGGATGGGTGGTGGTGGTGGGGGTGGGGGTGGGCGTGGGTGGGTGGGACTTGACACACCTAGAATAGCATCCAGTTGGGTGGAAGGAGTTTGTTGCCTGAATGCTGGAGTCTTCAATGTTCATACATCTTGTCTTCCTACTGGAAGGCATCAGCCTTCCCTGCTGACTGTGTGGTTATGAGGACCAGAATTGCAGGTGAGCAAGGGGCTCAGTACACAGAAGGTGCCTGCGGTC
1 CATTAATAATATGTAAAGAGCTTAGGATAGTATCTGGCATCTAAGTGCTATAAATGTGTGTTAGCTCTTATTATTTTTACCACAACTACCACCACCACTGCATATATTACTGCTAGTGTCCATGCCAGGAGAACCATGTCTGTTCCCTAGGTGGCATATGGGTGTGTGTATGTAAAGATGAGGTGACTGTGTGGTCTTGTGCTGCTCTCTCTGAGCCCTCCTTGGCCTCTGGAGTAATAGTATTGCTGTCCACCTGGTCAATGTGTCCTGCTGATAAGTGCTGTTGCAGTCTGTGGTCAG
1 CAGGGTCCGAGACAGAATCTATTTTCCATTTGAGCCTCTCCCTCCCGAACTCCAAGTTCAGGGGTGGGATTCACATACTCTCACACCCCGCTCCACACACCCCACACTCACATCCCCTCACATACACACCCCTCCCCACACCCCACACACTCACACCCCACATACACCCCTACACACACCCTACACACACACACCCCCCACACACACCCCACACACCCACACACCCCACACACCCCACACCCACACACCCCACACCCACACACCCCCATACACCCCCATACACCCCCATACACCCCCCCA
0.8136053862458142 TTGTAGGGACCTCAGGCGAGCGGGATGACACAGTGTAGGGACCTCAGGCGGGTGGAGTGACACAGTGTTTGTAGGGACGTCAGGCGGCTGGAATGACAGTGTAGGGACCTCAGGCGGGTGGAATGACACAGTGTAGGGATCTCACGTGGGTGGAATGACACAGTGCTTGTAGCGACCTCAGGCGGGCGGAATGACACAGTGTAGGGACCTCAGGCGGGTGGAATGACAGTGTAGGGACCTCACGTGGGTGGAATGGCACAGCGTTTGTAGGGACCTCAGGCAGGTGGAATGACACAGTCT
0.7424486339406094 ACATCACAGAAAGGGTGTACACCCCTACGACATTGGGAATAATATCATCCTCTGCGACCCTGAATATTAGGAACATTATCACAGGAAGGGTGTGATAACCCCCTGCAATATTGGGAGGAATGTCATCCTCTCCCACCTTGAATATTAGGAACAGTATCACAGGAAGGGTGTACACCGTACATCCCCTGGGATATTGGGAGGAATATCATCCTCTCCCACCCTGAATATTAGAAATAATATCACAGGAGATTGTTCACCCTCTGTAATATTGTAAGTAATATCATCCTCTCTCTCTCTCTA
0.7098735042726566 GGCCACATTCACCATGGGGGGCGTATCCGCACAGCGGCCACATTCACCATGGGGGGCGTATCCGCACAGCGGCCACATTCACCATGGGGGGCGTATCCGCACAGCGGCCACATTCACCATGGGGGGCGTATCCGCACAGCACACACATTCACCATGGAGGGCGTATCCGCACAGCGGCCACATTCACCATGGAGGGCGTATCTGCACAGCAGCCACATTCACCATGGAGGGCGTATCCCCACAGCAGCCACATTAGCCATGGAGGGTGTATCTGCACAGCAGCCACATTCACCATGGAGG
1 GAATGGATGCATGCATCCTTGTGTGCATGGGTAGATGGGGAGGGTGGGTGGGTGAGTGAATAGCTGGATGGAGGAGTTGAAGAGGATAGATGGGTGGAAGCATAGATGGGTGGTTTGAAGGGGAGAGTGGTTAAGCAGGGGGAGGATTGACAGGTGGGTGGATATAAGCCTTCATGCATGACTAGGTGGGCGTGTGATGCATAGATGAGTAAATAGATGGGGGAGTGGGTGGTGGATGTGTGCATAGGTTGGCTGAGGAGTGAGTGAATTGATGGGTGGGTGAGGAGAGAGAGGGGTTGA
1 CACACCACATGAGTGTGTACCAGTGACCTTCACACATATCGTTGTGTACCAGTGACGTTCACCTTCATGGCCATCAGTGTGTACCAGTGACCACCCCTTCACACCACATGAATGTGTACCAGAAACCTTCACACCCATCAGTGTGTACCAGTGACCTCCCCTTCACGCCCATCAGTGTGTACCGGTGACCTCCCCTTCACACCCATCACTGTGTACCAGTGACCTCCCCTTCACACCCATCACTGTGTACCGGTGACCTCCCCTTCACACCCGTCACTGTGTACCAGTGACCTCCCCTTC
0.5781251550584807 GCATGTGTGCATATGCATGCATGCGTATATGTGTTTGCCTGTGTGTGCATGTGTGTCTCTATGTGCCTGCGTGTGTATGTGTGTGCATGTGTATGTGTGCGCATGTGTATGTGTGTGCATGTGTGCATATGCATGCATTCGTGTATGTGTGTGTGCCTGTGTGTGCATGTGTGTCTGTATGTGTGTGTATGTGTGTGCATGTGTGTCATAAGCGCATTAGGGCATATGCACAGCACTTCCCACATACCTCTCTTCCCTAGGGAATTGTTTCAAGGTAGAAGCTGTTCTTAAACAACTGCT
1 TCTACACCCACCACACACACCTACACACACCACACCTACACTCATACACCTACACACACCCCTACACACACCACACACACATCTACACCCACACCTACACACACCACACCTATACTCATACACCTACACACACCCTTACACACACCACACCTACACACTCATACACCTACACACACACCACACACACATCTACACCCACCACACCTACACACACACCCCTACACCTACACATACACACCTACACACACCACACACCTACACCTACCCACACCTACACCTACACATACACACCTACATTCA
1 GCACTTCCTACACATGAAAGTAGTTACGATTTATAGAGCCCTGATTTGGTCCCAGGTGCTGTGTTACAAGTGCTAAGCTACTGAGTCATGCAGATGACTCCACAAGGTAAGCATTATTCACCCCATTTGCAGAAGAGGAAAGTCGGGGCAGGGGTAGAACCACACCCTAAGTCATCAGTGCATGCATTCGCAGATTAGTGTGAAATCACAGAGCAATGAGAAATGGATTTCCTCCTCCCGGACAGAGTCAAAGAACCTCACCAGGAGGCTCTCCCTCCCTCCCTACCTAAGAGTCTTCAG
1 ATGCATGGGTGGGTGGATGAGTGGGCAGAGGCATGCATAGATGATGCATGGGTGCGTGGTGGGTAGATGCATGAGTAGATGGGCAAATGGATGGATGCATGGGTGGGTGGGTGGATGGATGCATGCATGCATGTATGAAGGCATGGGTGGGTGGATGCATGGGTGGATAGATGGATGGATGCATGGGTGGGAGAGTGAATAGATGGATGGATGCATGGATGCATGGGTGGGTGGGAGGATGTTTACGTGGAGAATAGGTGGATGGGTGGTTGGGTGGACGGGAGGCTAAATGGAAGGATG
0.3562079231055119 CTTGTGCATATGAGTGTGTGCATGTGATGTGTGCATATGTATGTGCATGTGATGTGTGCATATGTATATGTGCGTGCACATGAGTGCATATGTAAATGCACTTGTATGTGTGCATGCATGATGTGCACATATGTGTGTGGGTGTGTGCACATGTATACATGTATGCTTACACATGCGTGCATATAAGAGTGCGTGCATGTGATGTATGCATATGTATGTGTGCATGCACATAAGTACATATGTAAATGCACGTGTACGTGTGCATGCATAATGTACACATATGTGTGTGGGTGTGTGCAA
1 TACCCCTGTCCTTCAGTACATTCTATGTAGACCTCACCTACACATTACTTTTCTCTACCTGTACTCCATCTACACTTCAGTGTACTCTACTCATACTCCACCCACTTCAATATACTCTAACCATACTCTGCCTACACTTCAGCATACTCTATCCATACTCCACCTACACTTAGGTATACTCTACCCATACTCCACCTGCACTTCAGTACATTCTATGCCACCTAAACTTTACTGTTCTCTATCTATACTCCATCTACACTTCAGTATACTTTACCTATACTCCACCTACACTTCAGTATA
1 ACATACCCCATAGGCACACACAGGCACATATACATGCCACACACATGCACACACACCTCACACACACAACATACCACACATGCACATATAAATACACACATGTCCATATGCACACAACACACACTCACATATACACCCCCCACATGAGCACACCACACACGCATATGCAAACACATCACACACCTCACATAGACACACACATGCCTACACATACACCCACCCACCCACACACACACACAAACACACACATATGGCCTCACAGCTCAGTACACCCTAAGCTTATCAGTCTCTGATGAATCC
1 ATGTCACTGTGCAGGGTGGTACACCCATGTCACTGTGGAGGGTGGTGCGCCCATGTCACTGTGGAGGGTGGGTGCGCCCATGTCACTGTGGAGGGTGGCTGCACCCATGTCACTGTAGATAGTGCCTGCACCTATGTCACTGTAGACATGGTGTGCTACCATGAGGGTGTGCACAGTGTCACTATGTGGAGTACACACCCTCCTCTTTTGCATGCATATTTTCCCTTGTCCTTTTATCACGGTTATCTGTGTTTTCACCCTAGGTTTATGTGGAGAACTCCACATCTACACAGCCTATTT
1 ATACCCCCTGCATACTCCTTATGTACAGCACTGCACATACTCCCTGCAGAGACCCTGTGTGCATCCTCTGCACACACCCCTTCTGTATACTGTCTGCACACACCCCCTACATGTACACCCTCTGCACACTCCTCCTGCATACACCCCATGTACACCTTCTGCACACACTCCCTGAACACATTCTGAGTACACCTCCTGCACACCCCGTGTACAACCTCTGCACACACCCCCTACACACTCCCCTACACACTCCCCTACACCATCCACACACACTCCCTGCACACAGCCCCTGCACACATT
1 CCACACCCGCACACACCCGCACACACCCCACACACCTGCACACACCCACACACCTGCGTGCACACCCCCCCACACACCTGCACACACCGCCCACACCAACATGCACACACCTCCCCCCCACACACACCCACGCACACACCTGTACACACACACCTACACATCTGCGCACATACCCGCACACACCTGCATGTAAACATGCACACACACGCACATCTGCACGCACATGCGCACACCTGCACACACCCACACACCAACATGCACACATCCACACACATACCTGCACACAACTGCACACCCCCG
1 ACAGACCTTCAGCTGGACACAGTGAGGGAAGGACCTGGAAGTGTGTTCTAGACACTTTAATACATTCACCCCACAAGGCCCTGGCTGCCCACCCTCCACCACTCAACACATTGTGCATACACACACACGTGCACATACATGCATGCATGCATGCACATACACTTGGCCACTCCTCTCCTTCTCTCCTGCACATCCCTGAGGCCACTTGACTTTGCTGCTCTTCTGTCCAAGACCACAGTCCCTGCCCAGCTTCCAGATGTACAAAGGAGAGCTTAGACACTTGAGGAAAATGGCTTTCAG
1 GTTGGATCGTGGGGGTGGAGTGCCCATTGCTGCTGGAGGTGGGGCTGGTGGGAGGTGGTTGGATCGTGGGGGTGGAGTGCCCATTGCTGCTGGCGGTGGGGCTGGTGGGAGGTGGTTGGATCGTGCGGGTGGAGTGCCCATTGCTGCTGGAGGTGGGGCTGGTGGGAGGTGGTTGGATCGTGCGGGTGGAGTGCTCGTGAAGGGTTTAGCACCATCCTCTACTTGGGACTGTATAGTGAGTGAGTTCTTGTGAGGCCTGGTTGTTGAAAAGTGTGTGGCACCTGCCCCCTCTCTCCCTTT
1 TGTTCACAGGAGCTTATGAAGGCTGAACATGGAGATGAGTGGGGAGTTCTTAGCACAGAAAGTGGCTCCTAGTAGGTGGCATGGTGGTGGTATTACTTTTATCACACCCTGTCCACTGGCATTTCTCCTTAGGCCTCCAGCAGAGAGCGCAGGGGTGGCATGTGCAGTCCAAGGTGGGCAGCAGCATATTCATAAGCCCAGGCTGGAGTCTAAACCCCAGAGTGGAAGTCCTTGTAGCTGTGTGACTTGGGTAAGTTGCTTAACCCCTCCAGGCTTCAGTTCAGTGACTATTAAAACAGA
1 GAGAGCTGTGGAAGGATTGCTGAGCAGAGCTGCGATCCCTACTGGGGCCAGAGACCATGAACTTGTCATGGTAGCAGTCTGCACGACTGGGTGAGTTTCTCCAGCAGTGCTCAGCAGCGCAGATGGGGGGCAGAAAGGCGTGGAAGAGGATGAGAACAGAGACACGCAGCAGGGACGGGGTGGAGAGGACAGGGAGCCAGGACCACGGAGCGCTGGCAAGAGCCTGCTCAGGGTGAGATGCCCAGGAGTTCCCTGGAGAGGACATGGTGAAGTCGAGACAGCAGGGAGAACAGAAGGAAA
0.8432473009530489 ATATTGCAAATACTATCACAAGGTGTACACCCACTGTGATAACAGGAGTAATACGTCCCAAGGATACTACCAAGAATATCACAAAGCTGTACACCCTCTATGACATAAGAAGTGATACCTCCCTAGGGTGTTACGAATAACATCACAGAATGTACACCTATGGTGTGCACCCACAGTGATATTAGGTGTAATATCAACCCAGGACATAACCAATAAGACCACAGGGAGTACATATGTGATGTACACCCACGGTGATGTTATGAGAACTATCTCCCTAGGATAATACGAATAACATCACAG
1 GTGTGTGTGGGTGTGTGTGGGGGTGTGTAGGTGTGTGTGAGGGGTGGGTGTGTGGGGGGTGTGGGGTTTTTGAGTGTGTGTGGATGTGGGTGTGTGTGGGTGTGTGTGTGTGAATGTGGGTGTGTGTGGGTGTGTGTGAATGTGTGTGTGTGTGGATGTGGGTGTGTGTAGGTGTGGGTGTGTGGCGGGTGTGTGTGTGTAGGCACACAGTGTGCTTGGGATTTTTTTTTGTTTTCAAGACAGGGTCTTGGTCTGTTGCCCAGGCTGGAGTGCAGTAGCATGATCTTGGCTCACTGCAAC
1 GCATGGGTGAATGGGTAAATGGATGAGTGGATGGGTAGAAGGCTAGATGGGGAATAAGTGGATGGGTAAATTGTTGGATGGGTGATGGGTGGCATGGATGGGAGGGTGGATAAATGAGTAGGTGGATGAACAGACAGATGGATGTGTAGATGGACAGATGGGTGAATGAGTGGGTGGATGAATGGATAGGTGCACAGATGATTGGATGAGTGGGTGGATGGATGAGTGGGTGAATGGGTAGATGGGTGGATGGACAGATGATGATGGATGGACGGTGGGAATGGTTGGATGAATGAATGG
1 CCTTTGGTCATCCTCACTGCTCATTATATGCTAATTATAATGCATTAGCATGCTAAAAGACACTCCCATCAGTGTCATGACAGTTTACAAATGCCATGGCAATGTCAGGAAGTTACCATATATGGCCTAAAAAGGGGAGGTACCCTCAGTTCCAGGAACTGTCCACCCCTTTCCTGTAAAACTCATGAATAATCCACCCCTTGTTTAGCACACAATCAAGAAGTAACTATAAGTATAATCAGTTGAGCAGCCCTTGCTGCTGCTCTACCTATGTAATAGCCATTCTTTTATTTTTTTACT
1 CATGCACACACCTCCACCCACACACACACACCTCCACCCGCACACACCTCCACCACCACACACATCTCCACCCACACACACCACCCATGTGCACACCTCCACTGGCACACACCACCCATGCACACACCTCCACTGGCACGCACTACTCCACCTGCGTGCGCCTCCCACCTGCGTTCACCCTCCACCTGTGTTCGCTCCCACCCACTCATGCCTCTCCACCCGCAAAAGTGTGAGTGCTGAGGCTGGGACTCAACCTGAGCCGCTGGCTCTGGATTACTGGGTCCTGCCGGGCTGGCCAGG
1 CACACCCCTTCCCATCCCAAACACACACACTACCTCCGCATCCCAAACACATATACCCCTTCCCCATCCCAAACACATACACCCCTTCCCCATCGCCAACACACACACCCCTTCCCCATCCCAAACACACACACCCCTTTCCATCCCAAACACACACCCATTCCCCATCCCAGACACACCCACCCGTTCCCCATCCCAGACACACACAACCCTTCCCCAATTCCAAACACACACCCCTTCCCATCCCAAACACACACACCCATTTCCCATCCCAGACACATCCACCCCTTCCACAACTCT
1 TGTGTGTGCGTGTATGTATGTATGTGTGAGTATGCATGTGTGTTTCCATGTGTGTATGTGTGTGTGCAGGCATATAAGTATGCGTGTGTGTATGCATGTGTGTGTGCATATGTGTGAGTATGCATATGTGTGTGAGTATGCATGGGTGTGTGCATGTGCATGAGTATGCGTGTGTGCATGTGTGTGAGTATGCATGTGTGTATGTGTGAGTATGCATGTGAGTATGCATGTGTGCATGCATGTGTGTGAGTATGCGTGTGTACGTGTGTGAGTATGCATGTGTGTATGTGTGTGAGTATG
1 CCTCAATGGACCTGAGTCCAATTTTAAACAACATAAAGACAGTGCTATGTTTTGAAAGTTTGCCCCTTCCAAAACACATGTCAAAATTCAATTGCCATTGTAACACTATTAGGAGGTGGGACCTTTGAGAGGTGATTAGGCCATGAGGGCTCCACCCTCATGGGTGGAATTGGTACAGTTTGGCCCACTCTCACCCTCTTTGCCCTTCTACTCTTCTCTCATGTGAGGAACAGTTTTCCTCTCCTCTGAAGCATGAAGCATGCAAAGTGTTGTCTTGGAATCAGAATTGCCAAATCTGCT
1 TTAGGAGCCCCAGTTGGTTTCACAAATGATACAAGGAACAAAGGGCTCCAGGCAAGGGGAGAAAAAGGCGTCCATCAAGCCAATTTGTTTGCCTGTGTGCAAGGAGGCAAGAAGTCATTTCGGGATTCCGCCCTATCTTATCCACCCTATCTTATCAGGTGGTAAATCTGTCCTTTGATCTTGTCAACAATGTGGAAAGTTGGAGACAGCTGCCACCACCCCTAGTCAGCAGTGCCTCACCAACCCTCATAAAACATTTATGAAACCCGTAATAAACAGGCTGATAAGGAAGAGGGCTCA
1 GTTGCTCCCTCAGCCTGGGTGTGTGTTGTTCTCTCAGCCTGGGTGTGTGTTGTTCCCTCAGCCTGGGTGTGTGTTGCTCCCTCAGCCTGGGTGTGTGTTGCTCCCTCAGCCTGGGTGTGTGTTGTTCCCTCAGCTTGGGCGTGTGGTCCTCCCTCAGCTTGGGCGTGTGGTCCTCCCTCAGCTTGGGTGTGTGATCCTCCCTCAGCTTGGGTGTGTGATCCTCCCTCAGCTTGGGTGTGTGTGTGTTGTTCCCTCAGCCTGGGTGTGTGTGTGTTGTTCCCTCAGCCTGGGTGTGTGTTG
1 ACTGACACACCCACACACACACCGACACACACACCTCCACAAACACACCCCCCGCACACTGACACACACCCACCCCCACACACTGACACATCCACCCCCCACACCGACACACACCTACAGTGACACCCGCACACTGACACACACCCACTCCTGCACACTGACACCCACTCCTGCACACTGACACACACCCCCGCACAGACACACACCCACCCCCGCACACCGATACACACACCTACCCACACACCCACCCCACACACCAACACACACCCACCCATCCCCGCACACCGACACACAACCCAC
1 GTGGATGGATGTGTGGGTAGGTAGAGGAACAGGTGCCTGTATGGATTGATGATGTGAATGTGTGGATGGGTGGTGGATGGATGGATTGGATGTGTGGATGGGTGGATGGATGGGTGGCTGAATGGATGTTGGTGGAAGAATGGATGGCTGGATTGTAGATGAGTGGGTGGATGGGTGTGTGGATGAAAGGATGGGTGCCCTGTGAGACCTGCAGAGAGTAAATAGATGTGTGGGTGGGTAGATGGATAGTTGCATGAATGAATGGAGGTGTGGATGGGCAGATGGATGATGGGTGGGTGC
1 GATGCTGCAGGAGCTCTTGTAAATGGCCGGGGGAGTCCACTGCACCCGCCCGTCATGGAACAGGTGGGCCTTGGTCAGGTGGGTGACCGCGAAGTCCCCGTCAGCACTGGGCAGGAAGAGAGCGAAGGGTGTGAGACCCCCACATCCATGCCCACGTCCACACCCACGCCCACTGCCACACCCATGCCCACGTCCACACCCACACCCACATCCACGCCCACATCCACGTCCACGCCCACATCCACGTCCACGCCCACATCCATGTCCCACGCCCACATCCACACCCACGTCCACGTCCAC
1 CAGCCACCCATTCACCCACCCATCCACCCATTCACGCATTTACCCATCCATCCATCCACCCACCCATCTATCTACCCATCCACCCATTTATCCATCCACCCACCCACCCATTCATCTATCCATCCACCCATCCACCCACCCATTCACCCGTCTATCCATCCATCCACCCATCCATCTATCCATCCACCCATCCAACCACCCACCTACTCATATATCCATCCATCCACCCATCCAACCATCCATTCATCCATTCATCCACACACCCATCTATCTACCCTTTCACCCATCCACCCACCCATC
1 GTCAGGAGCACCCGTGACACACCCACCTCATCTTTGCCAGGAGGACCCTGACACACCCACCTCATCTGTGCCAGGAGGACCCGTGACACACCCACCTCATCTTTGCAGGAGGACCCTGACACACCCACCTCATCTTTGCCAGGAGGACCCCGACACACCCACCTCATCTTTGCCAGGAGGACCCTGACACACCCACCTCTTTGCAGGAGAACCCTGACACACCCACCTCATCTTTGCCAGGAGGACCCGTGACACACCCACCTCATCTTTGCCAGGAGGACCCGTGACACACCCACCTCA
1 GTGTATGCATAAATACATATATGTACATGTGTATACATAAATACACATATATGTACATGCGTGTACATAAATACACATATATGTACATGCGTATACATAAATACACATATATGTACATGTGTATACATATATACACATATATGTACATGCGTATACATATATACACATATGTACATGTGTGTACATAAATACACATATGTACATATGTGTACATAAATACACATATGTACATGTATACATATATACACATGTATGTACATGTATATATATACACATGTATGTATACGTATATACACACAT
0.5737449770463484 CCTTCCAGGGGCCCTCCCTATACCCATTACACACACGCCACACACCCTTCCCGGGGCCCTCCCTATACCCATTACACACACAACACACACCCTTCCAGGGGCCCTCCCTATACCCATTACACACACGCCACACCCCCTTCCCAGGGCCCTCCCTATCCCCATTACACACACAACACACCCCCTTCCAGGGGCCCTCCCTATACCCATTACACACACGCCACACCCCCTTCCCGGGGCCCTCCCTATACCCATTACACACACAACACACCCCCTTCCAGGGGCCCTCCCTATACCCATTAC
0.595847334482148 ATGACAGTGTAGGGACCTCACGTGGGTGGAATGGCACAGCGTTTGTAGGGACCTCAGGCAGGTGGAATGACACAGTCTTTGTAGGGACCTCAGGCGGGTGGAATGACACAGTGTAGGGATCTCGCGTGGGTGGAATGACACAGTGTTTGTACGGACCTCAGGTGGGTGGAATGACACAGTGTTTGTAGGGACCTCAGGCGGGTGGAATGACACAATGTAGGGATCTCACGTGGGTGGAATGACAGTGTTTGTAGGGACCTCAGGCGGGTGGAATGACACAGTGTTTGTAGGGACCTCAGG
1 TGCTTTTCACAATTCTGAGTCCCCTTCAGCTAAACACAGGACCTCCTTGGGTTCTGTCCTAGGCTGAGGCCTCTACTTCCTTCCAACTCCACCCTTGAACCCTGGGGCTAGGCCATGCCCCTCGCTGCAACCGCTTCCACCACCCTTCCCACCCAGTCCTAACCAACATCCACCCCTAACCAAGCAGAATGGGCCACATCCTCCCCGCGGCTCCCCGTCCCACGAGGGCAGGGTTCTACACCCACACATGACAGCAGTCATAAGCCACATCCCAGTGGACAGCCCTCCTGAGGGGAGGGC
1 GTGGGTGTGCACTGTGTGTACACCTGTGGAGGTGTGTGGGTGTGTGCAGTGTGCATGGGTGTGTGTGTGGGTGTGCACCCCGTGGGTGGGTGTGTAGGTGTGTGTGGGGTGTATGCATGGGTGTGTGCAGGTGTGTGGGTGTGTGCAGTGTGTGGCTGAGTGGTGTTTGTGGGTGTCTGTGGGTGTGTGTGCAATGTGTGGGTGTGCGCAGTGTCCGTGGCTGTGTGTAGGTGTGCACTGTGTGCAGGTGTGTGCGTGTGAGCAGTGTGCACGGCTGTATGTGGGTGTGTACCACATGCG
0.7912417352455146 CATGTATACATATGTATATGAATACACATATGTATACATGTGTACATGTGAATACACTTATGTATACATGTGTACATGTGAATACACATATGCATGCATGTGTACTTGTGAATACACATATGCATGCATGTGTACATATGAATATACACATATGCATGCATGTGTACATATGAATACACATATGCATGCATTGTACATATGAATACACATATATGTATGCATGTGTACATATGAATACACATATATGTATGCATATGCGTGTATATGAATATACATATATGTATGCATATGCGTGTATAT
1 GGTGTGTTGAGTTCAAACTGTACGCTACTATGATAAAAGCTGTAAACATAGAGCAGGAAACTGCCCTGGTCTGTCAGGCAAAGCACAGTCCTGCCCTTAGAAAGAACAGGGCAAGGCAAGGAAAACTGAGTGAAAAACACTGGCTTACATGCACACACACACACACATACACACACACACACACACACACACATACACGCACAGCCACATGCTAATGCACAGCCCTTCAGGGTTGAGGGTGAGGTGAGGGCAGCGTTCTATGCTATTATCAGGCATTGTTGCCTTAGTGAGAATGAGGTG
0.5467654149801258 TTTTTAAAAGAAAGTTTTAAAATTCACAAATACAAATTGTATATATTTATGGTGTATAATGTGGTGTATATATATGTGTGCAATACATATATAGATATGCACATATATGCATTTATATGTATACATACATATGCACATACATATATGTGCCTATGTACATATGCACATACATATATGTGCATACGTACATATGCACATACATATATGTGCATACGTACATATGCATATACATATATGTGCATACGTACATATGCATATACATATATGTGCATACGTACATATGCATATACATATATGTGC
1 TACCTGGGCCCTGTGACTCCCTGGGTTCTTGAAATCTAGGTGGAGGCAGCCATCCCCCTACAGTTGTGCTGAGTGTAGTGCATGAGTGCTGGGGTCTGCTAGAGCTATACCTAGGGTGGTGGAGATGTATGGCAATGGAGTATGGGGAGCTGATATGGTTTGGGTGTGTCCCCACCCAAATCTTGTCTTGAATTATAATTTCCATAATCTCCATGTGTTGAGGGAGGGACCTGGTGAGAGGTGACTGGATCATGGGCATGGTTTTCCCATGCTGTTCATGTGATAGTGAGTGAGTTCTCA
1 CCCACAACACGAGGGAATTACGGGAGCTACAACTCAAGATGAGATTTGGGTGGGGACATAGCCAAACCATATCAGTGTATTGACCATTTCAGCTGTCAATACAGAGGGTGGGTCCACCTGTCAATACAGAGGGCAGGTCCAGCTGTCAATACAGAGGGTGTGTCCATCTGTCAATACAGAGGGCAGGTCCAGCTGTCAGTACAGAGAACGGGTTCACCTGTCAATAGAGAGGGCAAATTCACCTGTCAATACCGAGGGCCTTGTCTCAAAAAAAAAGTTTTTTTAGTGAAGAGCAAAAGT
1 AGTTCCATTGAGGGGGGACAGGGATTGAGCCCTTTAATGGGGTGCAAATGCCCTGCAGCTCCCAGATGACATGCTTCTGCCATAGACTCAGGGGCTTAGGAGAAATGCCAACAGGAGTGGGTGGCATGCATGTGAGCACATGGGTGTGCAAGCATGCATGAATGACTGTACGCATAGCGAGGTGTGTACACATGAGTTCCTGAACAAGGTTATCAGGTTATCACGGTAATAATAGACTCCTGGGGGCTCCTGGGTGTATGGGTATATATGGATTGGCCTGTAAGAATGTAAACCTACGCT
0.7582365352301406 CACATGCACACACCACCCCCCACGTACACACACCTGCACTCACAGGTACACACAGATGCAGACATGCACACCCACCCACATACATGCATACATCCACACAGCCCTGCATACACGTACACATCCATGCATACACCTACACATCCATGCATACACGTCCACATGCAAACACTCCTACATCCTCACGTCCACACTCACATGCACATACGCACAGATGCATGCACATACCCACACACATGCACACATCCACGTCCACATCCACACCCACACACACTGTTAAGAAAAGATTGAAAACTTAAACTG
1 CCCTCAGCGGCCCTGCCCGAGCTTCACGGGTGTCGACACATCCATCTGCATGACCACCAGGCCGGAGGTCTCTTCTCACCTCCCCTTCCCAACCCTGAGTTCACAAAGCTCATGAGCAGCAGGGTGGGCAGGGCTGAGACCAAGGCAGGCAGGGTGGGTAGACAGGGCAAGGCAGACAGGGCAGGGACCAAGCAGGCAGGGCTGGCACGCTGGGACAAAGACTAGCAGGGCTGGGACCAGGGCAGGCAGGGCAGGCAAGGCTGGGACCAGGGCAGGCAGGGCGGGCAAGGCTGGGACCAG
1 GTAGGTGGGTGATATGATTTGGCTTTGTGTCCCCACCCAAATCTCATCTTGAATTGTAATCCCCATAATCCCCACGTGTGAAGGGAGGGACCTGGTAGGAGGTGATTGGATTATGGGGGGTGGATGGGTGGATGTGTGGATGGAGGGATGGGTGGATAGATGGAGGGATGGAGGGGTGGATGAATAGTGTGTATGGATAAGTGGATGGAGGGATGGGTGGATGGGTAGATGGAGGGATGGGTGGAGGGGTAGAGGGGTGGATGGACGGATGGATGGGAGCATGTATGGATAAGTGGATGG
1 TTACACACACGCCACACCCCCTTCCCGGGGCCCTCCCTATACCCATTACACACACGCCACACACCCTTCCCGGGGCCCTCCCTATACCCATTACACACACGCCACACCCCCTTCCCGGGGCCCTCCCTATACCCATTACACACACAACACACACTTCCCGGGGCCCTCCCTATACCCATTACACACACACCACACACCCTTCCCGGGGGGCCATCAGGGCCCCCAGTGGCCTCAGTGTCCAGTCCTCCCCGTCCTCCGGAGCTCTCTCTGGTGGGGGCCCCAGTCCTCCTCGTCTTCCGG
0.1100714544420172 CATGATATTAATTCCAATATCACAGGGGACACACCCTCTGTGATATTGTTCCTAATATCCAAGGGTAGAGAGAATGATATGACTTACAATATGGCAGGGGGTGTACATCCCCTCCATGATATTGTTCCTAATATCCAGGGCGTGTACACGCCCCCTGAGATATTGTTCCTGATATCCAGGAAGGGAGAGGATGATATTACTCCCAATACCATAGGGAGCGTACACCCCCCGCCCGTGATATTGTTCTTAATATTTAGATAAGGAGAGAATAACATTACTCCCAATATCGCTGAGGATGTA
1 CACCACACCTGGCTAAATTTTTTATTTGCCGAAATAGGGTCTGGCTTTGCTGCGCAGGCTGGTCTCAAACTTCTGGCTTCAAGCAGTCCTCCTGCTTTGGCTTCCCACAGTGATGGGATTACAAGTGTGAGCCACCACGCCTGGTCACACCTACTATTGTTGAAAGACAATTGCAACAAATAACCAACTAGTCATCAGTATCTCAAGTCATTTACCAAACAGGAGATATGCCAGATGATATACACTATGAAACATAAGCAGTATCTGCAGATTCAACACTATTTCTTTTCTTCTTTTTTT
1 TAGTGTAATTTTTAAGGAAGGAATTTTAAATCAGAAGGAAATTTAGCAATAAGCACTTATTTGTGCCATTACACAAATGCACAGACAGTTGCACAGGTATACATGCATGCATATACATGTATATACGCCCATTGAGTGTTTACCATGTATACACCCACCACGCATACTCCTGCCACACACAACCCACATACCCCTGTACTCCCACACTCCCAACTATCTTTTCACTGTTTCTCACATCCGCCATACATTCCACACACACTTCCACCCCGCCACCACACTCTCCACAGCATCCCTCAATCC
1 TAATTCTTTGTATATATCGTAGTTTCTATTTGCCATTCCCAAAGCTACACCCTTAGCTTAAGTTTTCATACACTCCGCCCCACCAAATTCTTGCCATACAGTAGTATCATATTAATCCTCCCAAGGCACAGTTAGTCTCAGAACAAGGGCGAGTCTGTTAACACCCTAGTTAATAATGCAGTGCCCTTAACTGATGTTCTTCTTTGAATCATTTGTTGAGAGGGACAATTCTGTCCTTGTTATGAGCATGGCTGTAGTTTCATGCTCTTTGGTTGTGAATCCTTAGAAACCCTTGATAAC
1 GTCAGAATGCCTTCCAATCTGTTTTAGTGATAGTATAGTTATTGAGCTTTCCTTAGTTTACACATTCACAAGTGTTTTTGAAGCACTGAAGTCCCTGTGCTGAATCAGATTGTGTGGTCAGCAGTGTGATCTGAGGACCCTATAGTGTGTAGGGTAGGGTGTGACAAGGTAAAGAGGGTGGACTCTGTAGCCAGTTTGTCTGTGACTATCTTCTGTGTGACTCTGAGAATGTCCCCTGGTCTCTCTAAATCTAAATTTTAACATCCATTAAAGTAGGTGATGAGGATTAACAATATATTT
1 GAACATGTGAATGAATGGATGGATGGGTGGGTGGGTGGGTGGGTGGGTGGATGGATGGATGGATGGATGGATGGATGGACGGATGAGTGGGTGGATGGATGGATGAGTGGGTGGATGAATAGCTGAATGGATGGATGGATGAGTAGGTGGGTGGGTGGCTGGGTGAATGGGCGGTTGGTAGGTAGGTGGGTGAATAGATGGACAGATGGATGAATGGGTGGATAGATGGGAAACTAAAGCCTAGGTAGATCATTCAGCAAGAAATTGGCCAAGCCAGGCTTTGAACCCAGGTCTGCATGT
1 CATGGATGCATGGGTGGATGGATAGATTAATGGATGGATGGGTGAATTTGTGAATGGATGAATGGACAGATGGATGCATGGGTAGATGAGTGGATGGATGGATAGATGAGTGGATGGGTGGCTGGATGGATAAATGAATGGGTAGATGGGTGGATGAAAGGGTAAATTGGTGGGTGGATGGATGAATGGATGGGCGGATGGATAGATGAATGGATAGGTAGATAAGTGAGTGTGTGGATGGATGGATGAATACATGAATAGACAGATGCATGAGTAGATGGGCAGATGAATGAATGGATG
1 TGTGTGGACGTACACGTGTCTGTGTGTGGGGTGAGTATGCACGTGTGTTTACACATATGGGGTTTGGGTGTGTGCGTGTTCATGCATATGATGTGCGCATGTGTGGGCGTATACGTGTGTCCATTTATGGGGTATGGGATGCAGATATGTGCATGTATTCACGCACATTCATGTAGCGCATGTGTGTGTTCGTGCATATGGTGTGTGCATGGGTGTTCGTATCTGTGGGGTACAGGCATCATGCACGTGTGTTCATCTGTGTGGGGTGTGGGTATACCTGGACTGTGGCCTGAGGCTCCC
0.2131421789067453 TTTGTAGGGACCTCAGGCGGGTGGAATGACACAGTGTTTGTAGGGACCTCAGGCGGGTGGAATGACAGTGTTTGTAGGGACCTCACGTGGGTGGAATGACACAGTGTAGGGACCTCAGGCGGGTGGAATGACACAGTGTAGGGACCTCATGTGGGTGGAATGACAGTGTAGGGACCTCAGGCGGGTGGAATGACACAGTGTAGGGACCTCACGTGGGTGGAATGACACAGTATAGGGACCTCAGGCGGGTGGAATGACACAGTGTAGGGACCTCACGTGGGTGGAATGACACAGTGTAGG
1 TCATCATTAAACATTTGGCTTGGGAAAGGATAAAATGCCTTTATCAGTCAAGGCTCTCCAGGGAACAGAAGTAGTAGGGGATGTATGTATGTGTATGTACGCACACACACACACACACACACACACACACACACACACACACACACACACATAATACCTCCCCAACAACACCTAGGCTAGAATTTGACTGAATAACTGGACACGACCACCCATCCATGTTGACACATAGAACTAACCATCACGGTGTCCCTGGGAGTAGTCAGGATTTGGCTGATGCTCCACCCTCTCCACCTCCACCTC
0.2712384875167977 ACATATATACATGTGTATGCGTATATATACGCATATACACATACATGTATGTGTATACACATATACACATACATGTATGCGTATATACACATACACACGCATACATGTATGCGTATATATGCACATACACGCGCATACATGTATGCGTATGTGTACACATACACACGCATATATGTGTGTGTATGTGTGCACATATACACGCATATATGTGTATGTGTGCACATATACACGCATATGTGTGTGTATGTGTGCACATATACACGCATATATGTGTGTGTATGTGTGCACATATACACACAT
1 GAACTCCTGGGCTCAAGCCATTTGCTCACCTTGGCCTCCCAAAGTGCTGGGATTACAGGCGTGAGCCACTGTGCCCAGGTGTGTGTCTGTGTGGTGTGTGTGTGTGTATGTGTGTATGTGTATGTGGTGTGTGTGTGTGGCATATGTGTATGGTGTGGGTGTGTGTGGTGTGTGTGTGGCATATGTGTGTGTGTATGTGTCTGTGTGTGTGTGTGGTATCCTTATAAGAGGAGGAAGAGACAGCAGGGAGGCGCCCACACAGAGAATAGGCCATGTAAGGACAGAACAAAAAGGCGGCCA
1 CCCATTCCATCACAGAAAGAAGCGAGACCAAATGAAGCCCCCACCCTGACACATGTGCACGCACGCAGGCACACACGCACATACCCTCTCTCCCCACCCCAACACGTGCATGCACGCATGCACACACACATGCACACACCCTCTCTCCGCATGCACACACCCTCTCTCCCCACCCCAACATGTGCATGCACGCACACACACACACATGCACACATCCTCTCTGAGTGCCTCATCTGTGAAAGGCAGTAGCCACATATGGCATGGTGTGAGGGTTAAACCAGACACTGCACGTGACGGGCC
1 TCCAGACACCTGGGATGGTAGAGACAGATCAACGAGTCCCAAGGAAAAAGACAGTGAAGGGTTGACAGTGTGTTGGCAGCAGGAGGGAGGGGGGCAGCTAGGAGAGGGGCCAGAAAGAGGAGGTCTTCTCTCTCCATGCACACACATGCATATGCACACACGTGCATATGCACACACACACATGCATGCACACACACCCCCACATGCACATACACACACAGACACCTGCTACATACACACCCCCAACCTCTCACCTGCCACACCACCTTCTATGCCACACACTTGTGTCCACGCCCCCAC
1 GAGGCTTCTATCCTCCTCAAGTGTGAATGATGATAGTGAGGTAGGAGGTGGGACTCAACTCAGGAGGTGGGACCTGACGCCGGAGGTGGGGCTTGAAAACTAGACCAAACTGAGGACTAGCTAAAACAGGGACAGGGTGGAAGCACCTTTTCATAAGACACGCCCACCAGTGTGCCATGACAATTTACCATTGCATGGCAATACTTGAAAGTTACCGTCCCTTTCCAGGGCAACGACCTGATGGCCTGAAGTCACCACCTTTTCTAGAAATTTCTCCATAATCCACTCCTGAATTTGCAT
1 TAAAAGAATGGCTACTCCATAGGCAGTGTAGGGCATGGGCTGCTCTACTGAACATACTTATAGTTATTTCTTGATCATATGATAAACAGGGGTGGGTTATTCATAAGTTTTCTGGGAAAGAGGCAGAGATTTCCTGGAACTGAGGTTCCCTCCCCTTTTTAGACCATACAGGGTAGCTTCTGGACATTGTCATGGCATTTATAAACTGTCGTGGCACTGGTGGGAGTGTCTCCTAGCATTCTAAGGCATTATAATTAGCATATAATGAGCAGTGAGGAGGACCAGAGGTCACTTTCGTTG
0.9810865568049043 CCGTACACCATCTGTCTTTCCACTCATCCATCTATCTGCCCATTCACCCACCCACACAACTACTCCCTCATCCACCCCAAATATTCATGCATCTATCCACCACTCACTCGCCAGTCATCCATCCGTCCACCCTTCTAATCTATCCATGTATCTATCTGCCCACCCAGCCATCTCAACCCATCTACCACCTAACATTTGCAGTGATGCTCTGTGCTAATCCCTAGCTTGTTGTTTTGGGCTCCCTCCCTGGGAGGAAAGGTGAGTGCCATCAGAGGGTCCCCACAGAGGAAGACAGATAAA
1 AGGTGGTGGAGGTGGTGGGTGGTGGAGGTGGTGGGTGGTGGAGGTGGTGGAGGTGGAGGTGGTGGAGGTGGAGGTGGTGGAGACGGTGGGTGGAGGTGGTGGGTGGAGGAGGTGGTGGGTGGTGGAGGTGGGTGGAGGAGGTGGTGTGTGGCAGTGGTGGGTGGTGGAGGCGGTGGGTGGCGGAGGTGGAGGTGGTGGATGGCAGTGGTGGGTGGAGGTGGTGGGTGGCAGAGGTGGCAGTGGTGGGTGGTGGAGGTAGTGGGTGGCAGGGTGGATGAATGGAAAGGAGACAAGGTTGGC
1 TAGGTGGCTAGCTAATACATAACTATCTTAGCAAATGTAAATCAGCAGATGTTTCAAAAAAGGTGAAACTCATGGCTTCTACACTTCTCAGTGGGGGGATGGGTCTTCTGGGTCATCCTAGTTACTTTACTGCCAAGGGACTGTGGGTGTATGGGTGGGTATGTGGTATGTGCGTGTGTATGTGTGTGTGTGTGTGTGTGTGTGTGTGTGTGTTGCTCCCATCACAGCAAGTAGTTGGAGTAGGAGGAGTGGTTTGAGTGGATATTGGTCAAGGTCACTGATAAAAAGAGCAAAGTGATA
1 GCCCGCCCCTGGCTGCGCCCACAGTCCCACCCGATGCAGACACTGCTCCCGGCCCACCTCACCACGCCCGCCCCTGGCTGCGCCCACAGTCCCACCCGATGCAGACACTGCTGCTGACCCACCTCACCACGCCCACCCCTGGCTGCACCCACAGTCCCACCCGATGCAGACGCTGCTCCTGGCCCACCTCACCACGCCTGCCCCTGGCTGCGCCCACAGTCCCACCCGATGCAGACACTGCTCCTGGCCCACCTCACCACGCCAGCCCCTGGCTGCACCCACAGTCCCACCTGGAGGATA
1 CTGGGCGTTGAAGGGGAGGGAAGGGAAGTGCTGGGCGTTGAAGGGGAGGGAAGGGAAGTGCTGGGCGTTGAAGGGGAGGGAAGGGAAGTGTTGGGCGTTGAAGGGGATGGAAGGGAAGTGCTGGGCGTTGAAGGGGGTGGAAGGGAAGTGCTGGGCGTTGGGGGTGGAAGGGACGTGCTGGGCGTTGAAGGGGATGGAAGGGAAGTGCTGGGCGTTGAAGGGGATGGAAGGGAAGTGCTGGGCGTTGAAGGGGATGGAAGGGAAGTGCTGGGCGTTGAAGGGGATGGAAGGGAAGTGCTG
1 CAGATCATATCATTTCCTTGCTCAAAAGCATTCAGGGGTTTCCAATTACCAATTGATTGAGACTGAAAACATCTGGCCCCAAACCACTGTCCAGTGTCATTATGCACATGTACACATGTGTGCACACACCCACACAGAGACATCTTTGTAGATGTAACGCCCCCAGGTTGCACTGCAATGTATACACCGCCCTTTCTCAGCCTCTCCCCTATATACTCTGATTGCCCCTCTCCTACACACACATACTTGACCTCCTCTACCATGGAAACCTCGCTGGTCCTCTCCACTCCCTACCATCCC
1 ATACCCAGCACAGATCACACCCAGCACACCCACAGATCACACCCAGCATGGATCACACCCAGCACACCCAGCACAGATTACATCCAGCACACCCAGCACAGATCACACCCAGCACATGCACAGATCACACCTAGCACACCCACAGATCACAACCAGCACAGATCACACCTAGCACACCCACAGATCACACCCAGCACACAGAAATCACACCCAGCACACCCACAGATCACACCCAGCACAGATCACACCCAGCACACCCACAGATGCTTATAGACAGACACACTCAGATGCCCATGATTA
1 GCCCTTCCAGACCTGCTCCAGCCCCAAACCGCGTCTATCCACCCCAGTCTGGCCACCTCCACGCCCAGGCCTCTTCGCGCCCTCCACGCCACCCGCACCCACCCTAACCAGGCCCCTACTTCTCCAAGACCCAGCCCTGACCACGCCCACCAGCTCCATCGCCCCTCCCGTAGCTCCACCCCTTGACTAGGCCACTCCCCGAACACGCAGGATCCCTGCTGTGCACGCTCACACCTTCCCCTCAATCCCCACTCATGAGTTTTTGGTTTTTTTTTTTTTTAATTTTTGATTTTTTATTTT
1 TCCATCCATCTATCCATTCATCCATCCATCCGTCCACCCACCTATCCATTCACCCATTCATTCATCCATCCACCCATCCATTCATCCATCCATCCATCCACCCATTCATCCATCCATCCATCCATCCATCCACCCACCCATCCACCCACCTAACCAACCAACCAACCATCCATCCATCCACCCAACCAACCATCCACCCATCCGCCCACCCAACCAACTATCCATCCATCCACTCATCCATCCACCCACCCATCCATTCACCCATCCATCCATCCACCCATCCATCCATTTATCCATCCA
1 CCACGCCTCTCCACGCCTCTCTCCACGCCTCTCTCCACGCCTCTCCACGCCTCTCTCCACGCCTCTCCACGCCTCTCTCCACGCCTCTCCACGCCTCTCTCCACGCCTCTCCACGCCTCTCTCCACGCCTCTCCACGCCTCTCTCTACACCTCTCCACGCCTTTCTCCATGCCTCTGCTGATTTGATTGATGAATGTTGAAGGAGGAACAAGGCGTGTGTAACCCGGCTCTCTTCTTCCTTTTCTCTGGTGAGCTGGCCCACCTGCAAAAAGTGTGTGTTCTAAACTGATACACCACACC
1 GGACGAGTGGGTGGATGGATGAATGGATGGGTGGGTGAGTGGATGGGTGGGATAAGTGGATGAATAGTTGGGTAGATGGGTGGGCAGATATGTGGATGGGTAGATGAATGAATGGATGGGTGGATGGATGCAGGGATGATAGATGTACAGATGGATGGGTGGATGTATAAGTGGGTAAGTGGATGAATGGATGGGTGGACGGATGCAGGAATGGTAGATGTACAGATGGATGGGTGGATGTATAAGTGGGTAAGTGGATGAATGGATGCACGGATGGATGGATAGATGGGTGGCCAGATG
1 GGGTGGGTGGATGGATGGATGGATGGATGGATGATGGATGGATGGGTGAGTGGGTGGGTGGATGAGTGAGTGAGCAGGTGGGTGGATGGATGAGTGGGTGGGTGGGTGGATGGGTGGATGGATGGATGAGTGAGTAGGTGGGTGGATGGACGAGTGGGTGGGTGGATGGACGAATGGATGGATGGGTGGATGGATGGATGGATGAATGGATGGGTGGATGAGTGAGTGAGTAGGTGGGTGGATGGATGAGTGGGTGGGTGGATGGGTGGGTGGGTGGATGGATGGATGGATGGGCGAGTG
1 CACTGCCCCCAACACACGCACCCCAACACACACACCCCCCAACCCTCAACACACACACCCAACACACACCCACACCCACCCCAACACACATGCACCCCTGCCCCCAACACACACACCCCAACACACGCACACCCCCAACCCTCAACACACACACCCAACACATGCCCACACCCACACACCCCTGCACTAACACACACACCCCTGCCCTCAACACACACACACCCTTGCCCCCAACACACACACACCCCTGCCCCCAACACACACACACCCCTGCCCTCAACACACACACACCCCTGCCCC
0.2631636227980214 ATGTGCCTGTGTCTACAGGGGTGTGCGGGTGCGCCTGTGTGCGGGTGTGCATGTGTGTGTGCGCATGTGTGCGGGTGTGCATGTGTGTGTGCGCGCGCATGTGTGCGGGTGTGCATGTGTGTGCGCGCGCATGTGTGTGGGTGTGCACGTGTGTGTGTGCGGGTGCGCATGTGTGCGGGTGTGCATGTGTGTGTGTGCGCATGTGTGTGGGTGTGCATGTGTGGAAAGGCTGCTCTCTAATCATACAGCCCTGGAACAAATCCCCCTCTGTCACCTACTGACTGTGCCCCTGTGGGCAAG
1 CTGTGCATCCCAGCCTAAGTGAAATCTCTGGGGGTGGGCAGGGGGTGGGCCAGGGAACAGGCAACACCAGGAGGCCACGCCCTTCTTAGGAACCTAAGGCAGGTCAGAGGGAGAGAGACGCTAAGGCAAGATCAGCACAGGACCAGGACGGTGACCAGAGCAGGGGTGTGTGTGTGTGTGTGTGTTCGCATGCACACAGCTGTTCACACCCATGTTTGTGTGTGCCTGCCTCTACATTCATCCTTTCTGTCTTTTGGGTATTTTCTGTTATTTTCCTTTCGTTTTCCTCCTTCCTCAGTT
1 GTGTTGGGTGTGTGTGCATTGGGGTGTGTGTTGGAATGTGTGTGTTGGGATGTGTGTTGGAGTGTGCATTGGGGTGTGTGTTGGGGTATATGTGTATTGGGGTGTGTGTGTTGGAGTGCGTGTGTTGGGGTGTGTATGTATTGGGGTGTGTGTGTGTTGGGGTGTGTGTGTGTTGGAGTATGTGTGTGTTAGGGAGTGTATGTGTTTTGAGGGTATGTGTGTTGGGGTGTGTGTTGAGGGCATATGTGTGTGTTGGGGTGTGTGTATTAGGATGTGTATGTATTGGAGTATATACGTGTT
1 GATGAGTAGAGACAACAGGAGGAGAGGCAGGGAGAGGGACAGAGGAGACACATGGATAGGGAAAAGGAGAGGCGGCTGGAGGGTGTGTGAGACTGTGTGCATGGGCGTGTGTGTGTGTGTGTGTGTGTGTGTGTGTATGAGAGAGAAAGCAAGACTATGTGTGTGAGTGTGAGTGTATGTGCACTCACACCCATGTGTGAGAGTACAGGAACCCCTCCCACAACCCAAACTTTATGGGAAACCAAACAGATTTCAAGTAAGCCTGTAAGAGGTTATTTACAAGAGGGAACACAAGTGACT
1 GTATGTTATGTACAAAGGTGTGGGTGCTGTAAGGATGGGGGAGGGCATGTAAGTGTGTCCTTGTGTAAATGTGTATGGATTTGGAGGTGTGCAGGCGTGGCAGGTTATGAGGGTGTGATTAGTGTGTGTGGGTGTGTTATGCGTGTGTGGTAGGTGTGTATATGGTATATATGTGTGTGGTGTGTGTAGTATATATATGTGGGGGTGTGGAGGAATGTGTGTGGTGTGTGTGTAGTGGGTGTGTGGTGTAGGTTTGTATGGTATGTATGTGGGATGTGTGTAGTGTGTGTATGTGGGGGT
0.3868365031361878 CACAGGGGAGTGTACATTCCCTGCGATACTGGGAGTAATATTATTTTCTCCCCCCTTCCCCGGATATTATGGACAATATCACAGGGTGGTGTACACACAGGGTGTTTACCATCTTGGGATTGATATCATCCTCCTCCCCGGATATTGCGAACAATACCACAGCAGAGTGTACACCCCTGCGATATTCGGAATAATATCATCCTCTCCCCCCTGGATATTACGGACAATATCACAGGGGGGTGTACACCCCCTGTGATTTGGAAGTAATATTATCCTCTCCCCTTCTGGATATTACAAACT
1 GCAGCTCTCTTGAGTTGAGGGTAATTCCCAAATGGTCTGAAAGCTGACAATCTTCCCAGAAGCTGAGGGAGTGAGTCCTTCAGTCTAGAAGGGGGTTCTGGACTGTACCGCCTCCAGAACAATGGCCCCATCCCAGTTTGTCCTCACCTCCCTTTTAGTCAAAACTTTTGTTCCAGACTGGGCGTGGTGGCTCACGCCTGTAATCCCAGCACTTTGGGAGGCTGAGGCTGAGGCAGGAGGATCACTTGAACCCAGCAGTTAGAGACCAGCCTGGCCAACATGGTGAAACCATGTCTCTAC
1 ATGGATAGGAGGATGATAGATGGATGAATGGATAGAAGGATGGATAGATAGATGGGTGGGTAGACAGGTGGGTTGATGGTTACATGGTTGCATGGATGGATGGATGAATGGATGGATAGATAGATGGGTGGGTAGATGGGTGGGTGGATGATTGCATGGTTGCATGGATGAACAGGTGGGTGGGTGGATAGATGGATGGATGAATGAATGGGTGGATGGTTGAAATTTTTGTATGCAGTAACCTCCTTTCTGTTTACGTAGGGCCTCATAGCTTTAAAAAAGTACTTTGCCAAACATTGT
0.2994334372956615 ATGACCAAAAAAAACCTACATAACATTCAATTAATGCATTTATATATTATTTTGATTCTTACATATACGTATGCACATGTATGTACATATACATATGCACATGTACACACATATACACATGCACATGTACGCACATATACGCATGCACATCATGCACATGTACGCACATATACGTATGCACATGTACGTACATATACGTATGCACATGTATGTACATATACGTATGCACATATATGTGTACATATATACATATCTATATTTAGGATTTCTTTGACATTTCAATGTTTCAGTGCATGTTAA
1 CTGAAGGCTTTTCAGGGATAATTTTAACTAGATGAGGTTTTTCACCTTACATGCTGATTTTAAGTATCAATTCTCACAAGGGAAATAACTGTTTTACTTAGAAGTTTGTTTTGCAAAATGAAGGTGGGGGGTGGCGTGTATACACGCGCATACACACACACACACACACACACACACAAATAACATTCCAGGATATTCATCCCATGGATGAAGTAGGAGGTAACCTCTGGTGTGAATATTTTCTTATGGTATTTTACATATAATAATCTGATCTCAAATGTTTTATATAGAACATGCATC
1 TGTAGTCACCACCTCCCTGGTCATGGTTATCACTCCCCCGTTTGCAGTTATCACCTCCCTGGGTGTGGTTATCACCTCCCTGGTTGTGATCATCACCTGCCTTGTTCTGGTTATCACTGCCCTGGGTGTAGTTATCACCTCCCTGGGTGTAGTTGTCACCTCCCTGGTCATGGTTATCACTCCCCTGGTTGCAGTTATCACTCCCCTGGGTGTAGTTATCACCTCCCTGGTTGTGGTCATCACCTCCCTGGTCATGGTTATCACTTCCCTTACTGTGGTCATTACCTCCTCCATTGTGGT
0.6644449326050352 CTGAGTGAAGAAGAGAATACCCTAATGATTAGACTTATGAAAAAAACCACAAGTTCCCTCTTACCTATACACATGTATGTGTGTGTGTGTGTATGTATGTATATACATACATGTGTGTATGTATGTACATATGTACGTACATACATATGTGTGTATGCACGTACATATGTACGTACATACATATGTGTGGTATGTACGTACATATGTATATACATACATGCGTGTATATGTATGTACATACATATGTATATACATACATACACACACATATACACACACATACACATATGTGTGTATATA
1 AGATGGTCTAGCCTACTACACATCTAGATAGCCTAACCTACTACACACCTAGATGGTCTAGGCTACTACACCCTTAGATGGTCTAGCCTACTACACACCTAGATAGCCTAGCCTACTACACACCTAGATGGTCTAGCCTGCTACACCCTTAGATGGTCTAGCCTACTACACACCTAGATAGTCTAGCCTACTACACACCTAGATGGTCTAGCCTACTACACACTTCGATGGTGTTGCCTACTACACACCTAGATGGTCTAGCCTACTATACACTTAGATGCTGTTGCCTACTACACACCT
0.7692539391463769 ATGTTACAGTGGGTGTACACCATGTGTTTATATTCTGTGATGCTATTCGTAGTATCTTAGAAAGTTATTATTCCTAGTGCCACAGTGGGTGTATACCATGTGTGTACACTCTGTGATGTCATTCGTAATATCCTAGGGAGACAGTTCTCATAACATCACAGTGGGTGTACGTCATGTATGTACACCCTGTGCTATTACTGGTTATGTCCTGGGTAGATATTACTCCTAATATCAGGGTAGGTGCACACCATGGGTGTACATTCCGTGATGTTATTTGTAATATCCTAAGGAGATATCACT
1 CCTGGGCTGGGCAGTGCCAGGGACATAGAGCTTGGGCAGTATTGACTCACCCATTCCCAGATAGGCATTGACATTGACATGCAAGCGGCCAGGAAAGTTGTCTAAATAAAGGGGTGTTTGGGGTTGAGTGATGGCTGTGTGTATGTGTGTGTGTGTGTGGCCTGCAAGGGGTGTGTGTCAGTGTGGCAGCAACAGACTTTCTGTGGAGGCCATTTATGAAGGCATATCTGTGTACCCTTGAGAGTGTGTTGTCTGCAGAGGGTGTGTCCACCAGGTATGTGGATCAGTGAGGCTCTGCTG
1 AAAAGCTACAGGCACTCAACACCAGCCCAGCCCATGAGAGCAGCCATGGGGGCTAAAGCCTGCAAAACCACAGGTGCACTGCCCTAGTAGACTTTCCATGAGCCTCTGCCTCTGCAGCAGGCTACTCCCCTCCCACTACACGCCACCCTACAGCCAGCCTACTCCTCCCCACCTAACCCACCTCTTTGTACTTCCAGCCCCACCCCTCTCCCATCCATGAATAAATCACCTCCCACGAGGCCCCACCTGCAACATTCGGGATTACAATTCCACATGAGTTTAGGTAGGGATACACAGCTA
1 CCCCAGTACACACATACACACACACACCACTCCCAGTACACACACATCACACCTCAATATACATACACACACACCACCCTCAGTACACACACATGTACACACCAACCCCAGTATACACACACATACACACCATGCCCAGTACACAAACATATACATCCCACCTCAGTAAGCACACACACCCCACCCCTAGTACATACACATATACACACCCACTCCAGTATGCACACACTGCCCACCCCAGTACACACACACTCCAATATACACACACACATACACACCACCCCCAGTACACACACACAC
1 AGGGTGTACACTCACTGTGATATTAGCAGTAATATCAAAGATATTATGAATGATATCACAGGGTGTACATCCAGAATGGATACCCACTGTGATATTAGCAGTAACATCAAAGATATTATGAATGATATCACAGGGTGGACACCCAGGATGTACACCCAAGGTGATATTAGCAGTAATAGCAAAGATATCATGAATAATAAAACAGGGTTGGGGTGTACACCCACTATGATATTAGCAGTAATAGTGAAGATATTGTGAGTAACAAAACAGGGTGTACACCCACTGTAATATTAGAAGTAA
1 CAACCCCATAGCCCTTCTTAGCATCCATCACAGCTATGGTTTTACTTTTTAATATGAGTCTGCCTCCCTCACTAGACTGAAAGTTCCATGAGGGAAAGGACCATGTTTGGTTTTATTCATGATTGTATCCTTAGTGCCTGGCACACACCTTGGGCACATAGTGGCCACAGAATGAGAAGTGTGTTGAATGAGTGATGGTAAGGTGATCTAGGATGAAAACAGGACATGAGGGAGAGGAGAAGGCGGTGAAGGAAGATATGCCAATGTCTTCAAACGACAAGGCGGAGTGACTGGGAAGTG
1 TTGTTTCAGGCTGGTTGATGTGAAAGAAATGTGAAAGAACATTTGCCCAATATTTGTAACATGTTACCATCCAGTAGTCTGATTCTGTGGGTTTTCAGGAGCATAAATTAGTAAATTAGTGAGGAGGTGTGATAATGAAGAGGGTGTGGTGGGTCACATCCTTGGGTGGTGCTTACAGGAGCTCCATGAATAGGTGCTAAGGAATTTGAATCCTGGCTTTCTTGTTTTGTGGACATGTTCTGCTTGTTAAGGGGTGTGTGTGTGTGTGTGTGTGTGTGTGTGTGTGTGTGTGTGTGTGGT
0.2682557409330258 CGTGTGCACGTGCATGTGTGTGTGCATGCATGTGTGTGCATGCATGTGTGAGTGCATACATGCATTGTGTGCATGTGTGTACATGCAAGTGAGTGTGTACATGCATGTGTGAGTATGTGCATATGTGCATGTGTGTGCATATGTGTGTGGCCCTCTCTCCCTCCTGCTCCCTCTCACTCTCTGCTTTATCTTACCTTCTCTGGCATTCTCACACTCCCTGCCCCTCCGCCCATCCCTGTCTCTCTGCTGCTCTGTGCACCCTCCCAACTCCCCAACATGCTTTCTCTCCCACACTCAGCC
1 TCAACTCTTAGGTTAGAAACCAGAAGAAGAAAGCATTTGTTTGGTTTTCCTTCAAGTGTGTGTTTGGGGTGGGTGGTGGGGAGGAGGCAGAGAGAGAGAGAGACAGAGAGAGAGAGAGAGACAGAGAGAGAGAGAGAGAGAAAGGGATGGAGCAACGGGGGCGGAGAGAGAGAGAGAGGATAGAGTACTTTAGCAATTCCAATTCCACCCTCAGGAATCAAAGTAAAGGGGTGAATATCAAGGACTGTCAAATTATTATTTGCACAAGAAATCAAATACTATTAGTCATCCAAAGTCTAT
1 CATGAATAAAGGGGCTGGTCCATGTACACACCCATGAACAAAGGGGCTGGTCCATATACACATGCATGAACAAAATGGCTGGTCCATGTACACACCCACGAACAAAGGGGCTGGTCCATGTACACGCCCATGAACAAAGGGGCTGGTCCATATACACATGCACGAACAAAGTGACTGGTCCATGTACACGCCCACAAAGGGGATGGTCCAGATAGATGTCTACGAAAAAAGGGGCTGGTCCATATACACATGCATGAACAAAGGGGCTGGTCCATGTACACTGGCATGAACAAAGGGGCT
0.5469314855944499 CAGGTGTATACACACTGAGATGTTACTCGTAATATCCTAGGGAGAAATTACGCCTAATATTACAGTGGGTGTACACCATGTGTTTCTACTCTGTGATGCTATTCATAATATCTTAGAAAGTTACTAGTCCTAGTGCCACAGTGGGTGTGTACCATGTGTGTACACTCTGTGATGTTATTCGTATTATCCTAAGGAGATAGTTATAATATCACCGTGGGTGTCCCTCATGTCTGTACTCCCTGTGGTGTTATTGGTTACGTCCTGGGTTGATATTACTCCTAATATCACCATGGGTGCACA
1 CATCCATCCATCCATCATCCACCCACCCGTTCATCCATCCATCCATCATCCACCCACCCGTTCATCCATCCATCCATCATCCACCCACCCATTCATCCATCCATCATCCACCCATCTACCCACCTATTCATCTATCCATTTACCCATTCACCCACCCATTCCTCCATCCATCATTCACTCATCCACCCACCCATTCATCCATCCACCTACTCATCCACTCACCCATTCATCCATCCACCTACTCATCCACCCACCCATTCATCCATTCACCTACTCATCCACCCATTCATTCATCCATCC
1 CATACACTCCCAGCATCAAATCCATTCTCCTTTTTGTAAGGTCCTCTAAGCTGGCCGCACCATGGTCAAGCCATCATGACATCCCCCTGCCCTTGTGATAATGTACTTTGTGATATTCCCCCGTCCTTGTGAATGTACTTTGTACGATACATCCTCCCCGCCCTTGTGAATGTACCCTGCCCTTGTGACAATACACCCTCCCTGCCCTTGTAAATGTACTTTGTAACACCCTCCCCACCCTTGTGACAATACACCCTCCCAGCCCTTGTGAATGTACTTTGTATGATACATCCTCCCCGC
1 GGAGGGATGTGGAGACTGTGGAAGGGTGTGGAGGCTGTGGAGGGGTGTGGAGGCTGTGGAGGGGTGTGGAGGCTGTGAAGGGGTGTGGAGGCTGTGGAGGGGTGTAGAGGGGTGTAGAGGGTTGTGGAGGCTGTGGAGGGGTGTGGAGGGCTGTGGAGGGGTGTGGAGGGGTGTGGAGGCTGTGGAGGGGTGTGGAGGGTTGTGGAGGGGTGTGGAGGGGTGTGGAGGCTGTGGAGGGGTGTGGAGGGATGTGGAGGGATGTGGAGGGGTGTGGAGGGGTGTGGAGGGGTGTGGAGGCTG
1 CATTCACTCACCCATTCATCCATCCGTCCATCCATCCACCTATCCATCCATCCAGCCAGCCAGCCAGCCATCCACCCATTCCTCCACCCACCCACTCATCAATTCATCCATTCACCCATCCATCCATTCACCCATCCATCCAGTTATCCATCCATTCATCCATCTACCCATCCATCCACCCATTCCTCCACCCACCCACCCATCAATTCATCCATCCATCCATCCATCCATTCACCTATTCACCTGCCCATCATTCACCCATCCATCCATCTACTCATCCATCCATTCACCCATCCACCT
1 GTTGTAATAGTTATCACATAATTAGACTCTTCACAATGTACATAGGAGGGGTTGATTAGCAATTGAGCTTGGTGGTCAGAGAGAGCTTTGTAGAGGGGATAATGATGATGCAAGGAATTGAAGAAGCAGAGAGAGGCAGTGCAATGCATAGGCAAGGGCGTAGACCCTGGGGCTGAACTGCCTAGGTTTGAATCTAGCTTCCTCCCTCCAGCCACCAATGTACTGAATGTGTGACATTGGCCAAGTTTCCTAATTGTTCTGTGCCTAGATTTCCTCATCTATAAAAGGAAGAGAATAATA
1 TAAAACATGGGAACACTCTACCTCACCCTCTACTTGCCTGATGGCAGGACATAAATCCTTCCAAACTGGATGTGTGGGTGAATGGGCAGCTGGATGGATGAGTGGGCAGGTAGATAAGTGGGTGGATGGATGGGTGGGTGGATAATTGGGTGGATAGATGGGTGGGTAGGTGGATAGATGGGTGGAGGGTTCAATAGGTAGATGAATGGATGTGTGGGTGGGTGAATGTGTGGGTTGGTGAGTAGATGGATTGATGGATGGATGGATGGGTAGATGGGCAGGTGGATGGGTTGGTGGATG
1 TCCTTCCACTCTGCATGTCTGTGGAGCAGACAGAACTCATGGCCTGGAAAAGTCACCAGAATTTGTTTTTACACCAGCAAAGCACAGAGGGAGGGGCAAAGGGAGAGGCCAAAGGAGGAGCAGAGAGAAAAGCAGAGGGAGGAACAGAGGGAGGAGTGGAGGGAGAAGCAGAGGGAGGAGCAAAGGGAGGAGCAGAGGGAGGAGCGAAGGGAGGAGCAGAGGAAAAAGTGGAGGGAGGAGCAGAGAGAGAAAAAGAGGGAGAAGCGGAGGGTGGATCGGAGGGAGGAGCAGAGAGAGGGA
1 AAATTACCTCAGTGGGACAATTCAGAATAAGACAACTCCTAAACTGCTTGGCTTAGGAGGCCAGCTGGTTGTCTTTGTACCCTGCGTGACTGCCTGTGGCAATTCTGCTGAATGACTGCCCTTTGCCTTACAACATGCATTGACCTAGTGCCTGCCACCCACATACTCACCATGAGGTACATAGCCCCAGAAGGGCGGACTGGCCGGAGTCCAGGGATGGCAGCCAACGCCCCATAACAGAGATCAGCATTGGACTACAAGAAGAGGCAAGGAGAAATCAAGGATCAAAATTTAAGTAAA
1 CGCTTTGGATTTTCCTTCCTGGGAATACAGCCTGGAAATTCTCTCCAGGGGCTGTCAGAGGGCTCACTTGACTTGCTTATGTTTGCTTTGGGCTCATTCCTCTGAGCTACCTTTCATCCAGTGTCTGAAAACCGTAATTTCGTGTGTGTATGTGGGTGTGTGGGTGTGTAGTGTAAGGTTGGGGGTGTGTGTGTGCATGTGTGTGTGTAGTGTAAGGTTGGGGGTGTGTGTGTAGTGTAAGTTTGGGTGTGTGTATGTGTGCGTGTGTGTGTGTGCATGCGTGCATGTGTGTGTGTGTGT
1 AGAAAAGGAGTGAGAAGTTAGCAAGCCTTTTATTTAGGTTGTCCTGCCAGTACCATGAAACTCCAAGGAAGACCAGGGGGAACAGAGCAGACAGAGAAACAGCAAGAGCTGGCACCTAATTACTATGCCATAGAGCATTTGGCCAATTACACACACATCTATTGTGTGGTGTGTGGTGTGTGTGGGTGTGTGTATAGGTGTAGGTGTGTCTGCACACATGAATTCAGGCATTGTGTGGTACATGGTTCAGCAATTCCATGATTCCAGCCTCTGGAATCAGGCAGACCCTTTCAACCCAGG
1 TCTGTAGGCTGAACAGGAAGTATGGCTCTGTCATCTGCTCGGCTTCTGGGGAGGCCTCTGGGAGCTTTTACTCATGGTAGAAGGCTAAGTAGGAGCAGGCATATCACGTGCCAAGAGCACAATAAAGGGCGTGGGGAGATGCTACACACTTTTAAACAGCTAGATCTCATGAGAACTCACTCACTATCATAAGAACAGGAACAAACCATGAGGGATCCATCCCTATAACCAAAACACCTCCCACCAGGCCCCACCTCCAACAGGGGATTACATTTCAACATGAGATTTGGGTGGGACAAG
1 ACAGGGCGGAGCTCACACTAATGCTCTGACGGGGCGGAGCTCACACTAATGCTCTGACGGGGCGGGGCTCACACTAATGCTGTGACGGGGCGGAGCTCACACAGTAATGCTGTGACGGGGCGGAGCTCACACTAATGCTCTGACGGGGCGGGGCTCACAGTACTCCTCTGACGGGGCGGAGCTCACACTAATGCTCTGACGGGGCGGAGCTCACACTAATGCTCTGACGGGGCGGGGCTCACTAATGCTCTGACGGGGCGGGGCTCACACTAACGCTCTGACGGGGCGGGGCTCACAGTA
1 GAGAGCATGAGTAACTCAGCTCAGGTCACACAGCAGGTGGGAGAGAACTGGAACAAGAACCCAGTGCTCTTTCTGCTCTACCCACTGACCCATCCTCTCACGCATCATACACCCATACTCCCATCCACCCACCTTCCCATTCATGCATTCACCCATTCACCCACCTTCCATCCATCTACCATCCACCACGTACCTACACTCCCATCTACCATCCAACCACATTTCCATTCACCCATCCTCCCATCCATCAACCCTCCAATCCACCACCCACAGACCTTCCCATCCATTCATTTACCCATC
1 AGGCGTGTGTGTGTGTGTGTTGGGTTGTGTGGGAAGGGGTGTGAGCATATGTGTGTGTTGAATGTGGGTGTGTGTGTGTTGGGTTGTGTGGGAAAGGGTGTGAGCAAGTGTGTGTGTTGAATGTGGGTGTGTGTGTGTTGGGTTGTGTGGGAAGGGGTGTGAGCATGCGTGTGTGTTGAATGTGGGGGTGTGTGTGTTGGATTGTGTGGGAAGGGGTGTGAGCAAGTGTGTGTGTTGAATGTGGGTATGTGTGTGTTGTGTGGGATATAAGTCTGTGTAATGTGTGTTACATATGATGCA
1 ATAGATAGGGTGTCATATAGAAAGGGGAGGGGGCCTAGACGTCACTACAGATCTTCATATGCAGGATTAGGATAAGTCACAGGTGGGGCAAACATGGAGGAGAACATTGTTCTAGGGAGAGGGAATGGCATTGCACAGGCTGTGACCGTATAGATCTGGGGTGTGTTTGTGTGTGTGTGTGCGTATGTGTGTGTGTGTGTGTGTGTGTGTGTTCTCCATCCCAATAGATCTGCAGTCTATAGCCTAGGATACTTCTTTCATGGGACCCAGAACCCAGTGGCTGCCTTCCCAGAACCAACT
1 GAGAAGAAGGAAAGGTATTGAGAACACTAAGCTCTGGTCAGTTATGTATGTGTGCACGTGTGTGTGTGTGTGTGTGTGATTCTATGACTATGAGTGAGACTGCATGTTTGTGTGTGAGTGTGAATGCTGTGTGTGTGGGTGTGCATGTTTGATCTGAGATCTGTTCTCCCTGTCAGTAGGTTGTTCTGGGTAACAGGGCAACACCCTGTGCAAATTCTGGGTGGCCTAAATCTTGGGCCAACTGCTTGACTGACTGACTGACTGACTGACTGACTGACTGAGGGTGGGTCCTTGCTGGAA
1 GGTGTCTATTAGACAGAAACCTTGCCTGAGGAGTGAGATGTAAGCTAAGATCTAAGACAGCAGTAGGAGTTCCTAGGTGAAGAGGGTAGAAAGTGGGGAGGAAGAGATGGCATATGCACAGATGACATGTGGGAGGGACATGGTGTATTGGAAGACTGAAAGCCTGGGTGGCTGTAATGCATGTTGTGTGAGATGGTGGTAGACATTCTGTAACATATATGGGCTGGGTGCAGTGGCTCACGCCTGTAATCCCAGCACTTTGGGAGGCCGAGGTGGGTGGATTATGAGGTCAGGAGTTCA
1 TTGGGCTCAGACGACTTTAACAGCCAGTCTGATCCTGCCACAGTCAGTTAAAACAGCCTCAATGCCCGCTGCTAGACCCTAACCACTCCGTATATTTTGAAAGAAGCCTTTCTTGATGCAGGGTGTCTGTTGGGGCTGTTTCGGGCTCGCCCACCTGCCCTCTCCAGGCCAGAAGCTCTGCATGAGCTTGAAATAATTTGCACTCCCACTCGCGAGCTGGTGCTGCTGCCACAAAAACACCAGCCACTTGGCTCTGCTAATTGCTAATCACCAACATGCAAATCAGCCTCCACTGCAGAG
1 ATAGTAAAACCAGGGGGCTTCCAGCAGGAAGCAAGTAGAAAAGTTGTTTGTTAGCTTCTAATTCCACGATGTTGCGGTTCTAAACGGTGGCTCCTTTCTGGAAATTGTTAACTGTTGTGCAGATTTTTTCTGCATGTTATGGAATCACCTTCACCCAGCCCCTGCTCCCTCTCCTGGAACGTACTTCATTCAGCATGTGATGTGTTTTGCAATGTCACATGGTATTTCATCCTTTGCTTCTCTCTCTGGTAGACTGAGCTCCTCAAGCTTGAAGGCTGGCTGTCCCCCTTCCCACCCCAG
1 TGCTCTTTTTTCTTGGATTGTCAGGAAAGGCCTGGCTGCTCAAGTAACATTTGAACACGGACATGAAGGAAGTGAGCAAGGGGTGGAGGAAAGGGGTGGAGGAAAGGGGTGGAGGAGGAGGGAAGAGGATTCCAGGCAGCGTTACACCCACCCCACAACAGAAGGCTAGTTTCTGAAGGTGTGTGGGTGGGAGACAGGGGAGGCATAATGGTATTTATCTTGCTACCATCACACTGGTTCAGATAGAATCAGACAGGCGCCTTGAATGCCTCATCAATGTGGAAAAAATCTGATGGTTAG
1 CAAACACACATAACATACACACACAGCACACGCACCCCCGAACTCACACACTCCGCACCACACACAACATACACATGCACCACACACTGAAGCACACAGTGCACACACACCCGAACACGACACCACCCACAGCATACATGCACACCCACCATGCACATGGTCCACACCCACAAAACACACATGCACAGACAACATATGCACACCCCCCACCACATACACAAACACACACATCCCGTGTCCGAACTGACCTGACACCCTGCCTGCCTGCCTAATAGTGCTGCCATTCACCCCTGAGCCCCC
1 ATGGGTGGGTGGGGATGTCTGCCTTGCTTGCTGTGGTGTGGGTGGGTGGGGATGCCTGCCCTGCATGCTGTGGGGATGCCTGCCCTGCGTGCTGTGGGTATAGGTGGGGATGCCTGCCTTGCGTGCTGTGGATATGGGTGGGTGGGGATGCCTGCCTTGCATGCTGTGGGTGTAGGTGGGGATGCCTGCCTTGCGTGCTGTGGATATGGGTGGGTGGGGAGGCCTGCCTTGCATGCTGTGGGTATAGGTGGGGATGCCTGCCTTGCGTGCTGTGGATATGGGTGGGTGGGGATGCCTGCC
1 CACACACCCCCACACACCCCACACACCCCCACACACCCCACACACCCCACACACACCACACACCCCACACACACACCACACACCCCACACACCCCACACACCCCACACACACATCACATACCACACACAAACCACACACCCTACACACACCACACACCCCACACACACCACACACCCGACACACGCCACACACACACCACACACCCCACGCACACATCACATACCACACACAAACCACACACCCTACATACCCCACACACCCCACACACACCACACACCACACACCACACACACACACCA
0.1448829855335223 CATCAAACACACAAGTACATACATACAATGCACACACACAAACTCAGGAACACCTCCATGAATGCTGACCACATGCACTTGCATATGCAAGCATCAGGCATGCGCACACCCCCACCACCACATTCATGTGCATATGCAGACATGCACATACATGTGCACCTCCATGCTCACATACATGCGCACATGCAAGCACAGGCATACATGCATACATGTGTTTATACACATATGCACACAATTTGGTGAGCACACATGCACGTACATGCATATGCATATTCATGTACAACACACACTTATACTCGT
1 AGCATCACTTTATCTTAGAGGCTGGAGTGGCATTGACAAATTTTAAATGCAGGAAGGGTGGCTGGATGGGTAGATGGGTGGATGGGTGGATGGATGGGTGCATGGGTGGGTGGATGAATAGATGGATGATTGGGGGCTGGGTAGATGGATGGGTGGAGGGATGAGTGGATGGGTGGATAGATGGATGGGTAAATGAATGCCCTCAAGAGATGCAAGATTAATGCCAGCATGGCTATAAGAGGGAAATTGTCCTAGGGTGAACCAAGGAGGAGACTATGAAATGAGGCCTGACTGAGACTG
0.8908883248382753 TTCCTTCACAATGGTAATTGTAAAATGTCTTGTGCACATATATGTGTACATATGTGTTATGTGCATATGCCTGCATCTATACACACATGTGCATGTATGTATATACGCATCTACAGTGAATGCACATGTATATACATACAATGTGCACATACACACACCTAATACATGCATGCACATATGTACTGACTTCCCAACTCTCCTTGTCATAGCACACTCAGCTTAAATGACTCTAACAGATGACCTGCTTGTCTGGAAGTAAATTCAGCTGAGAAAAGATACCAAGCAGCATCTACCTTCTCT
1 ACATATGCACAGGCACACCCAGACACGCCCACTTATTCCAACACACTCACATGCACACACATATGCACAGGCACACTCAGACACACCCACTTACTCCCATTACACACTCACATGCACACTCACATGCACACACTCAGACACGCCCACTTACTTTCATTACACACATGCACACACACATATGCACAGGTACACACACACGCCCACCTACTCTCATTACACACTCACATATGCACACACACATACCCATTTACTACTCCCGCTATGCACTCACACCCACATACAACACACGCATATAGACAC
0.6991329682111298 TATTCTGTGAGAGGTGTGCAGGGAGTGTGAGGCGTGCATTCTGTGAGAGGCGTGCAGGGAATGTGAGGCGTGTATTCTGTGAGAGGTGTGCAGGGAGTGTGAGGCATGCATTCTGTGAGAGGCATGCAGGGAGTATGTGGCATGCATTCTGTGAGAGGCGTGCAGGGGGTGTGTGGTGTGCATTCTGTGAGAGGTGTGCAGGGAGTGTGAGGTGTACATTATCAGAGAGGTGTACAGGGAGCGTGCACTGTATATTGTGTGAGAGGTGTGCACAGTGTAAGGTGAGCACTGTATGTGACT
1 GGATAGAAGGAAGGAAAGAAAAGAAGAAAGGAAGATGGATGGATGGGTGGATGTGTGGGTGAGTGGATGAATGGGTTGATGGGTAGGTGGGTGGGTGAATGGATGGAAGAGTGGGTGGGTAGGTGGATGAGTGAATGAATAGTGGGCAAATGGGTAGATGGATAGATGGATGAGTGGGTGGATGGGTGGATAGGTGAATGGATGGGTGGATGGATGGATGACTGGGTGGATGGGTGGATAGATGAATGTGTGGATGGATGAATGGGTGGATGGGTGGATGGCTGGATGGGTGGATGGATG
0.9361281659849348 AATGGAAAGTGATCCGTAAACTTGGGGGCCCTCCATCTCGGGGTGTGGTGTATGTGCCTGCATGCATCCATGTGTGTATGCATGTGTGCGTGCATGCATTTTTATATGTGTGTGTGCGCATGCATGTGTATGTGTGCATGCATGGATGTGTGTGCATGCATTTGTGTATGCGTGTGTGTGCATTCGTGTGTGTGTGCACGCCTGTGTGCGTGCATGCATGTGTATATGCGCATGTGCATGCATGCGTGTATGCATGCATGTAAGCATGTGTGCATGCATTTGTGTGTATGTGTGTGCACG
1 GAGGCACAGAGCTTGCATGACAGGTCATGGCAGAGCAGCTGGAACCAGTCTAGGAGATTTAGGGAGGTCTTCCTCCATAAGCAAGATTCCATTTGACCTCTGAAGGGTGAGTAGGCGTTACCTAGGTGAAGGGAGAGGGTGATGATATCATGTGCATAAAACTGTACTGTATGTGGAAAGGAGAATGAAGCATTCAAAGGACCCAAAGCCCAGTAGGTTTGAAAGGCAGAAAGTGGGCAGGAGAACAACTTGAGACGGGGCTGGTGAGTTAGGTTGAACATGCAAACTAAAGATTCTTCT
1 GGATGGATGAGTGGATGGATGAATGGATGGATGGATGGGTGGGTGGGTAGGTGGGTGGGTGGATAGGTGGGCGGGTGGATGGATGGATGAGTGGGTGGATGGGTGGGTGGATGGATAGATGGATGGATGAGTGGGTGGATGGGTGGGTGGACAGATGGATGGATGGATGAGTGGGTGGATGGGTGGGTGAATAGATGGATGGATGGATGGATGGATGACTGGGTGGATGGATGGATGGATGGGTGGATGGATGGATGGGTGGATGGATGGATGTATGGATGTATGGATGGGGATGGATGA
1 ACAGTATGAGTCAAGGGAGGGGGCAGGTATAGACAAACTAGAGGGCAGGCCCAAGTCTTGTGGTCACTGAGGATGCAGAGCCTGGTCCCTGTGAGAAGGTGGCAAAGTGGGAAGATGGAACTGGCTTGTGGCCTTGGTAGCCCCACCCGGGCGCTCCCCGCAGGCCAGCAGAGGAGTTTAGCAGTTCCTAGATTTCCTGACCCCTGGCCTTCAGCCCACTGTCCTTCCCTCTCCTGAGAGTCAGCCTCTAAAAATCTCTCTGAAATAGCCCTGCATCTGAACCAGATCTGGAATCTGACC
1 CATCTCTTCACTTCCACTTGTAAGGATGCCCCGTGGGTTGGGCTGGGTGCCCCTTTACCCCTTGGTGTGGTCAGTCGTCCCCTTAGGCTGAGCGTCCACCCTCGTGGCAGGGGTGGGCACTGCAGAGACCCTCCCTGGGCTTAGGGCGTTTACTGGGTGAGGGGGCGGATGCCAACACAAAAGCCCTGTAGTGAGGGAGTGAGGGGCGTGGGTAGTGTGGCACCTCCACGTTTTCCCATTTAAACAATCCAGATGATGAAAAGCTGCTGTGAGGCAGGATGAAGAGGGAGACAGAAACAT
1 ACCTAACACAAATATATACACATACACACGCCCACCTAACTCACACACACCTAACACACATATACACGTGCGCCCTCACACATACACCTGCCTAATTCACATGCACACTATTGGCACACATATATACACATATACCTGCACATACACACCCATCTAACTTACACATACACCTAGCACACACACATAGACACTCACACACCCCTCGATACACACCTATCCACGAGCCCCATCTCAGTCCCTGCGAGGCTCCTGCTGCGCCCAGCACCGTGTGTGGTAGGGAAGGACTTGGCAGGGGTCTGG
1 GGACCAGCGGAGAAGAGGGACAAGACCCGGCCCTGGAGACTGTAGCCCTTGTCTGCACTGGTGGAGACCCCCAAGGCTCTCAGAGTGAGGCAGGGACAAGGAAGAAAGGGCGGTGCCCGGTGGGCCCCCACCCACTCTGCCTGGAAGCACCACCCGCAGCATGGAAACACCTCAGGGATCAAGCGGGCGGCGAGACCTGCAGCCCACGGCGCGGGCAGCCTATAGGAACAAAGCTGAGGCCAGAGGAAGACGGCCAGGGAACGCTTGGCCATAGCCCTGTGGCCACCCACAGTGACTCCC
1 GTGGATAGGTGGTTAGATGGATGGATGGTGGTAGGTGAAGGGATGAATAGATGGATGGATGGACAGATGGATAATGGGGGTGGGTGGATTGGTGGGTGAATGGATGATGGATGGGTGGATCGGTGGATGGGTGAGTGGATGGATGGGTGGATGGATGGTGGGTGAATGGGTGAATAGATGGATGGATGGACGTAGGGGGTTGGGTGTGTGGGTGGAAGAGTAGACAGATTGGTGGATAGATGGGTGGATGCCTAGATGGGTAGGCGAATGAATGGGATTTGGATTCAGTAAGAGGTTTTA
1 CTCCCTCCTCTCTCAGGTGGATGCTGGGCGTGGGAGCCCATGGGAGGGGCAGAGGGGCTGTCCACACAGCACCCACGGCTCCCATCACGCACACAATGCTCACACGCACAGGCGTGCACATGCTCACATGCAACACACGCACATTCACATGCACTTACGCACATGCTGCACACACTGCAGACACACCTGCCTAGACACTCACACCTACACACTCTTCCTCACACTCACATGCATGCACACTCATGTCACAGGGAGTCACACCCTCACACTCACATCCTCCCAGGCACACTCACAATCAAG
1 TTGCTGGAACCCTTCTGTTTCCTGGGAAGTTACCAGAACCTGATCACCAGCAGAATTGGAATGTGCAGTATGATCTATACATGTTTACACACATGCCACACACCCTTCCCAAGGCCGTCCCTATACCCATTACACACACACCACACCCCCTTCCCAGGGCCGTCCCTATACCCATTACACACACACCACACACCCTTCCCGGGGCCCTCCCTATCCCCATTACACACACGCCACACCCCCTTCCCGGGGCCCTCCCTATACCCATTACACACACGCCACACCCCCTTCCCGGGGCCCTCC
1 CCCGGGGTCTGTCCCCTGCAGCACTGTTCTCTGGGGGCTCGTGGTCCGAGTTCTGATACTGCAGGTGGCAGGTCCCCTGAAGGCATAGTCAGAGGCTTTGCTCTGGGCTGGCATGGAGGTATGGGCGTGGCGGGGTGTGGCTGGGCGTGGAGGGGCATGGAGGTGTGGGCAGGGCATGGAGATGTGGGCGGGGCTGGGCGTGGAAGGGCGGGGTGTGGAGGTGTGGGCGGGTTGGGCACCTCTGGGGGTTCTGGGAAGACTCGTTGCTGACTTCTTTGGGCTCCAGAGTCTGCTGTGCTC
1 TAAGATACAGGTCACAAAGACCTTGCTGATAAAACAGCATGCAGTAAAGAAGTCGACCAAATCCCACCGAAACCAAGATGGTGATGCAAGTGACCTCTGGTGGTTCTCACTGCTCATTATACGCTAATTATAATGTATTAGCATGCTAAAAGACACACCCACCAGTGTCATGACAGTTTACAAATGCTGTAGCAATATCAGGAAGTTATCCTATATGGTCTAAAAAGGGGAAGAACCCTCAGTTCTGGGAATTGCCCACCCCTTTTCCAGAAAACTCATGAATAATCCACCTCTTGTTTA
1 GTGCATGGTGGTGGCCGTGCACAGTGGGTGTGCATATCGGTGTCTGTGGGTGTGCACAGTGTCTTGGGTGAGCATAGTGGTGGGCACGCTGCATAGGGTGGGTGTGCGCAGTGGTGGTGGGTGTGCACGGTGGTGGGCGTGCACGGTGGTGGGCATGCACAGTGGGTGTGCATAGTGACTGTGGGCGTGCACAGTGTGGGTGTACACTGTGGTAGGTGTGCACAGTGGATGTGCACAGTGGCCGTGGGTGTGCACAGTGTCTGTGGGTGTGCACGGTGGTGGGTTTGCACAGTGACTTTG
0.912775316091161 TAAGATCCGGTGGGGAGTGGATGATAATACACCCCATATCGCTGGGGAGTGTACACTCGCCTGTGATATGGTTCGTAACATCCAGAGGGGGAGAGGATGATATCACTCCCCATATCGCAGGGGCGTGTACACCCCTCTGTGATATGGTTCATAACACTCAGGGGAGGAGAGGGTTATAACACTCCCCATATCTTTGGGGTTGTACAACTCCCAATATCGCAGGGTGTGTACACCCTTCTGTGATATTTTTCATAATATCTAGGCGGGAAGAGGACGATATTACTCCCAATATCTCAGGGG
1 GAGGGGGTGGTGATGGCTGGACAGGGAGATCATGAGATACGTCATCTCTTCTCTGTTGAAACCCCAGCACAATGCATGATTGACTTGGTCCACTGGGTCACACCATCATGGATGGGCATTATCTCCCACAACAGTCCCCATGGGGCACCACCCAGCACCTGCCCCTGCCTTTCTCATGTCTATTAATGACACCCACCCTTGCATTTGGAGCACCTGAATCATCTCTGCCACTTGCCTTCATATCTGATGGGTCACTCAGTCCAGTCCTTTCTCTCCATCCTCGCTTTCACTCCATCCCCA
1 TTGGGTGGTCCCCTCCCCAGTCCAGGCCTGGGTTTCTACATTGGTAAAATGGGGAAGGGTGTGTGTGTTTTTAAGGGCCCATCCAACTCTGCTGGGTGTGATGGGGAGGCTGTCTTGAGAAAAGGGTGTGCTGCCCCCTCGTGATGAGGCAGACTCTTCCCCAGGACCATCAAGTCTTAGGCTTCTAACTCCCAACCCTGCCTGGAAATACATGTTAGGAGGGCACTCCCTGCCCCGGAGTCACCCTTTCTGCTGTCTCACCTCCACCAACCCATCCCCGCCCTCAGCATTCAAGGCCTG
1 AGGTCCTCGACCTGCAAGCGGAAGAGCCTTGCCCAGAGCTTCTGAAGCCAAATCTCTTCAGGGAGCTACCCTCTACCAAGGGCTCAGGGGCCCTGGAGACAGTGCCATTGTGCTGGCAGGGAAGTGGCTTGTTACTTGGGCAGCGGCTATACCTGGGGAGGCCGCACCCAGCCACACCCAGAATCATCTTCATGCCCCTGCTCCACCCCAGCCTCGTGACCTGACTGACAGCTCCTGCCCAAGCCAGGACAACAGGAAGCAGGGCTGGGGCTGTTTCCCTACACCTCTGGCTAAGGCTGC
0.4838103260739191 TTCAGATTTTAATGAGCATAAACTCTACCCGAAAATACAGAACAAACACATGTGGAACACTTGGTATGTATTTCTTCCTATTCGATATGTTTGCATGCACATGTGCATGCATATACATACCCATACATGTACACATGCACATACATACATATGCATACCTAGGCACATATGCACACATGCACACACATATATGCATATGTACATACCCATACATATATATACACATACACGCCTTCCTACATACATACATATATACCCACTCACAGATACTCTTACATACATATACCTATGTATGTAAGC
1 AGAAGCAGGACAGCCAGGCAGGTGAGAAGGGTAGGCTAACACAGGAGGTGGTGGGCATGGGTGCGGGGAGGAAGGTGTGGAGGGCTGACGTTACAGGGGGAAGGTGGGGAGGGTGGTAGGCACGGGAGGAAGGCGGGCAGGGAGGGTGTCACCAGGTGCTCCTCCTCAGCTATTCCTGAAATGCACCCTGGAGCAGAGTCTGAATCTTGAATCTTGATGGTGCTGGTTATAAGCTGTATAGCTGAGGGAGTTAGAGAACCTCTGCATGTTTCATTTATAAAAATGGGCAAATAAAATCCA
1 CAATAATGCAAATTGTTTAAAACCCATTATTAAAAGACTAATGATTTTAATTAGAATCACATAACAAACCCACCCTTTATATCAGGGTTTCTCAACCTCAAAACTATAGACATTTAGGGCTAGATTATTCTTTGAGTGGGTGGATGGGTGGGGGCTGTCTTACTCATTGTAGGATGTTTAGCAACAACCCTAGATTATTCCCCAGGTTCCAGTAGCACACCCCTCCCTCAGTTGTGACAATCAAAATGTTCCCAGACATTGCCAAATACCACCCCCGAGGGGAAGGAGAAGGGACAAAAT
1 TGATACTGGGTAGTTTATAAAGAAAAGAGGTTTAATTGACTCACAGTGCCACAGGCTATACAGGGGACATGGCTGGAGAGGCCTAAGGCAACTTACTATCACAGCAGAAGGGTGAATGGGAAGCAGGCACATCTTCACATGGCAATAGGAGAGAGCATGAAGGGGGATGTGCCACACCCTTTCAAACAATCAGACCTGTGATAACTCACTCACTGTCACGAGAACATCAAGGGGGGAATCCACGCCCATGATCCAATCACCTCCAACCAGGCCCCTCCCTCAAAACTGGGGATTACAATT
1 GGTTGGATGAATGGATGAATGGATGGGTGGATGGACGAGTGGGTGGGTAGATGGATGCATGGATGGATGTATGGATGAATAAGTGGGTGGGTGGATGGAGGGGTGGATAGATAGATGGGTGGATGGATGGATAGATGGATGGATGCATGCATGGATGGATACATGGATGGATGGATGTTTGGGTGGGTGGATGAATGGATGGATGGATGTTCGGGTGGATGGATGGGTGGTTGGATGTTTGGGTGGATGGAGAGATGGATGGGTGGATGGATGGATGGTTGTGTGGATGAACATTTGGGT
1 AACAAAAGGTTTTCCTCCTTTCATATCATACTTCAGAAATTTCACATTGATATAATACTATTCTCTAATATGGTCTTTTTTAAGTTCAATTGTCCCTATAGTTTTATGCAGCTGATCTAAGTACATACATACACACATACACACACCCACACACACCCGCACACCCACACACACACGCCTCCAGGGTTTAATCAAAGATCTCACATTGCGTTTAGCTGACATGTTTGCTTTTTCATTTGTTTGTTTTGTGTTGTGGTGTTGAATTGGTCCTAGCGGTATCAATATAAACCTATTTTTATT
1 GGGTGAATAGGTGGTTGGATGGATGAATAAATGGGTGGATGGATGGATAGATAAATGGGTAGTTGGGTGGATAGACCGATGAATGGGTGGATGTTTGGAGGAATGAATGGGTGAGTGGATGAATGGATACATGAGCATATGGGTGAATGGGTGGATGAATGGCTGGCTGGCTGGCTGGATGGATAGCTGGGTGGATGAATGGGTGAGTGGATGGGTGGATGGGTGAATGGTTAGATAAATGAACGAATGGAAGGATAGCTGAACTTATTCTGCATATCCTTCTTCAGTTTTTCCTTGACA
1 GGTTGTTCGTAATATCCTAAGAAGATGTTGCTCTTAATGTCACATGGGGTGTACACCCTGTGATATTACTCGGAATATCTTATGGGGATGCTACTCCTAACGTCACAGGCTGTGTACACCCTGTGATGCTATTCGGAATAGCCACAGAGATGTTACTTTTGATGTCACAGACAGGGTCCACCCTTTGATTTTTTTATCATCTTAGGGAGATATGACTTCAAATATCACAGTGGGTGTACACCCACTGTGATGTTATTCGGAATACCCTAGGGAGATATAACTTTTAATATCACCGTGGGC
1 AAGCTTAATTAACTCAGAATAAGTAAAGAGATTCACAGCAGCAAATCATTTGCTGGAAGATGGTTCTTTAGGGTCAGGATCCCTATGCAGTACAGGAGTGCCTCCTGGGAATCAGAGCATGAATCCTAGGTGACATACTCCTCCCAGCTGCCCCCTAGGATGCAGGTGCTGCCACTAGGTCCAGGCTCAGAGATGCCTGCTGAGTTGCCATTTTCCTCCTTATAGAATTCCTTCTCTGCCCATTTCTTTTTCTGGCTTACTCCTCTTTTTGTTCACTTCAGTTTATAACACAGATGTTAG
1 TTCACTATCATGAGAACTGCATGGAAAAGACCTGCCCCCATGACTCAGTTACCTCCCACTGGGACCCTCCCACAACATGGGAATTTTGGGAGCTACAATTCAAGATGAGATTTGGGTGGCGACACAGCTACACCATACAGGTGGGAAAGGGTGGAGGATGCCAGGCTGAGCATTTTCAGAGTCATAGGGGAGTGAAATAGCTCTAAGTGGCTTCAGATGAATGTAGGTGGGAGGTAGTCCAGGGCTGAATCTTGCATAAAGTTTTAAGGATGTTGGATTTTATCCTTCTGGCTTGGAGTG
1 CTCCTCTTCAAATACAGGTTCCTAAAGTGTCCAGTTTACAAGTCAATTCACTGCTGGATAATTTAATATGTGGCTTACTCTCTATATGCCATAGAGGCAGTGTGCTTAATAAGGTCCCTAAAGACCTCATTTTCAATGCATTGAGCATCTCCCCTCTCTCCTCCTCATTCTCTCTTATCCTAAGGGTGTGTGTGTGTGTGTGCATTGCACACGGTATTGTCTCAATTGTGTCCCCCCAACAATTCATGTTGCATCCCTAATCCCCAAGGTGACTGTATTTGGAGATAGGGCCTTTAAGGT
1 GGAGGGATGCAGTTAGTAGGGATGTGGTCGGGAGGGATGCAGTTAGTAGGGATGTGGTCGGGAGGGATGCAGTTAGTAGGGATGTGGTCGGGAGGGATGCAGTTAGTAGGGATGTGGTCGGGAGGGATGCAGTTAGTAGGGATGTGGTCGGGAGGGGATGCAGTTAGTAGGGATGTGGTCGGGAGGGATGCAGTTAGTAGGGATGCGGTCGGGAGGGGATGCGGTTAGTAGGGATGTGGTCAGGAGGGGATGCGGTTAGTAGGGATGCGGTCGGGAGGGGATGCGGTTAGTAGGGATGTG
1 AGAAAAGCCAGCACAGCAGGAGAAGGCTAAGAGACAGTGGGTGCCTGAGAGGTGGGACAGCCCCCTTGTGAGCCAGATGAGCTGTTTGGGTTTTATTGTGAGTATGGGGCAGGGAGGCCTTGGAGCACCTATTTGATGCTGATTCATGGCTAGTCAGCTGGTAATGGGCGGATTGCAGTGGGAGAACTTTTCACCTCTGTGGTTCTGTTGGGTTTGGCCTAAACCTCTGTGAGGGGCAGAGGCTCACCTTGTGGGTGACGAAAGGGCTTGGTGGGCATCAGTATGGAGGAGGAGGTTGAT
0.9164316127373525 GCAGCCGGAGCTAAAATGGTATGTGTGCCCATGTGTGTATATTGTGGGTGTGTCTGTACATACATGTGTGCCTATGTGTGTATATTGTGGGTGTGTCTGTACAGGCATATGTGTGCCCATGTGTGCATATTATGGGTGTGTCTGCACATGCATGTGTGTGCCCGTGCATGTATATTATGGGTGTGCCTGTATATGCATGTGTGTGCCTGTGTGTGCACATTATGGGTGTGTCTGTACATGCATGTGTGTGCCCATGTGTGTATATTATGGGTGTGTCTGTACATGTGTGTCCATGTGTGT
0.9821659757091611 ACAAAAATCCAGTCACCATGAAGGCAATATCCCTTGAATGGAGACTCCTGTGTGCCCCATAGTAGGTGCACACCTAACACTTTTTCAATGAATGAATCTCCTCCCATACCACCCTCAGTACTACACACCCCATACCACCCTCAGTACTATACACCCCATACCACCCTCAGTACGACACACCCCATACCACCCTCAGTACTACACACCCCCTACCACCCTCAGTACTACACACTCCATACCACCCTCAGTACTACACACCCCATACCACCCTCAGTACTACACACCCCATACCACCCTCAG
0.2462219308046067 TTTGTTTAAGCAGTGGAAAAGGACTAAGACACCTACACACATGCATGTGCACACACACACACCTACACATGTATGCACACATGCACACACCCACACTTATGTATGTACACCTACACGCATGCATGCATACTTATACATATGCGCATAGCTACATGTGTGCACCTGCATACATGCACGTGTGGGCACACATATTGCACACATGCATGCACACTCACACACGTGTGTGCACACATGTGTACCATTCAACACATACACATGTGCACACATACCATGGGTTGCATGTGAAGAAGATGAAGGAAA
1 TGCCACCACGCCTGGCTAATTTTTGTTTTAGTAGAGACAGTGTTTCACCACGTTTCCCAGGCTGGTCGTGAACTCCTGGACTCAAGCAAACCTCCTGCCTCTGCCTCCCAAAGTGCTGGGATTACAGGAATGAGCCACCCACCACGCCCAGCCTGGGCCTGTGTACTTGTTAAGCAATAGGGAACTGCTAATTAGATTGGAGCTGAGCCACTCAATCAGGATCTGCCCAAGAGTACTGTAACTTACTCCTCCGATGAAGGGGTAGGTTAAGACCAGTAGCAGGGAAAACCAGTCACCAAA
1 ACTGTAACTGAATAAAAGCATTTCTTCACCTTGCTCGCCTTCCAATTGTTTTTGTACCTCATTCTTCTTGGATGAGGGGCAAAAACTCGGGAACTGCCAAATGGCAGGACTGAAAGAGCTGTAACACAAACCGGGCTAAAACACACCCCCATGCTCTCTAGTGGCCATTGCTGGCCACTAGAAGGAGAAAAGAGAAGAGCTGCAGCTCTTTGGAAAGCCCATACCTGGGAGCTCCCCAGGCTAGGGATGTGACACCCTCTTTGGGGCTCTGCAGTTCCTGGCATCTCCAAGTTTTGGGGC
1 ATGCATAGAAGGCCCTGGATTCCCTGTCCCTCTGGCTAGGTGGGGGCTACAGCTGTGTCAGCCCAAATTCAGGCTGAGGGTGGGGCACAGCCTGGCATTGTACTCTCAAAATGATGCCTTGGGCCTGCATCCAGGGAGGGTGGAGCACTGCCCAGGCAAGCAGCACGGACAAGAAGCTGTAGAGAGTGCAGTTCACTGGCATCTCAGTCTCACAGCAGTCTGTTGCAAATCAGTGGGTATTGCTTATGTTAAATATGTGTATGATGGCCTGGTTTCCCCGACCCTTTTTTGGCTGGGCAG
1 TCCCTGCTCTTCCCACCCGCTGTGGGCGTCCCAGCCCATTGTCCCTGCTCTTCCCACCCTCTGTGGGCGTCCCAGCCCATTGTCCCTGCTCTTCCCACCCGCTGTGGGCGTCTCAGCCCATTGTCCCTGCTCTTCCCACTCTCTGTGGGCATCCCAGCCCATTGTCCCTGCTCTTCCCACCCGCTGTGGGCGTCCCAGCCCTTTGTCCCTGCTCTTCCCACCCGCTGTGGGCGTCCCAGCCCATTGTCCCTGCTCTTCCCACCCTCTGTGGGCGTCTCAGCCCATTGTCCCTGCTCTTCC
1 GTCCACACCACACCCTGTTCATGAGACACGCTGCTCACCTTGCACCCTGTTCATACAACAACACACCATCCGCCTCGCTCCCTGTTCATGCCACCCACATCACACCCTGTTCATGCCACCCACACCACACCTGTTCATACAACACACCATCCACACCACACCCTGTTCATACAACACACCATCCGCCTCGCTCCCTGTTCATGCCATCCACACCACACCCTGTTCATGGGACACACCGTCCACACCACACCCTGTTCGTGGGACACACCGTCCACACCACACCCTGTTCGTGGGACACAC
1 GATTGGGCCTCATTCTCCTGGACATGCAGCCCTATGGCTTGTATAGTGATGGTACTCAGACATATTTATAGAGACGAGATGACTTAAATGGCAGTTACCACAAATGACTCCCTTTTCCTTCTGGAGAGGGCGTGGGCAGGTGTATATATGAAAACTTCCACCCTTCTCCACCGCCCGTTCAGTGTGGCCCAGGCACCAAAGGAATCTTCCGGAAAAAAATTTTCCCTCAGAATGATTATGACTAAAATGGCTTTCTGGAAACCAATTAGTAAAACTTTGAATCTACGAGAATCAAGGAGA
1 CAAAGAAGGCAAAAGGGGAGTTGACATGTGCAGAGATAAAGTGGTGAGGGAGGAAGCAAGAGAAAGGGTTGGGAGGTGCCAGGCTCTTTGTATTATGACAACCAGCTCTCATAGGAATTACTAGAGTGAGACTCACTCACTGCCACAAGAACACCACCAAGCCATTCATGAGGAATCCACCCCCATAATACAAACACCTCCCATTAGGCCACACCTTCAACAGTGGGAATCAGATTTCAACATGAGGATTTAGGGGACAAACATTCAAACTGCAGCATCAACATCTTGTTTGTATACAAT
1 GGTTGAACTGTCTGGTGGGAAGGCCGGAGTTTGGGGTGGTGATGCAGGGGGTTGTGGCCCAGCTGTTGGGGCACGGCCATGGGCCAAGCCTCAGTGGTGTGAGGATCAGGAGGGCGTGCGACAAGCCTGGGACTGGCCTCCAGATGGCGCCTGGGTGGTCCCACGCCTCGGCGACAACAAGGACCTGCCTTTGATGAAGAGCAGAGGGAGGTGAAGAGCACAGAAGCTGGCAAGCCAGGGAGCAGTGGTGGCAGGGGCACCTCCCCTCTCCAGACACTGGGCCACCCAGCCACTGAGAGG
1 TGTTGAATAAATGGATAGGTAGATGGGTGGGTGTGTGAGTGGATGGATGGATGGGTGGATGGATAGGTGGACAGATGGGTGGGTGGGTGGATAGATGGATGGATTGGTGGGTGGGTGGATGTGTGGGTGGATAGATGGGTGGGTATCTGGATGGATGGGTGGGTGGATGGATGGGTGGATAGATGGGTGGATGGATGGGTGGATAGATGGGTGGATGGGTGCATGAATAGATGGATGGATGGATAGGTGTGTGGATGGATGGATGGATGGATGGATGGATGGGTGGGTGGAAAGATGGAT
1 TTGGGTGGGTGGGTGGATGCATGCATGGGTGGGTGGGTGGGTGGGTGGATGGATGGATGGATGGATGGGTGAATGGTTGGGTGGGTGGGTAGATGCATGGATGGGTTGGTGGGTGGGTGGCTGGATGGATGGGTGGATGGGTGGGCAGGTGGGTGGATGTATGTATGTATGGATGGGTGGGTGATTGGTTGGATGGGAGGGTGGATGCATGGATGGGTGGGCGGGTGGGTGGATGGATGGATGGATGGATGGATGGATGGATGGATGAATGGGTAGGCGAATGGATGGTTAGATAGATGT
1 TCCAGAGGGCCAGTATTTTTCCACAAAAGAAGTGAAAATAGCCAGTTCCTGCCTTAACTGATGACATCCCACCATTGTGATTGGTTCCTGCCTCACCCTAATTGATCAATTGACTTTGTGACAATACACCCTCCCTGCCCTTAAGAAGGTACTTTGTAATATCCTCCCCCTGCCCTTAAGAAGGTACTTTGTAATATTCTCCCCGCCCATGAGAATGTACTTCGTAAGATCCAACCCCTGCCCGCAAAAAATTCCTCCTAACTCCACCGCCTATCCCAACCCTATAAGAACTAATGATAA
1 TGGCGCTTTTCAGTCTCTTTCCCCCACCCATCTTTGTTCTATACTGGAGTCAGTGATCAGTGGCAATGAGGGGAGAGCAGGTACAGGTGCCATGAAGACCTAGTGTCTCTTCCTCCTTCAGAAGTGGGTGGAGGCTAGCAGGGTGTGGATGTGTGTGGGTGTGGTGAGGAGCACTGAAGGTCCTGGAGAGGGAAGTGTATCAGTGATTGTACCCACAGGATTTCAATCTGTGAACAAGAGTGAGTGATTACAGAAAAGCCAATGACATTGAAATAATTTTTTTTTTCAATTGGTGAGAAA
1 GGTGGGATATACTCCCTCACTGGATGTGGGTGGGATGTACTCCCTCACTGGGTGTGGGTGGGACACAATCCTTCACTGGGTGTGGGTGGGATATACTCCCTCACTGGATGTGGGTGGGATGTACTCCCTCACTGGGTGTGGGTGGGACATAGGTGTGGGTGGGATGTAGTTGCCAGTGGGATGTAATCCCTCCTGACTCCCTCCCGAACACATTAGGTTTGCAGGTTATGATAAATGCCACCTCATTATAGTAAAGAAATGCAGAGGCCAGCCCTCTCCTAATGGTTGGAAACTGGGCTT
1 AGAGGCTGGGTATTATACCCAGTTCACAAATGGGTAACCTGAGGCTCAAAAACAAACACAAAGGCCCACTTGACTTCCAAAGGCCACATGTCTAGATTCCTCCCTACTGAGGGAAAGGTGAAAAACTCACTGGTTTGTTGTGGGTGCAGGTGTGGCACTCATTCCCTCGGGGGAGGGCGGACAACAGTCCCCTGGAGGCCTTCAGTGAAGCAGATAAAGGGAGAGCAGGCGGGAATTGCTGACAAGGGTAGCATCGATTGTCACCAACAGCAACTGGCCCAGATTCCACCCTCTGTAACA
1 ATGGAGATTTCCAAGTCTCTATATGAGCGCCCTCGTCCACAGCAGCCAGTGCCATGGCAGGCAGTTCACACAACAGGAAAGCTATGTCATCATAAGGCCAGCCATTGGGTGTGGGTGTTTGCTTCCTGTAACTGGGTGTTTGCTTCCTGTAACTGGTTGTTTGCTTCCTGTAACTGGTTGTTTGCTTCCTGTAACTGGGTGTTTGCTTCCTGTAACTGGTTGTTGGCAAGCCCTTGATTTAGTGTTTATATCCCAGCTTCTTCTTCTAAGTAGTGACCTTTGACAGGAGTGTAAAATAAT
1 GATGGGTGGATGGGTGGGGGAGTGAGTGGGTGGGTGAGTGAGTGGTTGGGTGGGTAGGTGGGTGGATGGGTGGGTTATTGAATAGATGGGTGGATGTGTGGGTGAGTGGATGGATGGGCAGATGGATGGGTGGATAAACAGCAGGTGAATGAGAAGACGAGTGGATGTGTGGATGAGTGGGATGGGTGAATGTGTGGGTGGATGGATGGATAGATGGACAGGTAGGTGGAGTGTGGGTGGATGTTTAAATGGATTGATGTGTGGGAGGATGAATGGGTAAGTAGATGGATAGAAGGGTGG
1 CTCCTTTCTTTCCCTACCCAGGGGTTCTAGTGCTTTCCCTTGACTGATCCTGAAGGGGTGGGGGTTACTGTAAGGGAGGGGGTGGTAGGCTACTCATAACTACTGGCACCAGCCTTAGGGTGTTGTCCCTTACCACAAGGTGGTGAACAGTCCCCTCCCAATTGGAGGGGTGGAGGATTTGGTGCAAAGCCATGGAGATTAGACAGAATAGGTGGGTTGGAGTAACTCCCCATAGGCACAAGCATCCGCAGCCTGTCCTGACCCCAGCCTGCACTCTCTCAACTCCTCAACTGGGGGTTC
1 TGATTCATCCCTGTGGTGTTTGAGTTTGCACTCTGTGAAGACCTTCTTTGCCACTTCCTGCACACTCTTTCTCCAGTGTGCTTTCCCTTCAAACAGCCACACCTGCAGGTGTTTCCCAAAGGAACGCCTTTGATCTATGGAACCCTATGCCCACATTGAGATGAGTGAGAAGTGCCTTGGAATTCACACCCTCCAGGGTGGCCCTTAACCAATGACTAAGGGGATGTAGGAGTTTAAAAGCTTCCTTGTGTGGGGTGTGGATGATGATGACAACTACTGGGGTAACTTACCCTCCAGAGT
1 AAAATGAAATTATATTTTGTTTGCAGGATTTTCCAAACTTCTTTGAGCAGAGAAACCTCATGTGTGAGAGATGGGTGGTGGGGGAGTATGGGAGGTGTGAGTGCTTGTGTTTCTGCATGTGTACATGAGGTGTGGGGTATGTGTGGGGGAAGTGGGCTTGTGTATGTGTGTCTGCGTGTGAGTGTAGGAGTAGGTGTGTCCATGTGGGTGTGTGTAGCATCTCCCAGGTGTCCCGCTGGGACATGCTACAATAGAGGTAGCCCATACAAGGCACTAAAGCCAACATGTCAATGACTTGTT
0.4599587930615637 GTGTGTACATGTGCATTGTAGATGTGTGTGCATATGGTGACCTCAGTTCCAAAGCTTTCCATGTGTGTGTCCATACACATGTGTAGGTGTGTGCCTGTGTGTGCATATGCGCATACACATGTATAGGTGTGTGCATGTGTGCACACGTGCATGTGTAGGTGTGTGTGTGCATTGTGTGTAGGTTTGTGCATGTGTGTGCATACGTGTGTGTAGGGGTGTGCGTGTGTACACATATGCATGTGTGTGTGTGCATTGTGTGTAGGTTTGTGCATGTGTGTGCATACGTGTGTGTAGGTGTGC
1 GGCTCCCCTGCTCCACTTCCTGCAGAGCCCAGGGCACCAGCCTGGCTCACATTTCCACTCCCTATGCGTGATCCTGTGTTAAGTGTGGGGCTCAGTGGGAATGTGTGCACGCCCTGGGTTCATGAGCAAATGTGTCTGTGGGTGGGATTGGATCTTTGTGTGTGCGTGCATGCCTGGAGGCTGAATACCTGTGAGTGTGTGTGTATCTGAGTATTTGTTTGAGAATGTGCATGACTGCGTATGTGCAGATGTCTGTGTGCACATCCATGCAGATCTCAGTATCCATGTGAGTGTGTGCAT
1 TCTCTAGTTGAAGGATGACCAAGGTGAGGCAACTGAGATGAGAAGGCATACCCTGCTAAGGGGAGTAGCATAGCTGGGAGGGCTTCAGAAAGGAGGTGGCTTTGGATCAGTGCCTGAGAAAAGGGCAAGGAATGCATCAAGGAAGTAATGTAGGGTGGAGATGGGAGTGTGCAGATAGATGGAACCACCTAAGTGAAGAAGCCAAAATATAAATTTGGTGTGGCAGGCATAAAGACAATTGGGCCATAGAGGTAAATAAAGCCACTTTATGAAGGTCCGTGTGACAAGCTAAGGGATCAT
1 GCTCTGAAACACTGAGCCACAGTGAGTATGGAATTCACTCCCTTTCCTCCCCTAAGAGCATGCCACACACAGTACATGTCCAACCAGGCACACACAATGTACATATGTGCAAGTGCATGCATGCACACAAGACCACACACACACGCCCACACCCATCTGCTCCATGCTTGTGTCAGCCTTGGTTAACATGCTTAGGAGCATCTTTACTCCTTTGTCTCTTACAGGACCGGGGAGGTGGTTTTCTTGCTCTCTGCACATAGCAACAGCTGCAATCAAAGTTAGCCTAGCTCTTCTGTGGGG
1 GACACTGAGGACACTAATATGGGAAAGGGTATATTGTGGGTAGGATCTGAATAAGTCAAAAGGGATGCGTGTGGGGCAGGGCATGAGGACAGGTATAGGGAGCAGGCAAGTAGAGATGGGGTATGAGGGCTGGTATGTGGAGTTGTGGGTGTGGATATGGGCATGTAGGGACAGGTATGAGTGTCAGGAGCATGAAAAGGGTGTAACAAGACAGTTGATGGTGACACTAAATTCCAAGGAGTTGGCCATATCTGTGTTGGCTGCTGTATTCCCCAGATCCAAGCTCAGTGCCTAGCACAT
1 CTGTTGACAGAAGCTGTTTCTAAGAAACTCATCTCTTGTTTCCATTGATACAGTCTGTGATGGAAGAAGAATCCTAAGGGACAAACTTAGGGAACAAAATATAAAATACCAAGCAGGGGAGTGATTCCTTGCAGGGCGATATTCACACATCATTCAACAGCTGTGGATGGAACTCCTCCTCTGTGCCAGGGCGGTAATATGACCTCCCATGGGTTTTCCTCAGTAATAAACCTATGGGACTTCTAAAAAGATTATTAATAATTAAGTAACAGTTTCCTTGCCCCCCTCCTAACCCTTGTC
1 CATTTGCTTTTTTCATTGAGGATATGGGTCCAGTTTTATTCTGGTTCCAAATTTCTGCTGGCAAGGGTCCCAGGCCTTGTCTCCTATCCCTCCCTCCACAGGTATAAAATCCAAGCTCCTTTGGTTACCAACATTAGCAAAAGCCACCACCTCCCACGCCCATCTCCTGCCTCCCTTTGCCACCCATAGGCCCACCCTGTAGGACAGCCAAAGAATAAACACCTGCTTGTCACTGTGATTTTTGGCTTTTCTCTTTGTTTTTGGTCCCTGGGGATTTTTTTTTTTTTTTTAATCTCGGAA
1 TCCTGACCTAAAGTGCTCTGCCCACCTCAGCCTCCCAAAGTGCTGGGATTACAGGCATGAGCCACCACACCCAGCCTATTTCTTGATTATATGCTAAACAAGGGGTGGATTATTCATGAGTTTTCCAGGAAAGGGGTGGACAATTCCTGGAACTGAGGGTTCCTCCCCCTTTTAGACTATATAAGGTAACTTCTGGACATTTCCATGGCATTTGTAAGTTGTCATGGCACTGGTGGGAATGTCTTTTAGCATGCTAATACATTATAATTAGCATATAATGAGCAGTGAGAACAACCAGAG
1 TGATAAGGTATAATTTAGGCCAATCTTATTTATTATGCAACCAGTCTGAATAAATGAATGGATGCATAGGTAAATAAGTGACAAATTGATGAGTAAATGGAAGTGTGAATGAATGGATAGGTGGGTGGGTAGGTGGGTGGATGGATGGATAGACGGGAAGGTGGTGGATGGATGGGTGGATGGATGGGTGGATGGATGGATGGATGAATAGATGGAATGGGTAGATAAATGTGAGCTTGAATACAATGGGGAAGTATGGGATGAATGGATGGATGAATGGGATGACAAACATGGATGGGC
1 TATCGATAAGCATTACACAAAGAAAGACAGAAACACACACTGCACACACACCCAAAACCCCTCACACCACCCACCACACACACACACAGCCACAAATCACTCACACCACCCACCGCACACACACACCCAAAAATCACTCACACCACCCACCACACACACACACCCAAAAATCACTCACACCACCCACCACACACACACACACACACAGCTAAACATCACTCACACCACCCACCACACACACACACACCCCCAAAACCACTCACACCACCCACCATACACACACACCACATACACGTCCCC
1 CCATTGACCTGTAGTCCCTGTGACTCCACCTCCATTGACCTGTAGTCTCTGTGACTCCACCTCCATTGACCTGTAGTCTCTGTGCTCCACCTCCACTGACCTGTAGTCTCTGTGCTCCACCTCCATTGACCTGTAGTCTCTGTGACCCCACCTCCATTGACCTGTAGTCCCTGTACTCCACGTCCATTGACCTGTAGTCTCTGTGCTCCACCTCCATTGACCTGTAGTCCCTGTGCCCCACCTCCATTGACCTGTAGTCTCTGTGCTCCACCTCCATTGACCAGTAGTCCCTGTGCCCCA
1 CATCTATCTACCCATCCATCCACCCACCCACCCATCATTCATCCATCCATCCATCTACCCATTCACCCTTCTACCCTTCCATCCACCCACCCACCCATCATCCATCTGTCTATTCATCCACCAACCCATTATTAATCCATCCATCCACCCACCCATTATCCATCTACCCATCCACCCACCCATCCACCCATCCATCCATCCACCCACCCATCATCCATCCATCTACCCATCAACCCACCCATCATCCATCCATCCACCCACCCATCATCCATTCATCTGTCCACCACCCACACGTTATCC
1 GAATGTAGTGCTCACTGAGGCAACAGGCTCTTTTCCCATCTCTGATGCTGTCTGGGATCACAAGGTGAACCACCAACTCCCAGGGCCCAAATGAGGTGGGGCTGAGTCTGAAAGCAGCCACATTCACCATGGAGGGTGTATCCACACAGCACCCATATTCACTATGCAGGGCATAACTGCACAGCAGCCACATTCACCAAGGAGGGCCTATCCGCACAGCAGCCACATTCACCATGGGGGGCGTATCCGCACAGCGGCCACATTCACCATGGGGGGCGTATCCGCACAGCGGCCACATTC
1 AAAGAAGAAGAAGAAGGGATAGAAGGAGGAGGAGGAGGAGAAAGAGAGGGAGGAGAAGGAGGAGGAGGACGAAGAGGAGAACAAGAGGGAGGAGAATGAGGAGGAGGAGGAGGAGAAATAGCCACCAGTAGGGTGGCAACAGGATCCACGGCCCTCTACACCCTGTTATTCACAGTGCTGGATTTCTCCTAATGCCCCATGTGATTACAGGGTAGCTACTCACAATCCGTCTTACAAACTTCCTTGTTCACATTGGTAGGAAGGAGAGACAGACTTCACAAAGCTCCCTCTTAAGACAGA
1 AGGAACACCAATTTAACAACATATCTACATTTTTTAAGAAAACACCTTCATAACAACCAAAAATCAGGTGAGCACTCATAATACCTGGTTTTAACTTCATGTCATTGAAAGATGCACTGAAGAGGGGAGAAAAGACAGTCTTGAATCTTCCACACCACCCCTGCGCCATCCCTGGCAGCAGCTGCCTGACACAGAAAGAGAATCTGTGCTTTTGGGAAAGGAAAAGTGTAGCAATTGTGAGACACTGCATTGAACTTAGTGCTACTCTGTCATAGCAGTGAGCAAAACTGGGCTGAACTC
0.8619186756913203 ACGTACATCCACATCCACATGCACATGCACATGCAGACACACATGCACATGCAAATGCACATACACACATGCACACACGCACATAAACATACACGTGCACATATGTGCAAATGCACACACACGTACACCTGCACATGCACATATGCACATGCAAAATCACATGCACATAGATGTGCAAATATGCATATGTACACATGCAAAGGTACATGTAAGTACACATGCACATACACATATGCATGCACATGAAAATGCACACACACATACACAAACATGTACACGCACACATATGCACATAAACAA
0.5815530172698756 TATCCTAAAGGGATGTTATCTTAATGTCATGGGGTGTGTACACTCCTTGATATTATTCATAATATCCTAAGGAGGTATTACTTTAAAAATCACAGTGGGTGTGCACACGTGGTGTACATCCGTGATATTATTCACAATATCTGACTGAGGTATGACTTTTAATATCACAGTGGGTGTACACCCTGTGATATTATTTGTAATACCCTAGGGAGATGCGATTCCTAATGTTACAGTGGGTGTACACTCTGTGATATTATTTGTAATGTCCTAGGAAGATATTACTCCTAATACCAAAGTGGG
1 TACATGCAAACACCCCAGCACACCTGCCCACATCTCAATACACATGCCCACATGCACACACATGCACACATACGTGGGCATACACAAATACCCCAGTATACATGCATACATCCAAGTACACCTGCCCATGTGCACACACCCCCCAACATACCCTCCCATGTGCACACATACCCCAACACACCTGCCCATGGGCACACACACCCTAACACACCTGCCCATGTGCACACACACCCCAACACACCTGCCCATGTGCATACATACACCCCAGTACACCCATACCCTGGCATATACCCCAGTCCA
0.1450430411767989 GCACATGTATGTATATATACACACACGCACATGTATATATACACACACGCACATGTATATATACACATACGCACATGTATGTATATACACACGCACGCACATGTATGTATATACACACGCACGCACATGTATGTATATACACACGCACATGTATGTATATACACATATATGCACGTGTATGTATATACATATATGCACGTGTGTGTATATGTACATATATGCACGTGTGTGTATATATACATATGCATGTATGCACATGCATGTGTATATACATATATCATGTATGTATACACATATGTA
1 GTGGGGAAAGTGTGGAGCATCACACAGATGGTCAGCCTTCCTCAAGTACAAGTGGCGCCCGGCCTGCTTATCCATGGATCACAGACCATTCCTCTTGAACGGTGCAAAGTAACACTGAGGTGGGCGGGGCAGTGGGTGTGTAGGGCATGAAGGAGGCAGACACAGCACACCCCTAGACTTTTCCTGCTACCTCGTGGCTGATACAGTATGACATGGCTGACGTGTGTCCCTTCATTGAGGGCAACTCCAAAGCCTTCATTTCTAATGATTTTGAGGTAATCTCATTATTTCAGCTGCCAT
1 TGAGCCACCACATCTAGCATGGAAGCCACATTTTAAAGAACAAGGAAGGACACAGGATGCTGAAGTCATTATTTTAACCAAAGCAGCCTCCATTTCAGACAATGAATTGGTTTAGTATGGCAGAGTCCCATTATAGCATAGAAAGCATGAGGGGAGTGGTGTGTATGCATGCATGTGTGTGTGCGTGCATGGGTGTGTGTGTGTGTGTGTCTCAGAGAGATTGAGAGAGAGAGAGACAGAGATGGGCAGTGGGCAGAGGCTCCCGGAACATGAACCTCTATCTACCATTCTGAAATGAGG
1 AGAACGACTTCGAGCCAGTGAAGGTGGGCAGCCCAGCATGCCACGCCCACCTGTGACATGCCACGCCTACCCATGCCTCGCCATCCTTAGCCACGCCCACCCATGCCTCACCATGCTTATGCCACACCCACCCATGCCCTGCCCATACCACAGCCACTGTGCCATGACTTGATCCACTTATGCCATGCTTACCTGTGCCTCACCATGATCACTTATGCCACACCCACCTGACATGCCACACCCACCCATGCCATGCCACGCCTATGACATGCAACATGCTATGCCTACCCATCCCTTGCC
