svm_type c_svc
kernel_type wgkm
L 11
k 7
d 3
M 50
H 50
nr_class 2
total_sv 10118
rho 0.0814729
label 1 -1
nr_sv 4805 5313
SV
1 GAATTAGTAAAGTAGCAGATTGTATTATAGGCCTCAAGTCACTTAAATTTATATAGGTTATTAGCAGTATCTTTAAATATACAATATAAACAAAACTGTACATACATGGCATATTAACTGTTTTCCATAACAATAGGCAATTCATTAGCTAAAGACGTCATAGTCTGCAAAAACAAAAGGCACATCTGAATGAGATACATGCCCTTTTTCCCTCCATCATTGGGTTATGTAGTCTTTGTTTACATTTTGACAAAATAATAAACACTTACAGTGCCATTCTATTATTTTCATCCTACTTTT
1 TTTACTTGGTTTACATTTGCCCAACTGCATATGGCCCCATCTCTTAGCTTTCACACTGTATATAATTCTGTACAGGGATAGAACCAAGTTTTCCCCTTTTTGTTCACTCATTGCCTCTCATTGCATCATGAACAAATGCATTGCATCATGAACAATGCCTCTCATTGTTCACTCATTTGTTCACTCATTGCATCATGAACAATAGTGCCTGAGATGCTTACTTCAGAATTGAGACAGGCAATTGGGCCAAAACCTGTTGAACCTCAGTGAATATAAAACATGAGTGGCAGAAAAGAGCAA
0.7464862398674268 GCCAATTTGTATTGTAAATAGACACAGAAAATATACGGGAGCTTAAAGCATGATTTGGAGCACAGGAAAACCTGAACCAAAGGAGAGAACAAAATTAGGCAACCCATTCATTATCAAGAATGTATTATAGGTTCAGGGAGCTTCAATTGTGCTATTGTTGCTATTGTTAAGACAACAACAATGTGCTTTTATGGTACCCAGCGCTAGCCCCTCTCATCACACCTGTCACTCCTATTGTGTTTATTCTCTATCTTTCTGTTATCTTTCTTTAAGGTTCTTGTCTATATTTTCAGTATCCTC
0.9433490769446921 TTGTGTGTCTGGGAAGGTCTTTATTTCATCTATTCTTTAATTTTTTTTTCACTTTGTATGGAAGTCTAGGTGAGAGTTTTTTTTCTTTCAGTGCCTTAAAGGTGCTGCTCCATTGTCTTCCGACTTGCATTGTTTCCAACAAGGAGTTCGCTCAATATCACCTTTGTTCTGTGCATAATGTCCTTTGTCTCTGACTGCTTTTGATTATTATGTGCCTTGGTGTAGTTTTTTTCACTTTCTTCTAACTGGAGCTTATTGAAATTTTGGGTCTGTGGGATGATGATTTTCAGCAAATTTGGA
1 AAAATTCAAGAATAGAAAGGACTTACAAGTATCCCAAAGTGAAAAGAAAAATATTGCCTCACAGAATAATGTCAGTGAATGAAAGGATGATTCTTTTATCTTACCACAGTAAACGATCATTTTGCCATTCACAAAATCTACAATTAAAGCTAGTACATTGTTCCAATTGTCACCTATTTTATGCACTGCACTGTTTTTAAATAAATGAACCATCATTGTGATACATTTACAATAAACATAGCAGCACAGCCACTTTCCAGTTCATTTCATAAGCACCACAGTTATATCATATTCTTATTC
0.3988059096960808 CTACTATTATTGTCTTGCTGTCTACTTCTCCCTTCAGACCTATTAATATTTTCTTTATGTATTTATGTTCTCCAATGTTGGGTACATAATAGTGTGTGTGTGTGTGTGTGTGTGTGTGTATTATATATTGTTCCATATTACCTATTGTTCTATCATCTTGATGAATTGATCTCTTTATCACGATATAATGGCACTGTATGTCTCTTTTCACAGTTTTTGACTTAAAATGTATTTGTCTGACATAAGTGTGGCTACTCCTCCTCTCTTCTGGTTTCCTTTTGTATGGGATGTCTTTTTATA
0.6663636893070093 TTTGCTTGTGCTTTTAGTATCACATCTAAGAATCATTGTTAAATCCAAGATTCCTATGTTTTATTCTAAGAATTGGAAAATGGAGACTCAAAGAAATACATGTACACACATGATCATAGCAGCACTATTAACAATACTCAAAGGGTAAAAACAGCCCAATTGTCCATCAATGAATGGATGAATAAAATGTCGTTATGCATACAATGGAATTTTATTCAATCATAAAAATAATGTTTTACCGATGTGTGCTACAACATGAAAAACCTTGAAAACATTCTGCTAAGTAAAGGAAGCCAGACA
0.4107496036596349 TTGGTTACTTTACAAACTCATTAAGACATAATTGAAACACAAACTGTACATATTTAATGTATACAATCTGATCAGTTTTGACTCATATACACAGTGATGAAATCATTACCACAATCACAATACTGACCATTTCCATCACTGAATGATAGTATTGTATGGGTTTAAATCGTTGGATAATTATTGATATGTGAATCTATCATCTTGCTATTTGGACTTTATTTGTTCTTTGTTTCTTTTTTCTCTTTTACTTTTTCTTATCAGATTACTTTTAAAAAATAATTATGTTTTATCCCCATGATT
1 CCTTACTGAAAAGTGATTTTCACAGTTATAGAAATTTAATTTTTTTTCTGAGTTTCAAATTTGCCTTTTGGAAGGAACACAAAACAGGGCTTTTCAAAACAAAAGTCAATTGAAGCAAAAGTTTTTGTACTTGATGTAGGCATGTTGTAAACACATAACAATAGCAATAAATACAGTCAAACAGCATGATACTCAGAAAGACAATGAAGTCTATAAAGGTCTACAAACATCATATTTATTTTATTATAAAAAGGCATTAATTATGCTAATATGTGATGAAATCATATGAAATTCAAGGTA
1 AAAGAAAAAAAAAAACTGTCAACCAAGAATTCTATCTTTCAAAAATGAAAAAGTAAGAAACATATTCTGAGACAGACAAAAGCAAGAGAAGTTAATTGCTAATAGACCTGCCCTAGGAGAAGTGCTAAAGGGAGCCTTACAGGCTGAAACAAAAGGATAATAGATGGTAATTCAAAGCCACACAAAGTGATCACACCAGTGATCTTTATATCTTTGTGTGTCTTTGAGTTATGTAAATATAAGTCTTTTATTTATACAGGTAAATATAAATGCTAGTAGTATTGTATTTTGGTATATAAG
1 AAAGGACCACAGAAACCCCTCCCTCCAAGAAAGTCTTTTGTTTATTTGTTTTACAAAGCTCAGTGATGTTAAGGCCCTAAGTGTTGTCAGTTTTCATAGTTCAGGACAAAAAAGAAGAAAATACAATGTATTGTAATCTTATTGTGCTATTGTTCTTTTGTGCTTTTGTTCAAAGACAAAACAGAAAAAAAGGTCAACTTATCTTCTCTTTATTGAGCACCTACTGCATACACAAATATTGCATCTTCTGCAAAAACACATCCAAACAGACCTGACTAATGCTACAACAAACATAATAAA
0.1606170406942387 AAATCCTGGAAACACATTGATACAGAACCTCTTTAAAGCATAAATCACACAGGACTTATAAAACAAAAATATAAGTTAAGAAGCAAAAACAATAAACAAAAAAACCTAATTACACAAGCAACAAAGAGCACAATGAATGCAATGGTACCTCACACTTCAATAGTAACATTGAACATGAATGGCCTAAATATTCCACTTAAAAGATACAGAACCACAGAACAGATGGACTCACCAACCAAATATCTGCTCCCTTCAGGACACTCACCTAACACATAAGAACTCACATAAACTTAAAGTAAA
1 CAATCAGTTAGTGATTCAGCAAATATTTATTGAGCACCAACCATTTGCCAGACACCATTCTGAGTGCTGGAGACAAAGCAGTGGGCAAACCCATCAAACTTGCAATGGAATACAGGAGATGAACAATACGATGAGAACAATCAGATAGACAACATAATGTTAGATGGTTGTGCTTCCCGTGAAAGGGAATAAAAGAGGGCAAAGAAAGAGTGCCTGGCACTGTTTCTATTAGACAATATTGTCTTTGAGGCTCCATGGCTTGCAACATTTAAGCAGACATACGAATGAAGATCTGCATGT
0.929593118256318 ACCCACATATTACTGTAGAGCATTTGTTTACGGCTTTAACAAGAGTGGCTATTATCATCACTTATTTGCAATAATGTACTACCTGTACAGTGTAATAAGAAAATAAGAAAATGTATAAGGATATCAAAGGAAAAAAAAGAACTGCCATTGTTTGCAGACAATAGTAGTATTGACTACATGGAAACAATGACGTCCACAGAGACTCTTAGAACCAAGTTCAATAATGTGGCAAAGTAGATAAATATTATTAAAAATCAATTATATCACTACAGATCTACAACATAATTATTTAAAATTTTA
1 TTGTTGTTGTTTGTCTATTCTGGACATTTCATATAATCACATAGTATTTGTCCTTTTGAGATTGGCTTCCTTCACTTAGCATAATGTCCTCAAGGTTCATCCATATGGTAATATGTATCAGCACTTATATTCCTTTTTATTTTGCATTGTTCATTGTAACAATTGTCCATTGAATGGATATACAACATTTTGTTTATACAGTGATCAGTTGATGGACATTTGGGTTGTTTCCACTTCTGGCTACTATGAATAATACTGCTATGAACATTTATGTACAAGTTTTTATGTGGATGTATATTT
1 TTCAATATCATGCATTTTTTTTGTCTGAGCTTTCACTGTGTCCCCAGAACTGTGCTTGGTGCTAACAGTGGCCCCACAGAGTACGGCTTTATATTCAAGGAGATGACAATCTTGTTGGAGGAAAAACCTTATACATAGAACAATTAAGGAACAATGCAAGGGAAACACACATTGCAAGTTTTGATTGTACCTATTTTATGGCTATGGTATAAAACAAAGCACCTGTTGTTCCTGAGAGTGAAGGGATAAGACAATAACTACAAAAAGGTGAAATGAGTTAATTCAAAAGGGAACATTGAG
1 AAAGCTGCGAGTTTGAGGTGGCACACATAGATTTTTCTTTGCTAAACAAAAAGCAATCTTAAAAACTTTCCTTTGATCGGGATAAGAAGCATTCATGATAATGCCTGCATGGTACCTGGCATGCAGTAAATGTATGTTATTGTTACTATTGTGCAGCAATGAAAAGGGAGGTGCACAGGGACAGTGTGTACCAAACTTTAAGCAAGTGATGAAGCAAACCACACCACCCTGTTACTTTGTAATTCCCATAATTTTACTTTCATCAGTTTGTCATCCTATTAGATAAAGGCCCTGATAAAA
1 CATTCTTGAAAGGTAGTTTCTCTGTGTGTAGAATTCTGTTTTCTCATGATATTGAAGACATTATTCCAGTACTTTGACTGCTAGTATTGCTGTTGAAAAGTCTTAATTGCCCTTCCTTTGTAAGTAATAACCCTTTTATTTGGCTGTGTTAAGCCTTTTTTTTTCCTTCCCATTTAGTGTTTTGCAGTTTTGTATAATGTATTGAGGGCGTTATTTTTTTCATTCCATCATTTTATTTTTTGTAATCCCACTTGGGATTCTTTGGGCTTCCTGGATCTGAGGATAATAATAATGTCTTTG
0.882768796150134 AATTACAGCCAAACAGAAAAGGAGATTATAGGTTGAAGTAGCTAGAATATTTTACAATCTGGATTCTTGATGTAGTATAGCATAGAAACGTATGAACTCACAGATTACTGTCCTTTATATAGTCTTTGTTACAACTTCTCAATTCTGCCATTGTAGCACAAAAGCAACCATAGACAATATGTAACTGAATGAGCGTGGCTATTCCACTAAGTTTACTTATGGGCACTGAAACTTGAATTTCATGTAATTTGTATATGTCATAAAATACTCTTGATTTTTTTTTCACGCATTTAAAAATGT
1 ATTGTAGCCTTTTTTGTCTAAAATAAGTATAGCTACTTCTGCTCCTTTTTGGCTTCTAGTTGCATATAATACCTTTTCTCATCCCTTCACTATCAATCTACTTGTGTTTTTATAACTGAAGTGAGTATTCTTTAGGCAGTAAATAGTTGGGTCTTGTTTCTTTATTTATTCAGCCATTCTATGCCTTTTCATTGGAGCATTGAGTCCATTTACATTTAGTGTTACTATTGATAAGTAATGACTTACTACTGTCATTTGTTGTTTGTTTTCTGGTTGTTTTGTATCTCATTTCTTTTTGTC
1 CCTTTGTACTCTCAGGCAATCGGATGTATTTAAGCCAAAGATAATTCAAGACAAAAGTAATCAGGGTTCCTCCAACATCGCTTTTTATGTGACATAGAGCTTATCATTGTTTAAAGCATCGAACTGCTTAGGCATTCTTTGTTCTCTTTTATTGCCTTCATTTCATTGTCTGAATAGCTTTTGTAGTATGATGTTAACTATCACTGTTTGGACTGATTGAATAGTTTATTTATTTTGATAACCATCAGGTGAAAGCAAAAGTCATTTCATGGCAATTTCCTGTTACTTCAATGAGACACT
1 AATATAAATATCTCTGCACTCAAGAAACATTTCTAATTACTCATTCATTCATTGTTCTTTTAAATAATTCACTGGGTGCTTGCAACATTGAGAATTCCATCCATTCTTTGCAAATATTCTCACAAAGGCATTTTCCAATATTGATGAAAGATCCATTGTGTGCTGAGGAATGTGAAGTATCACCAGCTTTAATATGAATATAAGCCCGAAGATGTTGGTTTGTTGTTACTGCTCCTGTAATTCCTTTCTTGATTCCAGAGGTATTAGGTACTGTTGATTAAAAATACTTATGTTTTTCAA
0.6769748249753202 ATTCAGCTGTGCCCTCCACTATTTCCTCATTTTGTTGAATGCCTTTGTCAGCTTGGAGGAAAGAAAATAACACAGTAGGGGACAGGGCAAGAGTCACTGTATTATAAGACATTATTGCCTCTGGAAACAATGTTCTCCATTGTAGTTCAATGAGCTAATAAGCAATGCATTATTTTGTTAAAAGGCAGTTGTTACTATCATCACATCAAAACATCTTATAACAGTAACTAAGCTATTGCTCTGACACTTTTGTATATAAAGAAAAAATTTGTTCAAAAAATCATATTTTGTCATGGGTTC
1 GATATACAATGGTGAGCCCGTAAGATTATAACACCATATATTTATTGTTCCCTTTCAATGTTTAGATGTATTTAGATACACAAATACCATTGTGTATCTGTATCTTTGTAATCTGTACCAGACAGTACAATAACATGCTATTCAGGCTTGAACCACAGAAACAATGGGCTATACCATATAGCTTAGGTGTGTCATAGACTATACCATCTAGATTTGTGTAAATATACTCTATGATGTTCACACAATGACAAAATCACCTAACAATGCATTTCTTAGGACGTATCCCTATCATTGATTGAC
1 CTTTTCAAAAGATTCTTTGTTTAATATCTCTGGAACTTTTGTTTCATTTTTTAAAGTCTTCTACCTCAGTTGCTAATGGACAAGGTTTCCCTTTGTCTTTGGCTAGATATTTCTTTCTTAGAGACAAAGAGAAACAATGGTGCTTTTATCTATTTCTACTGGGGATGAATAGGGCCTGGTTATCTAAAATCCATGCCTATGACCAAGCAGCAAGAGGCAATGTGATTATAGCAAAGAGATGAACAAAAACACAGCAAGAATAATGCAGAATTAAAAATATTTTAAGTTATTAGCAATTTT
0.4371643189980538 GGCCTACGAAAAGGTTCCAAACCAAAGCCTTACAATGAAATAAAAAAGTGGGGAAGGGAAAAATGGAAGGAATAGAACAGAGTATAACAGACGTGTATGACACATAATTGAAGTCTGAGAAGGAGATAGAGAAAATGGAACAGGAACAATACTGGCAACAAACAATTGCAGAATATCATCTGATTCTTCTCCTTTGTTGTTTATGTTGTTCAATGTGTGAATTACATTACTTTTTTAATGTTAAAACAGCATTGTGTTCTTAGAATAGACCCCATTGCAGTAGATCAGCAACTCTCCAGT
1 CTTCAGATTTTACTTTTGTGGTCATAGCCTTCAGTCATTATTTCAAAAGAATATGTCCTCATAAGTGACAGTGATCTTTTCCCATTACTTTTGGAGTAATCCCAGAACCTGATGTTTTGTTGTTTACCTCAGAGGGTTTACAAAAGGCTATTGTTCTGCAACATAATGTGCTATTATGTTATACTGTGGCCGTGACACAATTTTGCATTGCAGAATAGACTCCAAAGGTTTATTTTGCATGTTCATACTGTCGTTAGAGAAGGTACAAAAGTTGGATTCACAAGCCCTGTGTGAAATAAA
1 AATGGCTTTTTCCACCCCTTTACTTTATGTGAGTTTATGTGAGTCATTATGTGTTAGGTGAGTCTCCTGAAAGTAGCAAATGGTTGGTTGGTGAGTTCTTACCCATTCAGTGGTTCTGCATCTTCTAATGGAGCATTTAGGCCATTTACATCCAATGTTAGTATTGAAATGGGAGGTACAATTGCATTCATCATGCTCTTTGTTGCCTATATGCTTTGGTGTTTTTGTTTTGTTTTTGCTTTTTAACTTGTATTTTTGTTTTATAGGTCCTGTGAGATTTATGCTTTAAAGAGGTTCTGT
0.8240667004803299 ATTAGGGCTATATATCAATTAGGAATGTGCTCATTCACAAGTAACAAAAACAGCCAACTAACCATGGCTTCTACAAATAAGAGTTTGTCTCCACAAGCAGCAGTACGTTGCCTTTGATTCTATTTCTCAACAATGCCATCAATTCTCAAGGTTCTTTCCAGCTTCCCATTCTACTGTCCTTTGTACAATGACCTTTGTCCTCATGCTTGTCATCTCATAGTCACAAAAGAGTTGCTATAGTTCTAAACATTAAGTCCGGTATCAAAATTGGAACAAAGGTGAAAAGGAGAGTGCCAGATG
0.7085053554162731 GATTTTACAGATTACAAAGATAGTGATGGAATTCAAAATCTTCTATCTCTAATATGTGTCATAGATGTCACACTGGCTTCCTGTGTAGTTTTCTCTGAAGAATATCTGGGCTTTACTTCGAATGTGAAGACATACAATACAACAACAATGATCATTGATACTCATTACAACTTTGATTGTCTACAGTAGACATAAGCAAAGAATGATAGTATGGCAGTGTAAGCACTTGCATTAAAGTAGCTATACAACATGTAGATAGAAAAAAGTGCTTTTAAGACACAAAAATACAAGATTACTCAC
0.8586013904195263 CTGAGAATTTATCCAACAGATATAAAAGCATCAGTCCAAAATATACATTTCTAAAATATTTAGTATAAAAATATTTGAGTAGCAAAACATTGTGAAGGAAATAAACACCAATTAGTAGGGGAATGGTTGAATAAGCTGTGTGATTCATTGACTACAATGAAGCCATTAAAAGGACAGAATTCCATTTATACCAAGTAAATTGAAGAGATTTTTCACAATGTATTTTCAAGTAAGAAAAACAATCTGCAGGAAAGTATATACAATTTAGTCACATTATTATGAAATAAATGAAAATGTAAA
1 AGTCTTTTATTGCTTCTGGCAGAGAGCAAGAAATAGTTATCCTATAGAAGGTAAAGAGTTTTCTAATAGTTTAGCACTAGTTCTGGAATACAAGAGTATTTCAAAGCTAAACCTGCTATAACAATGCAAGAATAATAGCCAATTTGAGTCAGACACAATGCTAAGCACTTTACGTATCCGTAACTTCTCATCTTTACAATAATCCTCCAAAATAGATGCTATTATCATTAGTTGCTTCTCACAAAGCTTAAAATATTTATTTGACCCTTTATAGAAAAAGTTTACTCATCCCGCCTCTAA
0.778113443589409 AAGAACTGCTAAAAGTAGTTATAAATCTTGAAACAAAACCTTGAAATACACAAAAATAGAACCTCCTTAAAGCATAAATCTCATGGGGACCATACAATAACACAATGAAAAAACAAGGTATTCAGGCAACAACCAGCACAATGAGCAGAATAGTACCTCAAATCTCAATACTAACATTGAATGTAAATGGCTGAAATGCTCCTCTTAAAAGATACAGAATGGCAGAATGGATAATAATTCACCAACCAAGTATCTGCTGTCTTCAAGAGACTCACCTAACACATAAGGACTCACATAAAC
1 CATGGTGGAAATGAAAAAAGTCAAACACAAGAAAATCTTGAAAGCTGCAAGAGAAAAATGACATTACTTACAAGGGAACTTCCATAAGATTAATAGCTGACTTCTCAGCAGAAATAATAGAGGACAAAGGCAATGCAATCACACAGTGTTCAAAACCAACAAAAGTCCTTGTTAACCAAGAATCCTATGTCCAGAAAAGCTATCTTTCAAAAATAAAGGTGAAATAAAGACATACCTAAATAAACAAAAACTGAGGGAATTCATTGTTAGCAGACATGCCTTATAAGAAACACTAAGGGA
1 TCTTCATATATCAGGGAAAAGGTGGGTAAATATGTTGGTGAATCTATGCCACACCTGGCTTACTAGTGTGGTAGAACAAATGCCTCGCTTAGCAATAGTTAGCGACTTGGGTTTTAGTCGCACATTTAATGTACAGGAAACAAAAGCATGGATCCATACAAAGTGAACAATTGGATTCTAGACAGCTCAATTGCTACATCATCTTCTAAAGCTTGCACTCTCACTGGAAAAAAGAATTAGAGAAAAAGTATCTGCTAACAGAGAAAAAGAAACATGACAAAAAAAACCAAAACAAACAAA
1 TTTCGCTTACCAAAACACGCCTGCATTTTCTGGCAGGAGAACGTCTAGATTTCACAAGCAAACCTGCCCTGGCAAAGCCCATTCTTGCCAAATGAGCTGAGTGGTGGGGACTGGGAACAATGCTGGACAAGAAATCTATAGAATTCCATTGTTCTAACTAAAATGGTTAGATTTTTTAATAAACAAATGCTTTTCAATGTATTGTCTGCTTTCCAGAGACCTAATCATTGTTTGTGAGAATTTTATCCTGTTTTACACTTATTTTTGGGGAAAAGATGTATTTATTTCTTTTTGCAATCA
1 GTTCAAAATATTCAATGATAATAAACTACATAACCTATGTTACTTTTGTGTGGCAAAAGATTTTAGTAGTTCTGGGAAATCAATGGCCATAGAAATTACGCTTAGAACATGTAGCACTTGACAATAAAAGTATTGCTACTGACAATAAAATGTATTGTTGCTGACAATAAATGGCATTGTTACTGATAGATATGACAGAAAGTTTGTTAAAGTGTATCAAGATATACTGGACTTATTCAACTGTTAGTCATTTCTGCCAAACCACTTTAGAGGTAGAGCTATTTTTCTCTTGAATCCTCA
0.464515483521644 CCTAACAGTCCCCTTTCTCTCTTGCCTCTTCTTAGTTCATTCTTTGAATATAATTACAAATGTGGGGGATCCCTATGGGTTTTAAATAGAAGAATGACGATACAATTTGTGATTGTTCTGAAATGATCATTCTGCAAGATGTGCAAAGAATGGCTCCTTACCATTACTACAATGACTGGCATGCTGTGGCCTCTGTCTACCTTTCTCTTTCATTTCGTTTCAGTCTCTTTCTCACCATGGTTTAGTTATATTTGTCTTCTTTCAGTTTTGTTCTTTCTCTATGCCAACCCCTTTCCTGCC
1 TATACATATGTATATGAATACACATATGTATACATGTGTACATGTGAATACACTTATGTATACATGTGTACATGTGAATACACATATGCATGCATGTGTACTTGTGAATACACATATGCATGCATGTGTACATATGAATATACACATATGCATGCATGTGTACATATGAATACACATATGCATGCATTGTACATATGAATACACATATATGTATGCATGTGTACATATGAATACACATATATGTATGCATATGCGTGTATATGAATATACATATATGTATGCATATGCGTGTATATGAAT
0.7246825556389697 AAACATAGACACATAGGATAATAAATTACCTTCCTCATTGTTTCCTTAAGTAATACTGAAAACTACAAAGGTATTTAAGGCAGGGATTCATCTTTAAAGCACGTTACAAACCTAAGCTAATTTGCCATTGTAGTTCTGCAGAATGGCTATTATCCTCTCTTCACAAAGGGTAAGCTGAAAGGTTAAGTGAAGAGCTTAAGGCTACAGAATAAGTTAATACTCTTTCTCAGAGTAGATCACAGAAATGCCAGGTTCCTGCCTTTAAGCTCCAATTAGAAGATCACATTCATAAAAATGACC
0.2896967796595633 TATTATTGTTATATTAGAACATATTTTTGTCATCTTTCTTAATATTTTCCAGCCATTATACTTACTTTGGCTTTTTCTCTTTAATTCTTCCTCCTTTCCTTTATTACTTTAGAAGTGCTATGCCATTATCCCATTATCTTCTTGCATTCAGTGTTGCTGTTGAGAAGTCTGATGTTATTCTGATGTTTATTCTCCTGTGGTTGAGCTGTTTTTTCTAAAAGTATTAGTAATTGTTCTTGCTTTTCATGTCTTTAAATTTTACTATATTTAGGTGTCAATTTTTCCTAATCTCTTACATTT
0.787768095707637 CCAAAACTATTTTGAAAAGAAAGAACTAAGTTGAAGGGCTCAAATTTCCTTACTTCAAAACTTACAATAAAGCTACAATAATCAATACAGTGTGGTATTGTTGAAAGAATAAACACATAAATCAATGGGACAGAATACTCAGAATAGACCACACATACATGCTCAACTGATTTTCAACAAAGGTACAAACACAATTCAATAAGAGAAGGATAATCTTTTCATTGTGGTGCTAGCACTATTGGACATTCATATGCACAACAGAATCTCTATCTATACCTTACATCATGTATAAAAATTAAC
1 TCTTTTAAAACAAAATTCTTGATTAGTAATGAAAATATTCAAGTCTATCAATTTGATTTAAAAATAGTTCTGTATTTTGTGGTCCTTTATGCACATTGTACAAAACTCAAAGCATACAAAAGGGCTTACAGATAATAGTGAATTTTCTTCATTCTCCTGCCTTAGTCTTCTTGTTCCTCACCAGGAGGTAACCACAATTATGATGTTCTTGTGTTTCCTTCCAGAGGTATTCTAAGTGGATTTGGCTATTGAGTACAGCTTTGTCAGAACTATATATATTTTTATTTAATTATTACTTTC
1 TCAAATTCCAGTTTTCTTTCCCTTCCAGCACTCAGGTTTTGTATTAAGAAATAAAAGCTGTTCTTCATCTAAATTCAGCAGTCATTGAAAGGGAAATATGCTGCCTCAGAAATCATACACAATGTGCTTTATAGTCACTTCTACATGTTCAGAATCATCCATTCTTCTGATTTATGCTTGATATTGTTCTTTTCCATTACTATGGACTACTATGGATAATTGTGTGTTGCCTAAATTTTTAAAAACCAGTAACAACTTCATCAAATGTGTTTTTACAGTTTTCCCAAAATATTGATTGTA
1 CTGGAGGAAATTATACTACCTGGTTTTAAGACATTATAATGCTAAATTAACAAAGTGTAATACTGGCAAAGGGAAAGCTAAGTAAATCAGTGGAACAAAACAGGCCCAAAATAGACCCTCACAAATAAAGACAATTGATTTTTAACAAAGGTGCAAAAGCAATTCAATGGAGAGAAGACAGTCTTTTCAACAAATAGTGACGGAACAACTGGACATCCATATGCAAAAAAGTAAACCTTCACACCTTATACAATTAACTCAAATGGATCACAGATCTAAATGGAACACTTTTATAAAACA
1 CAAGCTGGTTGATCAGATGAAATTCCCTTTCCTTCTTTTTTCCTTCAATAGTTTTAAAGAGAATGTTTAAGTACAAGCCTGGCTGATCAAGAACAATGGCTATCATTTATTAATCACCTACTGAGTGTTAGGCATTGTACCAAGTACTTTATGTAATCTCATTTAATCATTATAATAGCAATGAATAGGCATTATCTTTCCCACTTTACAAATAAGGAAGCTATGCCACACATAACTTTACACAACTTGTCCAAGGCCACATATTACTAAGTAGCAAAATCACAATTTTATGATTCAGTT
1 TAACAAGACAACTCAATGAAAAATGGGCAAAAGATTTTGTCTTTATAAAAGAAGATATATATGAAAGGCCAATAAGGATCTGAAAAGATGCTCAATGTCATCAGTAATCAAGGAGACACAAATTAAAAGCACAGACAGACCATATGACACACAGGTAAGAATGGCCACAATTTAAAAGACGGACAATACCAATTGTTGACATGGATTCAGAGCAAGTGGAACTCTCAGACACTGCTGGAGTGAATGTAAAATGGAACCTCTTGGAAACTGTTTTCCATTTTCTTACAGAGTTACCATACA
0.9808028457344129 AAGGATAAAGACTTTTAAAAAGCTCTAGACAATATACTCAAATGGTGAAGATATCAACTCAATGTATTCTCATACCCCAGCAAAACAAAAAAAGCAAAAAAAAACTGGACATGGCACAATGATACAATAGGAACAAAAAGTAGTATTCCACTCATTCAGCAAGGAAATAATACAGAGCATCTCTCTATCATATTCAACTACAAAAATCCTTTCACTTGATGGCTAGCATCTTTATGACTGCTTAGTCTGTATTTAAGTAGCCTTAAAAAGAGATTTTGTGCTCTTTCTCTACCCTCATGG
0.9829058025812892 CTCGATTTTTTTTGCATATGGATGCCAAATTGTTCCAGTATCATTTTTGAATAGAATATGCTTTCTCTATTGAATTGCCTTTGCACTTTTGTCAAAGATAAGTTGACTATATTTGTGTGGGTCTATTCTATTCCATTGATCTATTTGTCTATTCTTTCACCAATACCAATTGTCTTGATTACTATAGCTTTATAGTCAGTCTGGAAGTTGGGTAGTGTCAGTCTTCTGACTTTGTTCTTCTTCAGTATTATGTTGACTCTTCTGAGGGTTTTGAATTTTCATGTAAGCTTTGATCAATTT
1 CAATTGTAGTCATTGCCCCTCAGCCCATACAACATGGGGGATCTGGATGGAAATGAAACGCAGACTTGGCTCATCAGAGGGCAGCTTGGCTTCACTTGTATGCCACAAACATTGTCACCTCATAACACTGACAGTAGTCACTGATGAGCACATTTGAACCCATTCCCAAAAGTGCATTGCCTCCACACCACATGAATTAGAGCCATTTGTGTTATTTTGCTTATGTGTTCTTTTTCTTTTCTCTGTTGTGTATTCAGATTCCCATATTAGTTTTCCTTAATCTAAGACTTACATTAGATG
1 CTTATTTTTTTCCCCACTTTTCTTCATTCTGCTCCTTCCTTTGAGGCAGTGTTTACTTGTTCTTTATAGAGTTAACATTTGGTGCAATACAACTAGATTGTTAGAAACTTTTAAAAACCCTACTCAGTATTGTTATTAGCATTGTTTTGTCCATTACCAACCATTCACCTGTTTCCTTTCCTAGGATAATGTTAACTGTGCTTTATTAGATGCTCTCAGATATTTACCAATGACATTTTTGTAAATGGAATATTGTTTACTCTTAATCCTAAAGTTTACTCTTAATCCTTAATCCTTTGG
1 TGTCTATCTTCCTATATTAGAACATAAGTTCCAGGAAAGCAGGAACCTTGTCTCTCTTGTTCACTGGGTGTATCCTCTGCATATAGAACAGTGCCTGGCACATAATAGGTGCTGAGTAAGTATTTGTTGAATGAATGAATGAATGAATGATGCACTATGAAGTAGAGGAATGACGTAACAATGGCAAGATGGTAACACAATTATAGGAGATACCCACAGTTTTTATGTTCCAACTGTCCTCATTAGCCTGGAGTGAATCACTTCATTGATTTAACTCCCAGCCCACTAACCTAATCTTTT
1 ACTATACACTAAAGCTCACACTATGACCTAACAATGCTAGTAACAGATAAATAACCCAAATAAATGCATTTATATGTTCATAGCAACACTATTCAAACTAGCCCAAACCAGAAATGATCAAATGACAATCAACAGTGAAATGATAAATTGTACATGCACACAATGGAAAGTATACAGCAATAAAAAGGAATAATATAGAACAAAGCACAATAAACATGAATCTCACTAATATAGGGTTGAGTGAAAGAGGCTAGACACAAAAGAGTAAATACTGTAACCTTCCATTTATACAAAGCAGAA
1 GCCCATTCTTGCAATTAATCTTATATTGAATTTTATGGTTTGATTTTATTTAAAAACAATTGCTGACACTGCTAAGTCTTATAGAAATTTTGAATCTGAAGAATAGGTTCTTTTCCAGTGAATTACAACTGTGTTTGAGAAGAAGAATGAGGCGTGAAAGAGTAGGGCCCTACATAGTATTGGGAACAATGGAGAAGAATTAGCTTATGGAAAGAAAAATACTTTTTTTTTCAGACTAGGCTAATAGGTTTATAAAAGACTGATATTCACACTCTTATTCTTCAGTTATAATGTCATAAT
0.7959649694520737 TTATTAGGCTCAGAAAAGCATTTAAATTGTAATAGCAGTCAAGTCTCACTCCCCCTTGAGTGAAATAATTACCTCTTGAAGTCGCCTGCTATGTAGGCTTTAGACTAACTGACAGCAAGTAGCCATACAATGCCATACACACTATCGTTGAACAATGGATAGACAATTGGTTAATACCAATGTCATTTTGTAAACCAATGAGAATTGCTGATGAATAACTTTGGTAATCACCAACTCTCCTGATTCATCCTTTGTTTTCTTTAAAAACTTGAGTCTCTCGTTTGTTCTCTGGAGCACTCC
1 GAATAACTCATTATAATGTCATATATTCTCCTTTACTAGAGTCTTACTCATTGCCTACTAATGATTCCTTTGACAGAACAGAAACAGTATGGCACACTGGAATACACTCAGGCCTGGAAGCCAGCAGACCTTGAACAAAGCATTCATAAATTGCTTTGTGATCTTGAACAAAGCAACTGACTATTCTACGTTTCATTTTTCTTATGTGCTAGAATAAGGAGGTCAGATTAGATGATTTTCAAGATAGCTTTTAGTCCTTGTCATTCATGATTCTAAGATCCTAAACAGTGTTCAATAAAT
0.7512400766864629 ATAATACTTTTTAATTATACATAGTTTTGATTTCCTATTGACCCTAGGATTTCATATGAATATTAAAAAAAAAAACCTGTCATTTTGGGTTTTGTTTTGTTGTTGCTATTGTTTCTGTTATTGTTATTTTGCTATTTTATTGTACTTGGGACAAAGATTATTGTTGGCATTGTGTTTGCTTTCTGTGTGTTTTGTAGGTTTCTTTGTGCCTTATTCTGAGATTAGTCTTTATAAATATTCCAAAAGCTGCTTTACAAGAAGGTGATCTCTTAGAACATAAGGCTTAATAAAAAGAAATTG
1 TTGCTATTATTGTGAAAACTGGCTCTAGTCTAGTCTTATCTTGCAAAATCTTCTCACATTATTCAACATTATACAGGGATTTCTCTCTGTTTTGCTCACTGTTTAATCTCCCACTACTTGGGTCATAGAAAGCACTCAATAAAACTATTGAATGAATGAATGCATAACAAAACAATAGAAGCTATTATTGAGTGCATATTAGCAAAATACTGGTTAAATTCCCACATAGACTTTCTCATTTATCTTTACAAATACAAGGAACTTTATATCACTTAGAAAAATGATCCCTATACAAAAAAA
1 CAATTAGAAAATGGACAGTGAAATTGAATGGACATTTATCCAAAGAAAATATACAAATGGCCAATAAAAACTTGCAAAGATTCCTGGCATCATTAGTCATCAGGAAAATGAAAATCAAAACAATGAGATACCACTTTATATCCAGTACAATAGATATAAACAGACAATAGCAAGCATTGATGAGGTTGCAGAAGTTGGAACCTTGATACATTGCTGCTAGTAGTGTAAAATAGGGCAGTCACTTTGGAAGACAGTCTAAAAGTTTCTCAAGTGATTAAACAGAGTTACAATATTACTCTG
1 AGGGATTTGGATTAAAACTCATTATTATCTTTCTGTTAATACTCTCCCCTGGACCAATCAGTGGTCATATGGTGTTTACAGACCCTGAACACTGAACTGACTTGAATGGCCTTTGTATTACAATACAATCAGATTATGTCTAATCTAAATGCTGTGTGTCCTTTATAGGACAGATGAATCCTAATCCCCCATTTACAAAAGCAAAGCCAGTCTAGTTCCCAATGGCTATCTATTCACCATTTCCTGTTTTGTTTTGTTTTTCAATTTTTGAGTGACAGATATCAAAATAAATTTTAAATT
1 ACAAATTGGATAATTTATAATATAAAATCATTTATTAACCTCTATTATTTATGTAAGTCGATTATATTTGCCTTGAGAACTGGGCATCTTTTCTTTCTCAGTATAAGGGCCTAATGCCATGTACATACACACAATATATCTTGCTGAATTTGTTGCATTTGTTTGAGTAGAATGAGACATTGTATAGCTTTCATCTAGTTCACAAATGATGATAATGCTAGCTAAAAAGAGTGAACAAGATTTTGAGAATCTGTTTGTGAAAAGAGAGAGATTGAAAGAAAATGATTAGCCAGTTAAGCC
0.7354335907267154 AGCCACTGCACTGGGTCCTGATAGGCTTCTTTTAAAATTTTTTTCAATCTAATGGGTGTAAAATAATTTCTGTATTGTTTAAATTTGCATTTTCCTGATCAATGAAGTAGAACGTTTTTGTCCTTTTAGCTATTCGTGTTTTCTTGTCTTTTAACTTCCATTGTACCTTTTGTTCCTTTGTTAATTGACCTTTGTGTTTTTCTTAATAATTTATAGGATAGAACTTGTTTCTGTATTTCAGATACTAATCTTTTATGTTATATATGTTTCTTTTTTAAAGATATCATCAATGATGTTTTT
0.06130636583492147 TAAAAAGTATAGATAGCCTTAAAAGGGTCAGGTAAATTAATAAATCTATAAATAGTAATTGAGAAAAACTAGTATAATTGTGGGAGGAGGCAAAGAAGAAAAACAAGGGAGTATAGATTAGGATGATATCATCAATATAGCCGTATTGTCCCATAGAATATTCTTTGTTGTTATTGTCAATGACAGACTATTGCGTGAATTAACAATCAGAATTAATCATATAGGAATTTCCTGTATTATATTACTAAAGTTTTATTCTTATTGCTATCATGTTTGATTTCTAGTCTCTCGCAATTTTTT
1 AACATTATAGTGATTACAATTGCAGTATAACTCTTTAATAGTCATAAGAGACAAAAAGGTTGATATTTATATTATACATTAGACTTTCACTGAATAAAAAAGGACAATGTATAAAGCATCCCATTCATACGATTGGTTCCCATCCCATTCATGGGATCATGGGGTTCCCATTCACAGATAAGTTCCACTGACTGGCCAGGAAAATGCATTAATATAAGCTTCCCTGGTTCCTTTTAATTGTATATAGTCCAATGTGAAAATCACTTTAGAGGTAGAAAGATATTTAATCCACATCAAGAA
1 CTTTGGATATTTTGTTATCCATGAATTCTTTGGGTGTTCTTAAAAAAGGTATATATGTTTCACAGTTCATGGAATAGCAAGATGTTTTGACAAATGCAAGGAAAACTTCTTATACAATGGAACAATATGTGAAAGCTATTTTTGAAAGCTTTATTGTGTCATTGTTACTACATTGTTTCCCTACTATAACACAATTTCTCCCAGAACACAATTCAAGGTAAGGTCGACCATTCTTGGTCAATCTAAAAAGTTTTAGCATTTAAGTTGCATAAAGCTCTTTTTATAGGGTACTATCACCTT
1 AGAATTAGAATACAATAGAGTTTATTAAACTTTTCAAATCCTATTGAACTTCAATTGCTCTTTCTGATTGGCCCAAACAGACTCCAGGGCTGTGTCATGCCTTGGGTCATTGTTAATGCAATAATCATGATTGCATTGCAGAAGTGTGTCTGTGTCAGCTCATAACATACCATACACACCGATTTCCACTTGTTGAATATCCAGCATGCCCAGTCTTTGGTTCTAATCAGAAGAACTATTTCCTATTCATATCTAATTGTCTTAATTGCCACTGCTTCCTATTATGCCACATAGTAGATA
0.3563823990969316 AAAACAATTATTACTAGACATAAATAATGAGACAAATGGCAACTCAATAATAGTGGGTTCTACAGTACTCCACTGACAGCACTAGACACGTCATCAAGACAAAGTAAACAAAGAAACAATGAGCTTAAACTATACCCTACAACAAATGGGCTTAATAGATATTTACAAAACAATTGCAGAATACACATTCTTTTCATCAGCACAGGGAACACTTTCCAAGATAGATCATATGATAGACCACAAAACAAGTGTCAATAAATACAAGAAAATCAAAATTATATCAAGTACCATCTCAGTCCA
0.4698785016702087 TTTACAGGTAGCAGTAGGGTGACCTAATACACAGAAAGTGCTGTGCCACATAATGAGGATTCAGTAGATGTGATTAAATGGTTGCTGACATCCCTTCAAGACAATGACTTGTCTTCATAGCTCATCAGTGAGTTCACAGTCTATTGTTCCTTTTTATTTGGCCAGTGTAAAATAGCAGTTATTGCAAGAACAAAGGGATTAAAGCATCTGAAGACCTTTGTTTGAGTTCTGCCACTTTAGTAGTGATACATCTCAGAGATCAACCTCTTTAATGCCTGTCTTTGTTCCCTGGAACAGAGT
1 TAAAGACAAAGAAAAAGTGAAAGTAAAAGGATAGAAAAAGACAAGTCATGCATACAGCAAAAGAAAGCCATACTGATACGAGGCAAACTAGACTTTAAGACAAGAAGTGCTACTAGAGATAATGAGGAATATTTCATGATGATGAAAAGCTGAATTCATCACAATTATGCATTTGTATATGCCTTATATCATGACTGCATGACCCAAAATGAACAGAATCAGTCAAAAATAGACAAATGTATAATCATAGTGAAAGATTTTAATACCACTCTTTCAGTAACTGAGAGAACAAAAAGACAA
0.8325853654879332 ATGCATACACTTAGAAAGAATGTATAATCTTCCATTGTTTGGTGGAAAGTCTGTGTATGTGTGTTGGGTCCATTTGGCTTATAGCATTGTTCAAGTCAGTTGCTATTCTCTTCCTTTTGAGTCTGGATATTATATACATTATTGTAAGTGGGGTATTGAAGTCCCCTACTATCATTGTATTTCTTTCTTCAGGTCTGTCAATATCTGCTTTACAAGTGTTCTGATGTTGGCCACTTATATAATTACTGTATCTTCTTGTTGAAATAACCCTTTTATTATTACATAATGACCTTCTTTGTT
1 AGAGAATATAAAATGGTGCAGCCACTGTGGAAAACAGTTTAGTGGTTCCTCAGTAAGTTAAACATAGAATGACCATGTAATACAGCAATTCTACTCCTGGATATACACTCAAAAGAACTGAAAACAGGTGTTTAAAAGCTTGTATACAAATGTTCAAAGCAGCACTATTCACAATAGACAAAGGTAGAAACAATCCAACTGTCCATCAATAGATGCACAGTTGCAGCTATCTGTGACTATACTAAAAATAACTGAATTATACACTTGAAATGAATGCTGTCATGGTATGTAAATTATATT
1 ATCTACTTCATTTTTCACTTCACTAAAGTGTTTCATTGTATAAATATACCACAACTGATTCATCCCTTCCTTTGGGAAAGGAGACTTTGGGGTCGTTTCTCATTTTTTACCATTATAAATATTGTTAAACAATATGATTGTTCATAAGCATTGTTATAATGAACAATGTGATTGTTAACGATTGCTTATGCATTTGTGCAAAACATTCTACAGGCTGTGTACTTCCTAGAAGTCTCATTTAAAAACTGCTGTTGATTTTTTTCATTTTCTAATAAAAGCAGTATAGCATTATAGAAACTT
0.6230518829160462 AGGGAGTAGTGAATTGTGTTACTCTTTCATTGACTAATTCTTTGTCATTTTGGAAAAATCGGCTACTAATTGGGTCTTCTCTTTAGTGAATTACAGCCATGTCCTTGAATCACGAGTGAACTATATTGAGGCACAATCCATTCATTTATTCTTTGTCTTTGCAATTGAGTTAACAATGTGGTAATTAACACTGATTGTAGAGACACTTAGATAAGATGTGTTACTCAGGGCTCTTCATAAGTTAGACACAATTTAAGTCCTCATCCCTCTGACAATTCTTCTTCATATTCTTTCTTTTCC
0.6560057125284028 AATCACCTTCCTGATTTCTAACACCACAGATTTGTTTAGTTTGTTTTGAGCTACAGTACATATAAACAAAAGCATGTATGCCTTTGTGTATGGCATCACTTCAATATTATGTTTGTGAGATTCTTCCAATTTGTGTGTAATTGAAAATTCTTTGTTCTTATTGCTCTACTGTTCCTTTGTATGAAAAACAACTATCTTTTCTATTGTTGATGGACTTTGGACTGTTTTCAGTTTGGGACTAAAATGTCTAGAATAGTTTTGTTTCCTACAAGTGAACCCTGATTCATTTGTTTTACCTGA
0.8962884379063617 GTTAATGTTGCTATCTCAGGAGTGGCAAAGGTAGAAGAATATCTGCCTATATTTGGACCCACATAGTTCAAACTTCTGTTGTTCAAGAGTGAATTACATGTATATTGGAGTTAAGGGGCAGGATACAGAACCATGAAAAATATTATTTCACTCCACATAAACCTTTTGTGATCATAAATAAAGCCTAATTGATTTGGCTAACAAGGTTAGTGGCAGCATGAAAATTAGCATCTCTGCACCATTCTTCCAGTCTCTATTGTCAAATCATTATAATTTCATTTTTAAAAAGGAATTTTTTAA
1 GTATGTAACCTATGCACATCCTCCTGTATACTTTAGATGATCTCTGGGTTATTTATAATACCTAATACAGTGTAAATGGTTTGTAAGTGGTTATACTGTATTGTTTAGGGAATAATGACAAAAAAAACTGTGTACATGTTCAATACAGATGCAACTATTCATTTCTTTTTCCCAGCTATTTTCAATCTGTGAATGGTTGAATCCACAGATGTAGAACCCACTGATATGAAGGACTGATTGTGTTGGAAAAACAAATAACAATACAACAATAAAAAATGATACAAATAAAAAACCAACATA
1 CTGGGAAATAGTAAAAACAGGATCTCCTTAATAATATTCTACTCATAACTTTTTGCCTCAGTTTTTGACTTCTCTGTAAAATAAAGCCACTAACCTCTCAGGCCTAAAGAATGAAAAGCTGGCGTATCAGAGAAAGAACACAATGGAACAAAGCAGTAATTCAGATTTTGAGTTTGTAAAGCCAATTGAGTATGTGGCATTAATTCCAGTATACAAATAACTGCAACAAAAAGATTGCCAGATCCACAATTCAGTATTGGTTTCTTTTGAAAAATAGTTTTGATTGTTAGAGGGTCATAC
1 ATAACATCCTATGGTGAATGCTTTAATAGCAAAATTCTAAATAAGGAAGATTTCTCATATTTGAGGAAAATAAAGGCACTAATGCTTGTTTGCCCTGTAAATGCTTTTTATCATCTTGCAGGAATGGGAAGATAAAAGGATCAATCACAGGGAAAGGCATGCATTTTTCAGAGCTTTGTCTCTTACTTTTGTTCAGCTTTAGCAAGGGTATTAAAACAGCATCCTATAAACAGCACTTATTCATACTGCTCACAATTTCATATAGCTTTCCCTGATCCTCTATCTGTAAATGCAAGGTCA
1 ATGAACCTTGCTCTTTGAGTGGAGAACTATTTTTTATTCATGCCCTAGACTATTACCAAGCAGAGAGCTTGAAGGCAGTCCATTGTCCAGATATACTAATAAAATCGACATTCATGGCTAGTTTTCCTAATGTGTGGGTATATGTCATTATCCATTCATGGTTTGTCTTTCATGCTTTTCATACACATCAAGCCAAATGTCTGGGACACAAAGATGTCCAATATTTCCTTAATTTCAAGGAGCTCATAATTAAGTGTTACAGGAGAACACATGAACAAATTATTGTGCAGGTTGAATAAA
1 TATTATTAGCCAAATAAAATAATACAGAAAGTCAACTTTAACCTTTCTTCTTGTTTTTTCTAGAGCAGTATAATCTAGTGATGCCATCAGAGTTGTTATTGAGGTCTTTAGCATTGTGCTTTTCTGCTTTCCAGTGATTATCTCCTTTCTTCTCCATTGGTCTTATGAATAAGGTATTTTATTCCTCACATCCAAAGTTAACTCTTCCACCTATGCTCATTTTCAACTGTGTCCTTTGGGGTAGAATTCCTCTAAGAATAGTTTCTTTGCCTTGAAAAAATGTATAGGATTTCCTCCCTT
0.9936567837668828 CAAGTCAACCTCAATAAACAAAACTGGAAGAACTATATTACCAGACAGCAAGACCTATTATAAATTACTCATAAAGTACTTAAGACACACATTATTTATCCTGCTCAACGGTAAATAATAGCCCAATGGAACAAAACAATGTCCAGGCCTACACATGTACAATTAGCTGATTCTCAGCCAAGACTTCTGGCAATTCAGTGGGAGAAGGGATGGCATTTCAATGAGTGGTGCTGCATCAATTGGTTATTCATATGGAAAGAAAACAAGACAATCTTGTCCTCTACCTCACAACATATGCTA
0.6285622690130334 TTGGAGATTATCCTAAGAGCAATTGGAAATCACCAAAAGGGCTTTGAAAATAAAATCAATATAATTATGTTTGGATTTTAAAAATATCACAATGACTGGTGTAGAGAGAATAGAACAATGGTAGGCAAAACAGGAAACAATTACAGCAATTCAACTGAGATATAATGGAGGCAATGATGGCAACAATGACAAAAAGGACTAAATGGTTACTTAGATACGTATAGCAAATATATAGAATTATTAATTCCCTTGGTGAATAAGCAGCTGTGATGAATATGAAACCCAAGTTCTTGGTTGGCT
1 TATAGAAGGCATCTCTGAGCATATGATATTGGGCAGAGACCTGAATTATGACATCCTGTGAAGATCTAGGGAAATTTTCCTATTGTGTTACCATTCGATGCTACTGTATAGAGTCCAGTGATTTTATTCATGGCAGAGACAATTGGTTTGGTGTAAATGAACAACTCCTTATAGAAGGGTTAGTTGGCTCTGTAAATGAGAGAATGGCATTGTTCTAGCAATTGAATGTGTTGTTAGCATAGATGAAAATACTGCTCTATGGAGGGAATATGAGATTATTTTACATTAGTTAGATTTTTC
0.7369212882518145 AGACTATAGATTTAGATTTATTAGATGAAGTAAATTAGTTACATACGTGAATAGATTTGTTCTTGAACTGTTGTTAGAGTAATGTATTCTGGTTCCTTCCAATAACTTAGGTGACATTGGCATGTAACACATACTGGTCTTTCCAGTGATTGTTGTGTATCCACTGTATGTCAGACATTGTTGTGGACCTTTATACTGGGATTTCTGATTATCCTCCTGGAAAGAATTAATAATTACTCCTTTTAAAAGTATCTATTTACTTCTTTTGTGTTTTTTTTTGGACTTATATTTATTTCTTTT
1 TAATAATGCCTTTCAGATAAGTAAAAAGAATGGTGCGTTCTTGTGTTGCCATCTCTGTTTAGCATCAATGAAGCTACAGGCTCAGCAGCATAAAAGCAATTGTCTCTTTAACAGCGAAATCTTATTTGTGCACAGCATTAGCAATAGCCCCAAGGCAACAATGAAGATGTTTTCAAAGTATTGCTTGGGAATTTGTCAGTGATTCTCATTGACATTAATGGGAGTTTTATAGGCAGTTTTACTCCCTTCACTTTGAAATGTGTAAGAGAGAGTTTCTGCAAGTGTTTTGTGCAGTCTTCT
1 GCTACAAATGACATGATTTAATTATTGTCTATGTCTGAATAATATTCCATTGTGTATATATACCACATTTTCTTTATCCATTTATTTGCTGATGAACATTTAGGTCAGTTCCATATCATAGATAGCTATTGTGTATTGTGCTGCAATAAATAGGCAAGTGCAGATACTCCTTTGATATACTGATTTTTTCCCCTTTGGGTAGATAGTAGTGTGACTGCTGGATCAAATGATAATTTTTTTTTTTAGAAATCTTCATACTGTTTTCCATAGTGCCTGTACTAGTTTACATTCAACCAACAG
0.09863072024787774 AAATTAAAACATACTACCATAGAAAATTACTTAACGATGAAGGAAAACAGTAAGGAAGAAAGAAAAAATAGGAGTTACAAAACAACCAGAAACAAACAACAAAATGGCAGTAGTAAGTCCTTGTTTATCAATAATAACATTGAACATAAATGGACTCAGTTCTCCAATTAAAAGCCAAACAATGGTTGAATGGATAAAGAAACAAGACCCACTATATGCTGCCCACAAAAAACTCACTTCATCTATAAAGAGACACATAGACTGAAAGTAAAGGGGTAGAAAAAGATGTTCCATGCAACT
1 TATAAATTGTTCATCAGAACACAGCTGTCCTCATTCATAAGGTCAGCAAATCTACTTCAATTGACTTTAAACCTAAAGGAGACTCATTAAATTTAGAGTCATTGTGGATATCTTTCAAAATAAGAACAATTGCTCATTCAAAATTGTCAAAGAATAAAGCTATTAAGGTCTGTGTAATCAAGTTTGCAGGTCTGCATGTATGAGGCATGAAAAAGATATTCTTAACCCAGAAATAGGACCTTTACAAAGATTACAAAAGAGAATGTGAAAAATTTTAGAAACAACTAGTCTTTTTATGAA
1 TGCCTCTTTCCACCTGACCCTATCTAAGTTAAATAAGCATAACTATATAACTATATAATGCTTTGAGTGTGTGATTGTCATAACTTTGAGTTTTAGGATTATAGAAACAATAAAATATTGTGTGTATGCATTGCGTGTGATGCATTGTGTGTGTATGCATTGTGTGTGTGTGTGACGCATTGTGTGTGTATGCATTGTGTGTGAATGAATCTTACATAGGATATATCCATTGTGATACAGAAAACTAATTTTATAGATTAAAAATTGATTTCAATAATTTGAAATAACTTATAATAATGA
0.8696254915914854 TTGTAAGTCATGTGTCTTGTTTGCCTTTTCATTGGTAACTGTCCCTCACGATTGAGGCTATGAGTTCAATAAAGAGAGATCTTGCTGTCTTTGTTCAGCATTATGTGTGTAGCTCTTGATACATTTATTGGCAGATGACATGCTATAGAGTGCTCATTTATTTCAGAGTCCATTGGTCGACAGTCTTCCTGATTGATGACTGTAGTTTCTGCATAATTATGATTGCCCTTTTCACTCTTGAAAGTATCCCACAATGGCTGATAAATTACATATGCGAACTAGAGTATTTACTATGTGTAT
1 CTGTATTGTGTAGTGTACTCTATTGTAAGTGTACTCTGTATTGTAGGTGTACTCTGTATTGTGTAGTGTATCTGTATTGTAAGTGTACTCTGTATTATAGGTGTACTCTTTATTGTGCAATGTACTCTGTATTGTAAGTGTACTCTGTGTAGTGTACTCGGTATTATAAGTGTACTCTGTATTGTGTAGTGTACTCTGTATTGTGTAGTGTACTCTGTATTGTAAGTGTTCTCTGTATTGTGTAGTGTACTCTGTATTGTAAGTGTACTCTGTATTGTAAGTGTACTCTGTATTGTGTAG
0.8543138661133729 GACTCATTAATGCATTCTATTTATGAAACATATGCTATGATTTTAAAACAGCAGGGGCCATACTTGTCCTTGCTCACTATTGTATCCTGTGTCTTACACTGCATTCAGCTTATAGTTTGTGCCCAGCTAGGGTTTGATAAAGGAACAAATGAATACAATACCTATGACTTAGGCTCTTTTGTACCTTGCCATTGTTCCTTCACATCCACACTCAATGCCAACTCAAGCATTGAGAATGCACAGTGAATCAGTCAGGTATCTCTAATATTTCCATATTTGAATTCTTTGAATACAGTAATA
0.6025967851607988 TAATCAAGGCATGGTCCTTGCACTCAAGTGGCTTATACTCTAGTATAAGACACAAACTTAACAAATAATTACCAAAAAAAGTAAAACAATTATTCTGAAGTTAGAGATGTACCCTTGTAATCTATGTTACAAAACAAAGAGCACCATTACACAGAACACAATGTCCAACAACAAGGAATGGTTAAGCAATTATAACCACTGAATTCAATACTGCAGTGTATGCTTCAGAGTGTTTTGTTGTTGTTGTTGTTTTACAGTATCATATAGAAACTCTTATGCTACAATGTTAGGGGAACAAAA
1 CTTTAGAAAGTAAAAATAATATCTGACAAGACTATTACAAGAATTACATGAGATGTTGTGAACAACGCCCTTCACACAGGGTCTGGTGCTTAGTCATTGGTTGTAAAAGAGAATGTGACATTGATCTATGTCTCCATTAAATGGTGTAGGAAAGAATACATATTGTCCTATGAGTCCATTCAAGTTTTTAATTTTGGTCATTTGGTTTGTTGCTTTCTGGTGAATGCTACCTACCTTCATCAAATCATTATGAAGTTTCCAGAGCAAATTCTCTGTAATGTATTCTAAAGAAAATTGAGA
1 TAGGTCCTGAAATAAAGTAAAATTTGAAAACTGGATAAAGGAAAGATAAATGACATAAATATTTAAATGCAGGGTTTGCAAGCTGTTAGAATATTCTTTTCCTGCCACCTTCACTTTGTGACAGTACTCATTCTACCTTGCATCATCAGCAATAATAGTTGTATTCTTCTTTTGATCCTGTATTTATGGAGGTGGCAATACTACATTTTGTTTTCCTCCCACCAAATAGCATGAGAACAATTACATAAACCATTTGTATTAAGCTTGAAGAATTGAATTGCATTGAAACAATGCAATTGT
1 CAAGAGTACAGACTTTAGCATCCTAAACATCTAAATCCGACTCCTGAGATTTACTGGCTACCTCCAAGTAAACTCAACTACAACAATTACAAAAGGTTAGATTCTATAAGTGTCCTTTCTTTCATCTGTATAATGGGATAAGAATAGCAGCTGCCTTACAGACATTCTTCTTCTTTTTCTCAGAGCCTACACACTCTCTTACATCTTCTCTCTGAATTTCTATTCCTTTATTCCCTCTGCATTCTAGAAAAAAGAAAATGGGAAGAACGTTCTTACTACACAAATTTCAATAAGAAAAAA
1 TTTTCTGGTCAGTGTATTGAGATTTAATAAGAATATCCAAAAAAAGTTTTAAAATAACTCTTCTAAATTTCTGGAATAAAAGTGTTTTAAGAGCATTAAGTAACTTATTATCCCATGTTATATTAAGCCGTTACAATGCTGGTTTACACAACATTGTTCCCAGTTAAGGTAATAGGGTCATCTGTTTTTTTCATTGCATCTAAATTATATAGTTCCTCCTGCACAACAGTTTGTTTCTCCTTCTGCCCTTAGAAATTCTATACTAAGGGTAAATTATTCATGGACAAAATTTATAGAAAA
0.4131884295288272 AAACCAAACTTCATTATTTCTTACCAAACTTTGGGGTAGTAAAAGTGAATTCTGGACCATCCTTCCCACCTTCATCTGTGTATGCTGCCATTCGTACCATGTACAATGTGTCACTAGTCAAAGAGGACAATGTATATTCTGTGTGGGAAGAATCCACATTCACAGCTGGAAGAAATAAGAACTGTGCTTCATTCAACTATTCAATGCTTTTGCTTATTTGGCCTATATTTGGCATTGTGAAAGTGTTAAAAAAGAAGCGAAGTATTTTTGTTGGAAAACAACTTTTATAATGTTCTGACA
1 TTTTGAAATGTTATATTTTCTTTCTAGATTTTCTAATGTTTACAGGGAAAGGTTATAAAGAGCACTCAGATCAGAGAGTAGTTTTATTTTGCATACATGTATCTTTTGATTGCAGTATAACCATAGATAAGTAAACACTATTGTTCCTGTTCTTATGCCTCTGTTATTAAACACAAATACACACAAATACACACACAAGCACTCTCTCTTACTTACACAAAAAAATGAATTCAGAAATACAGAATACCTGCAACAAGATTTCTGCATGGTATTCATTAACATTACTGACCTTAAAAAGTA
1 CCTACCTCCTGAAAGCTGTGGATGGAGCCAACACCTAAAGGCTCTGCAAGGTGTGTGGCACTTTGAGGGCTAAGGATCAATGTGCTATTGATAACACACAATGTCTTGTGTGTTACTGTTATATCTTACATATTATGTGTTATTGATAACACACAATGTCTTGTGTGTCACTGTTATATCTTACATATTATGTGTTATTGATAACACATAATGTTTTTTCTCGTAAAAGACAATTCCTCATACAGCACGAAGCAAGCAGAGAACTACATAGCCAAGGTACTCTTCTAAAAGCCTGCACAC
1 TAGCTACTCCTCCTTTATCACCACCCACCATGGCTGTTGTAGGGTTTACAATATACATCTCTAACTTATCACAGTCTGTCTTCAAATATATGCTGCTTCCTGTGTAATGTATGAAACTTAACAATAGTGTACTTCCATTTGTCCCCTGGACAAATGTGCTGCTGTTGTCATATAGAGCATATTCATGAAATAGCTTCTTCAATACCCTTTTCTGCTAATTTTATCATCTCTTAAATTTCTGAGTTTGTTTCTGTTGACTCATTTTTCTCAAGGCTACTAGTCATTGTTGCTGGTTTTTCA
0.8082741148860009 TTTTTTAAGAGTTCAAACTTACTTTCATTTCGAGTCAGGGCTACAATAAAATGAAAAGGACGGCTATGATGAAAACAGAAAAAAAAAAGGGGACAATATTGAATGACAGACAAGAAAATAATGCCAGCTTCGTGACAATGGGGCTATCTACTATGCTTATAATGCGTGAATAAGTAAATGATATAATGGCATCAAAACTTACTATAAACAGAGATCAGAGTGTTCTTGAATATGGGCCTACCTATCTGGGAAGTATAAAATTACCTCATTAAAGTGAAAACTCTGCTTTAAACTTTAATT
1 TGAGTTTTTAAACAAGCCTTTTGAAATGAGAAGATAAAGATGAAGATATCCAACCTTGACTATAAACAACTTTCAAATTTTATACTTAATTGGGCAATAAACAATGCTGTCTTATTAAAGCCATATAGTCTTTTCTGCTCTTAAACAATTGGTAGTCTTTTCCTGGAATGTCATTGTCTGCCTAGTGTTGTCAAAGACTTGGGTAATCTTGCTGAAAGAAAGTAAAAGTAGCACTATTAGAAAGGCTCTCCTGAAAAAGAAAAAGAAGTGCTATTTGTGGACAATGTGTGGAATGCCTTT
1 TGTCTCTATGGTACCTCTTCTAGATATTTTATATAAATAGGATAATATAATATGTGACCTTTTGTGTCGGACTACCTCATTCCTTTCTATGGCTGAATAATATTCCATCGTGTGTGTGTATAAAGGAACACAATTTGTTCACCAATTGATGGACATTTGGGCTTTTTCTGCCTTTTGGCTATTGTGAATAGTGCTGCTATGAACACATAGCAATTAATTTTGAAATTCTGTTGAGGATGTGTTATATATTCACAGCTAAGTTTTCAGAATTACTTGTTCACAAAATAAGTTTTCATTTTA
1 GACTGTGGCCTGTATAGTTTTTTGCTTTACTGAGATTATTTTTGTTAACAATGTTTGTAAATGATTCCAGAATGGAGAAAAGAGGGCGTATTCTCTAGGGGACATAAGGTACAACAGGTAAATAATAGGCCTTTTAATTTCATTGACACCCTAATACTTCACTCCCTACCCTCTTTTATTTGCTGAGTGGGAAAATGACAATGAAATGAGTGATTGGTGTTTATGGGTGTTAGCCAAGTGAAAGAATGAGTGTAATTGAACAAACTGATTAAAGGATATATAAACAAAAAGTCAAAATGT
1 TAGTTATTTTTATTTACTATAATACAAACAACATATTCAATTATTAAAATCAATGATATTTGCTGAGGCTTTGTTCATGGCCCTAGCTTATGGTCAATTCTAGTACAATTTCCATGTGCAAGGGAAAAGATGGTTAATACCACCATTAATAGTTTCAATGTTCTACATATGACAATTAGATCAAGCCTGCTAATTGTGATGTATGTATGTCCTATATATGTGCATCCATTGTGATGGCATATTTGTCTGTTTCTTTTAGTTCAAAATAAAATTTTTGGTTTATAGATGTTTGGGCTATTT
1 GGTGAATACATTTTTATTTTGAATTTATTGCACGTCTATTACAATAATAGTACTTGCTATTTATTGCTGTGGTACTGGCACTGCTCTGTGCCTTGGACATATTAACTTATTTAATTCTTATTGACCATATATACAATAGGTGCCATTGTTGCCCATTTTACAGATAAGACAAAGGTAGAGAGAGATGAAGTAACATACCCAGGGTCACATGGCCACTACCCAGAAGAGCTGGAGTAGGAAACTCCATGGTCTGCCCTTTACTACTCAAAAACTGGCTTATATGCCTGGATACCTTAAATC
0.8960079651027154 CCATAAAAACCATTTACATAGTTTCAACCTTTCTGCATAAAACTGTATTATGAGATAGGCAAACAATCTCACAAGATGGTCTGAGACATAAAAACAAAAGACAACCTATCCAGCATCAATGTCCTATTGACAAACTCAATGAAGAATTAAGAATCACACTCCACAATGTGCTGCTCCACCAAGAAATAGAAATGTAATGATTTTTTGAAAGGTAAATGCTTCACAATAAACAGTCTTCTTGGGTAGTACAGTGTAATTGTGATTGTTTAGGACTGCTCTTGTGGGCTAATATTTACGCTG
1 AACCCCAAAAGCCAGAAAAACACAGTGAGCTTCACATTTGGTGTTTACAACATAGTGACAATGATGACAGCACTTCCAATAAACCTAATGTCAGTCATATATTCAAGGCAGCTGAAATGAACAGTCATAAAAACAAACGAAACTGAACTGAAAGCTTTAGCTGAACAATGGACACAATAAACATTTTATACACTCTATAAAGCAAAAGCTTAATACCCAGTTGTGTCTCAGCAGCCACCTGAGCTAATAGCTCCTGAGTAACTGTTGTGGGCCAACTCCCAAATGTCTGCCTATGTTGGG
0.6353331650671887 AAAAATGTGAATGGAAGGGAATAGAAAGAAACATGAATCAATCAATGTGAGAACATGAACAAGAACTAGAGAGAATAGAGACATGGTGAGACAGAATAACATACTTGTATTCTTCTTGTGGAACCAAATGTAAGGAAGTCAAACCTCTGAGCTTAGTGCATTCATTGTATCCTGGGTTCTTTGTTATCTCTGTTTACAGTCACTTGATGTTTTATATGGAACATAGAGAGGTTGATTCTTTACTGGATAATTGAAGTGACAGAGAAAGGAAAAGTACTATTAGGAATTATAGTAATGAGT
0.829053706996815 TCATTTTATCTTCTCAACACATTATTTATCTTTCCTTTATAAAAAAATTTTTAGTGTTTGCCTTACAGTTAACAATATACGTTTTTAAGTAATCTAAGTCCACCTTCAAATAACACTATTCTTCACATGTATTGCAGGTACCTTATAACAAAGCATTCTATTCCTCCCTTCCATCCCTTGTGGCATTGCTGTTATTCATTTTACTTATCTATATGGTATAAAACCCAGTGTATTATTGTTATTATTGCTTTAACCAGTTAGCCTTTAGATCAATTAATAAGAAAAAAGGAATTTATTTTA
1 CATAAACATTGTCATACCAGTGGATCTATATTTTTGTGTATGAGTTGACAATTAGCAGAGTCAGCCACCTGGTTTGTAAGTAAAGTTTTATTGGAACACACCCACACATTCATTTATGTATTGTCTATAACTGCTTTTTTGCAACAATGGCAGAGTTGAATAGTTGGAGTGGAGACAGTATGGCTTGTAACAAAACCTGAAATACTTATTATCTAGCCTATTTACTGACCCCATTTTAGTGTATGTATTTTCAGAACATCTTTGGTAGCTTTCTTTATTTCTTTGGCCCTCAGAAAACTG
0.2929335284493034 GATTAATCTATTTTATCCATGACCAAAGGCTCCTTTCAAGGTATTTTCTTAGGGTAACAGAATTTAACTAAAAAGATGAACTTAATATTTTTATTAGGCAGGACAACTTGCATGATTAGGACAATGGGTACCAATGACAATGATCATGACATTCAATGCATTATGAGGCATTGACCCTTTGAGCTGTTAATCACTATTTTATTAATCAGTATTTTATAGCAGACAAAAATAATACAAATAAAGCTAGTGAGTGGTCTAAATTAGTGAATAAGTCCCAGCACTAGAAATTACATTAGAACT
1 AATCTCAATGATGGTTATTTATCCAAAGGAAAGGAAATCAGTGTATCAAAGAGATACCTGTCCTCTCATGTTTATTGAAGCATTATTCACAATACCCCTGATGTGGAATCAACCTAAGTGTCCATCAATAGATGAATGGATAACAAAAGTGTTGTATATACACAATGGAATGTTATTCAGCTGTAAGAAGAAATGAAATCTTGCCATTCACAGCAACATGGATGAGTCCAGAGGACATTGTGTTAAATGAAGTAAGTCAGGCACAAAAAGACAAACATCACATGTTCTCACTCATATGGG
0.8843567046853689 GTAACAATTCTTAACTAGTATAAACAATATACTAGTACCTAACAATATAGCATCAATATGAAGTAACAATTGACATAACTAAAATGAGAAATTAACATAGCCATAGTCACAATGGAACATTTGTACACATCTCTCTCAGTAACCAATAACATAAGACAAAAGAACTTTCTCCGTAACTAACAATTAAAGACAAAGGAGTAAAAGCACAGAACATATGAACGACATGATTAACTTAACTCTCCTCCAAGACCTAGCAAAAGAAGAGTAAATTAAACCAACAGGGTTAGGAAAGAGAAACAA
1 TCTCAGGGCCTAGAAAATCAACTGAGTTTTTGAGATACTCTTCATTCTGTTCCTCATTAAAACTTTATGCCCTACTCCTCATTTAATTGTTAAGAGATAATAAACCAATTCACAAAACATACTGATTTCTGACAACTCCCAAATAACAGGCATTTTTATCAGGAACAATGCATTGAATGGTGGCTTGTTTTGGTGAAGCTACTTTTGGAAGGAGGGCCTTCCCACACAAACACTTGCCAACCCTGCAAGAACACAGCTCTGGGTATCAAAATCATAATGGAATTATTCTGTGGATAAATG
1 TACCTTCAGGGAAGTAAATAGCAGGATTAATCTAAGTAAATATTGACTCTACATAACAGTAATAATAAGGTCTTGTGGAGTACAAAACATATGTGAAATTAAAACACATGGGAACAATAAGACAAAGCCAGGATGGGAGGCCTTTGTGGCCTTTACATTGCCTGAAACAGATCAATAATATTTATGATAATCTCTAGTGTTAATATATGTGGTAATCTTCTATATCCTTGCTGATTTTCTGTCTATTAAAATAATAATAAAAGAATGTGTACCAAATAGGTGAAAAAAGAGAAAATGGAG
1 TACATGTGTATTACAAATATAGATATTAAAGGAAATTTTAAATTGTCAAATGAGAAAATTTCTTATTCTGGTGGAGTGTGAAAGTCAACACATCTTTTGTGCATAGAGAAACACATTAATTTCCTGCTTTTGTGGTGTTGCTTCTCTTGCTTTTGTATTATTGTCCATTAGCTGGTACTGTGGAATTCATCAGATTTCTGAGAATCTTAATGACCTTATGAATCTTTCTAAAATAATGCGTAACAAACAAGACTTTCTTTATTCTGACTTACATCTATTGATTCAACAGTTTTTAGGCAT
1 ACGACAAGCGATCACGTAGTAAAAGCTGTGTTCCAGTGCTATACATTTTTAGCCACCCAAGCTCAAAGCCTCAGAGTCACTTATCATTCTTTCTTCCTCTACCTTGTGGCCCAGTTCCCAATAATGCCTAATCTTGTTGATTGTTCTGCAATAATGTCCCTTCCAACCTCTTTCCATACCTTTTGTCCCTTACCAGTGTCAGAAATTGTTTCCTTAGCCTTAAGCCACAATAATATAATTCTAACTATACTCCCACACCCCATTTCTTCCTTTCCATATAGCACTGCCAGATTAATAGCA
0.5458282308030561 AAACAATAATAACAGCCTACCTGAAGCTTTAACTCTGTTCTATACATGATAAATACAAGAATGAATGTCAGGAGAAACCTCAAAGGCTTTCTTTGACATTAGCAGCAAACAGAAACAACAGTAACAGAAACAACAGTAACTAAGGCCTTTGTTTACTGTTTTGGATACTACAAATAAGCACTGTCATGCTCTGTTAATACATCCTATTATCTGTCTCTAAAAAATACAACTGCTAAATTAGTGACATCATAGAAGAGCCATAGAATACATTGTGAGTAATAAAAAACTCTTTTTGTAAAG
1 TCTTTAAAATGTTTTTCTTTTAAAAATATGATGCTTTCTTAATAAAGGTGACTTGGAAAATTCAATAGCTTAGAAATAGTCTCTCTGGCTTCCCTGCCTAAGTACAACCATTGTGAATCTTTTAGTACATTTCTTTTCAATCTTGCTTTGTTTTGTTTTTGTCTCCTTTTGCATTGTTTTTTGTTTTAACCTTTTATATCATATTACATCTTTTCTTTATTATAGGTATTTTCCCCATAGTTTTTATATTCTCTGAATATAATTTAATGATTCCTATTATGACTATATTGTTCTTTATGT
1 ATAGAAGGGCAAAGTTTCAGTAATTCACTAAAGAATGTCTCTACCCAAAGCTTTGTGGCAAAAAAATGTCTTGTTTGAGGCACAATTGCAGAGTTGAAATAACAGCCCATGAATACCCTGGAGAAATGACTATGTACCCAAGGTGAATGCTAAAGCCTTCCCTCTTGAATGAGCCTTTTAATCAAGGCATTATCTAGGCTCTGAAAAAGTCTTCAGTGGTCCTACCTAAAGATTAATGGGAAAAGCCGAAACTCTGAGTTGGCCTATTTGCAGAAACAATTTTAAAGATTTACTGATGGT
1 GTTCCTTAAAAAGATAAAAATAGAATTATCATATGATTCAGCAATTCCACTTCTTGGTATATACCCAAAAGAATTGAAAGCAAAGACTCAAACAAATATTTGTATACCCATGTTCATAGCAGCATTATTCCCAATAGCCAAAAGGGCAACCCAAGTATTCACCAATGGGATAATGGAAAAACAAAATGAGTATATTAATGCAATACAATATTATTCATCATTAGAAAGGAAGGGAATTCTGACACATGATACAACATGGATGAATCTTGAAGAAATTATGCTCATTGAAATAAGCAAGTC
1 AAGGAACTGACAGTCCATAAATAAAGCCTCACAATTACAGTTAATTGATTTTCATCAAGAATTTCAAAACAATTCAGTAGAGCAAAGAATGGTGTTTTCAACAAATTGTGCTACAACAAATGAATATCCATATGCAAAAGAATGAAGATGTACATTTATCCCACACCATACACATACACAAACACACACACACACACACAACTCAAAAGGGATCAAAGACCTAAATGTAAGTGATACAACTGTAAAACTCTTTGAAGAAAGCATATGACTAAATCTTCATGACCTTTGATTTGGCAAAGG
0.132664392622818 GTAAGATAATGATCCAATTTTCTTCTTTTTAATGTGTATATCCAGTTTTCCCAACACCATCTGTTGGAGAGACTATTTGTTCCCCATTGTGTTTTCTCTGCACCTTTGTTAAAAATCAACTCACCATAAATGCATGGATTTCTTTGCTGTCTATTCTATTCCATTGACTAATGTATCTGTATTTATGTCAGTATTATACTGTGTTCTTTTTTTGCCATTGTAGCTTTGTAATATATTTTGAAATCAGGAAATGTGGGACCTCAAGCTTTGTTCTTTTTTTCTTAAGATAGTTTTGGCTGT
0.7288802888020962 CAGTGTAAGGTTCTTTGAATCCATGAGTTGGACAAATTGAAGCAGTTACAGGAGTAGAAATGAAGTGGGTAAACACAATGTTTTCATAGAAAACCTAAAAGTTTTGATGAGTCACTAGACAACTGCTCAATAGTGTTTTCATAAGTCATTGTCTGCTTTTTATTACCAGTTACAGTGTGTTCATTAATCTCATTCATTGGAGTACGAGATGTTTGTTTATTCTTTCACTACACAAAGTACCTACTAGGAACCAGGCATTGTTGTAGGCTCTAGAAATACTTCAGAAGACAGTCTCTTCTC
1 AGAAGAAACCCAGCAATATGTAATACAATAATAACACTTTCACATATATTATTTCATCTTCCCCATATTTAAAATACATTACATGCAACTTGTACATAATATATACACAGAGTGTACACTGTATTGAAATACATGTTAAATGCATCTAAATGGGTCTTTGTTTAAAGAGAGAATGAGCTAATTATCAGAAACTATTTATTTAAGCAAAGCAGTAGTATTTCTATTAAAACAAATATTTATAAAGCCTTTTTATCTCAACATCTTAAAAGTTAGCATATAAACACATACACTTATGAGACT
1 GGCAACAAATGAATTCATTATATTGAAGGTGAATACATGTCTATATTTTAGAATAGATGATTTAAACCAAACATGACAGTATGGAAATTAAGATTTGTTTTTTTTCTCACTACAGAGAATACTGAACAGTGGTATTCTCAAGTCTTATTTCCCAGCTACAATAACATGAATAGATATTGATATAGCCTATTATCTCAGCAATAATGCATATTACAACAAGTGATTACTCATTAGCAGGAAAATGTTTCTCCAGGGCTTAATTTAGAATGCCTGAAATGAAATAACAAAATCTCAGTCTTG
0.6103166693942222 ACTATCCTATTGTGTCAGTGATCTTTTTCTAATAATGTATAAAATTTATTATTTCTAGTCTATAAACTCCTTGAGGGCAGGGACTAATTGTGGTAACTTTTTATTATTAGCCAGAACAATGCGGAGAATGAAGAGAATGTACAATGGACACTGAATTATTTCACAAGTTAAACTATTAGCTCACAAATTTAATAAAAACTTCAGGAGACTGCTTGTTCTATGATTATCATGTGAGGAAAATGGTATGTAGTTGAATATACTCTGAACTAATTGCCAATACCCTGAACATATGATTCAACT
1 TACTATGATATACTAAGTTAAAAATACATTAAGATGCAGACCAAGCACCCACATCAAAGTATACATACAAAAGAATTAAAAGCAGAGACTCAAACAGATATTTGTACACCAATGTTAATAGGAGCATTATTCATAATAATCAAAAGGCAGAAATAGACCAATTGTCCATCAACAGATGAATGGATAAACAAAATGTGGTGTATACACATACACTGAAATAGTACTCAGCCATAAAAAGAAATGAAATTTTGATATATACTATGAGGAGATCTTTAAACTATTATGTTTCATGAAATAAGC
0.6513353412168728 ATAGAAGTTATAACATGACACAGACATATTAGTGTTATTTTATTTTCTAGAGTGATAATTATTTAGAGTGAGGTATTAGGAAGGCAATTGATCCTGCCATTGTAGATTGAGACGCTTTTGTTGGTCTCCCATTTTTCCTACTGTATGTGATACATAGTAGCCAGAACAAAATTACCCATTCAACCTTAACAGATTGCATGTGCACATTAATCTGAAAACAAAACCACCAAATGGCTGGTTGATTATAGAGAGCCTTGACTATCCTTTTCAACCTTGAAAGTCATTGATTCTGTAAGTTGG
0.2315706469672729 AATAGATGGAGAAAAAGCATTTGGCAAACTACAATGCACATTTATGATTAAAAACTCTCAAACTAGAAACAGAACTTCTTCAACTGGATAAAAGGCATCTACAAAAACACTACAGCTAAAATCACATATAATGGTGAAGACTGACCATTATCTTTCTCCCTGAAATCAGGAATAATGCAAGAATGTCTGCTCTTTCTTGCCACTTTTATTTAATATTGTACTGGAGGCACAATAAACAGAAAAGAAAGAAAGAAGAAATCAAAGGCATCTGATTAAAAAAAAAAGTAACTGTACTCATTC
0.703339798084797 TTTTTGTGTCTTTGAGAACTTTGATAATAAAAAGTTTTTTTAAAAGATTGCTAGCAGAAGAGAGAAGTATATTAGATTTCATTGATCTCTGCAGAAAGACTGATCAGAATTGGTATAGTGGTGTCTTTCCCAGTGATTGTTAAGATAAGAACAGAATCATTGTCCTGGGGAAGTAACAACAGAACAATTGTTTTCTTCTGTTCTGAGAAACATTGCTTTCTGATTAAAGAAGAAAGAGAGCATGTAGGGGAGAATGAGGAAGAGAAAAAGACAGGAGATGGTTACTAAGTGTTTTTGTAC
1 TTTCCTTTTTCTTTGTTGAACTTGTAGATTATAGGTTTTGTCTTTAGTCTTGATTTTCCTAAGAAGGAACTTGTTTGTTTCTATGAAAAGGGACCACAGGCATGTTTGTTCCTTGTTATTAGGGAGTTGTAGTTAGTTGTGTGAGCCACTCAGGCTTAAAAGACTGATTTTCCCTATTGTTTATCCATGAAGAATTCATCAGTTCTGTTATCCCCAGATCTGTGGATACATAGGGTGGGGGTGGGAGGATAGAAGAATCATTTTCATTGAACGTGTAATCAGGTTATGTTTCAGGAACTC
1 TATGTAGTGGCTAACATTCCTAGGATTGTGTTCAAGTTTCTTTTTAATTTAGTCTTAACCTACTTCTCGAAGCTGATTCTTCAACCATTACTCTCGGACAACAATACCTTTAATTGTACTCTTTCTTCTCCAGGAACATAATCTCCCTTTCTTTATGCTTATCTTCAAATTAATTCGAGTTTCTGTTATCCTTTGTGAAGTCTTTTGTGAAAATTTCCTCTAGAATGTATTAGAGATGCAGCTAAGACTCTCTTTCATCTGAAACATACTGTTTTCAATTAGTTACTATTTTATAGTGTT
1 ATTCTTATATTGACAATTCTTGTCATGAATAAAAGCATCAAAAATAAGGCAACAGCAAGATGTGCTTCACATATAAACAATCATGTTGTAAGAATAAGAAACCTGAATCCCTGTACAACAAAAAGATTAGGAAGCAAAATGTGAATAAGCTTGTATTCAGAATATACCTATATGTGTGTGCAAAGACAATACACTCATCATATACCTCACTTAGGTTCCTTTATGATGCATAATTCCTTAATCATTCATTTGTGAAACAAGAATGAATATTAAGAAACATGAAATCCAAATTGCACTTAT
1 GCAATGGATTCTTAGACATGATACCAAAAGCACTAGCAAAAAAAAAGGAAAAATAAAGATAAATGTGTATATGTGTGCATGCATGTGTTTGTGGGTGTGTTTGCTTAGTCCAGAATTAGGGTAGTAGTAACAATGAGGACAATAACTTCTTAGAGCACCTTCATTCAGGAGTTGAATCACAGTTCAGTTATCAGACAATGCCAGGAAGAGCTATACATTTCTTTTGGTATATTGACATCTTAATATTATTAAGTCTTCCAGCCCATGAATACAGGATGTTTTTCCATTTATTTAGGATAC
0.5858655484829358 TGATAGCTATATCCTTAACATGATAAAAAATGTATCATAGCCCAAAAGTCAGCATCTTAGTAGCTTTTCTGCTAAAGCAATGAAAAAAACAAAGATTTCATTATGTCCTGTACTATAAAACATAATGTTGGCAGCATTAGCCAATAAATGCTATTTACAGAGGTCATGATTATGTCTGGAAAACCTTGAAGAATTGGTGAGAAAACTCATACAAACAAGATAATGTAGTAAAGTACCAAATGTTTACAATCAAATTAACATATAAACACCAAAGACATGCATACATACAAACTAGAAACA
1 CTCATTCACTCTCTCATTCACTCACTCACTGACTCATTAACTCATTCACTCTCTCATGCATCCACTCATTCACTCACTCACTGACTCACTCATTCACTCACTCATTGACTCACTCATTTGGTTATTCACTCATTCACTCACTCACTGACTCATTCACTCACTCATTCACTGCTCACTTATTCACTCTTTCACTATCTCTTTCATTCACATTCATTCATTAACTCAGTCACTCACTCATTCACTCTCACTCATTCACTTACTCATTCACTCATTCACTCATCTATTCATTCACTCATTCAC
0.4555240113559771 ATCCCAACTGGGTATTTGTTTCTTCACAAATTTCACTTTTTAAATGGGTTTATAAAAGTGAGCAACTGTTTGGTCATTCTGGTGTCAAACCCATTCATTCAGTCAGATGTATTGTTTGATTTTATTGAATCAGACAATAGAATTCAAAACTATTGTTCTAGAAACCCAAATGAATTTTGCTCACTCTAAACAACCAGTTAAAAAAGGAAATAATTCTTTCTTATAGTGACTATGTAGATATGTCTGACTTATTTGCTTTTCCATGAGGTGATTCAAAATTTTCATTTTCTGTACATACAC
1 GATTGGGTGTCTTTTTTTTTTTCAGTACAACATGCCACTTTTTGCCTTTTGAGTGGAGTGTTTAGACTGTTTACATTTAAGGTTAATACTGATATGGGAGACTCTGATCCTTTCGTGGTGTTGTTAGCTGGTTGCTTTGTTGTCTCAATTGTGTAGTTACTTTGTAGGGTCTGTGGGCCATTTACTTAAGTGTGTTTTTGTGGTAGAAGGTATTGTTCTTTTGTTTCCATGTTCAGAACTCCCTTAAATATTTCTTGTAAGGCTGATCTAATGGTAATGAATTCCCTTAGTGTTGGCTTA
1 AAAATCCACCAATGATAAAAAATTATCTCTATCACCCTGGACACATAATAAATAATTCTGCAAAATAATTTTAACTATATTGTGGTAGCCACAGCTAGTTGGCTGATTATCATGTCCACTTATTTTAATACACTATTCATTTTAGCAAATGGCTATTGTAAATGTAATTGTGAAGCCTTTGTCTAATCTCAGTTTACCAAAATCTTAAATAACTAGTTTTACACGTGCTAGTTAATGTTTTCTTATTGAAGTTATCTGTTACTGAGATTTAGTGAATTGTAATAAAAATGGCACAGTATC
1 TTAAACTACTTGTAGATCAGCTTTTTTTTGTTTGTTTGAGGGCTATTTTTAAGTATTGTTTGGGTGGATCTATGTTAGCCTTTATTCCAGGGCTATGTTAGTGCCACTATTTAGGCATGAGACTTCTTGGGTCTCTACTGAATGCCTGTTGTAGACAATAAGGCCTCTTCTATGTGATTAGTCAGAACTGGAATACATCTCTATCCTGAATGAGCTTTGAGAATTGTTTAGCCTATTGCTTGTAGTAGGTAGACTTCTAAAATGACCCCCAAAGACATTCACCTTTGTGTATTCCCCTCC
1 TATCACTATTTGAAATAGATAACCAGAATTACTTGCCTTTAATAAAAAACAACCATAATGAATGCAATGAAACCAAAACACTGTTATTCTAGTGAAAAGAAAACAATGTTCATAGCAGCCTTATTGATAATAGCCAAACAACTCAAATGTCCATAAAAGTACAATAGATAATTTGTGATTAGCCACACAATGAGACACTACACAGCAATAGAAAAGAACAAGCTATTATAACTTCCAATGGATGAATCTCAAAAACATGATGGATGAAATAAGCTAGGGTAGGTACTATATGATTCCATT
0.6107206789897495 ATTTATTGTAGAACCATTTGTCAAAAGGACTGTCCTTTCTCCACTGAATTGCCTTTGCACCTTTGTCAAAAATCAGTCTTCCATATATGTGTGGGTCTGTTTGTGGATTTTCCATTCTGTTCCATTAATCTATTTGTCCTGATACCAATACCATATTGTGTTGACCTTCTGTGGCCTTAATAATAATTAATGCAATCAGGTAGTCTTAATTCTACAACTTTCCTCTTATTCAAAGTTTTTATAACTACTCTAGGTCTTTTGCATTTTCATATGAATTTTCAAATCAGTTCGCTAATTTCT
0.9530102809810794 ATGCTCTGACAATATAGATACAGCATAATTAAAAGAAAACAAGGAGAGAATGAGAATATCATGTAAAAACATTTGAAACAGTTTTTCAGTAATTATACTGGTAGTAGTTTTGATAGTGTTATTTTGAGAATGTTTTGTGTGACATGGACAAAACATTCAATCATCCCCATTGTCCTTGCAACCCAGGATTCTTGCTGAAGACAAAAAGAGATTTGAACATAAGGTAGAAGAGTTTAAGTAACATTGAAATCTGAATTTGAATTATAGTGTGAACATACGAGGTATTTTATCTTTAAATAA
0.8646032280745831 TTTTCATCTCTGGACATCAGTTCCCTCAAATATAAAAATAAGTATCTTCCTTCTCCAACAATAAATGATCATAGAAAAGGAGATGTGCATTGTTTGGTGATGCATTCAATCTGTCCTGTGTCACCTGGATGCAGAAGACATGGGAACTATTGTCTTCTCAACAATGACAATGGAGCACATATTGAACAGAGGATATCTGTTCAAACACCACCCCAAAGTCCCAGAAATGCTGGGTGTGTTCTGCAGCAGGATATGAAAAGTGAAATAAGAAACTTTAAACTATATAAGCAGGCTCGCCTT
1 AATTATCAGAACATGAGTTTAAAACAACTTTCGTATGCTAAGAGCTCTCATGGAATGAGACAAAGGCCAGAATAGATAATGTAAGCAAAGAGGTGAAAGGTCTAAGAAAGAATTAAAAAGAAATGCTAGAGATAAAAAAAAAAGGAACAATACTGCCAGCACAACAATGCTGTAACATAAACAAAGAATGCTTTCAATAGACTCATCACAGCTGAGAAATAATCTCTGAGCTTAAGGATATGTCAATAAAAACTTCCAAAAATGAAAATCCAAGAGAAAAAGACTAAAAGAATGAAACAA
1 CTCACCTGTTTTTAATCCTTACATAATGAATTTATGGAATAACATTACCTTTTGTGTATCGCTGTTATTCAGTGTTTTTGAGATTCATTCTGTTTTGTATGTATCAGCAGTTCATTCATTTTATTGCTGAATAGTATTCCATTGTTTGAGTCTCCACATTTGTTCTTCTATTTATCTGCTGATAAACATTTGGTGTTCCCAGTTTGGGTCACTGTGAATTAGGATATCACATAAGTTCTTGTACAAGGCACAGTAATATATATTTTTAAATATCTGTGGTAAATACCTAGAAGTAGAATT
0.6194282660311301 GAGTTCTTCAACAAAGAACCATAGATAAGTATAGTTTGTAAAAGCAAAAAGGTCCATTTAAGTCAGTAATAGCAGTGCAGTAACTGATGGCTACATCTTGAAAGAAGTTAAAACATAAAGACACAGACAGTAGTTCAATGCACGCATTCATGATGCTCATACACTCATCAACAATTATTGGTCAGAGTAGTAAATCAGTGTACAAATTAAACATTTCCAAAAATGTGCAAAAATGTCAATCTTAATAGGAAAAAAACCCTTTGTACATAATTATAAACTGCCCAGCATTCAACTGAGATT
1 TACAAAACTTGGAAGAGAAAGGGAAAAGCATGAGCAAAGATATAACAAAAGCCAAAATAAAATTTTAACTGTTACTATACTCATCATTAATTGTGATAGTGTTAGAATTGTTATTCAGAGCCTGTTGTATGTGAAAAGTGAGACAAAGTAAATGAATAATGATGGGATATTCTATTATTCCCATTGTCCTTGAGAACACATATTCTCTGTATGGAAGAAAAGTAATGTAACCTAGAAGAAGTTAAGTGAAAACTCCGTACTCCTGAATTTGAATTGGAAATTTCAATCTGAACTTCATTA
0.8653940413557032 CTGGTAAGTATGTAGGTAAGAATAAAATGTTATATGTATTTTTCTACTCATAAAATTTTTAATTCACACAAGGATTTGGAAAAAGATTATAACACTCTATTGTGGATTTTACAATGTACGTGATGTAATACATACGGAAACAATAGCACAAAGAATGGGAGTGTAAAGGGACATAGACTGCTGCAAGCTTCTTCTATTTTATGTGAAGTGGTACAATATGATTTCTAAATTGTCTGTGGTAAGTATACATATTGCTATCCCTAGAGCAAACAATAAAAAATAATACAAAGATATATAGCT
0.6380811877504636 CTTAAATTTTCCAGTCAGAATTGTGCACACTGAATGAATTGAAATGTCTGTGGTGTTGGCTATTGTTTGTGCTATTTATTGTTGGTCCTCTTCAATTAGGGCACAAACAAGATGCATTTTTTTCTCACAAACTGATGTAGATGGTTTGTCACTGAGGGCTTTATCTTCACCATTGCCTTGTTCTTTGTTAAAACGTCATATCCCTTTGTAATCTGATTTCTTTGGATCATTGTCCTCATAAACTGTGAAGCACCAACAATTTCACCATTCTTCCACCCAAGCTTCCTTATAAACTTGATG
0.2643754066301058 GATAGAAAATATAAAAAAGATAGAAGAAAAGGATTAAAGAATGAAAATATCTAATATGCTTATAAATGGATTTCTAGAATAATAAAACAGGAATAATGGAACAAAGGCAATATTTGAAGAGATAATGACTATTTTCCACAATCGATGTAAGGCATGAATTATCAGTTTCACAAAGCCCAGTGAATCTCAAGTAGAATAAATAGAAGGCAACCTATAGTTAGACACATTATTATAAAACTGCAAGACCAAAGACAAGAAAATTATTTTAAAAGCAACCAAGGAAAAAGGGGAAACTACTTA
0.6231147948458255 GATTTGGAGTAAGAACATCTTAATTTTAAAACCTAATCCAGTCTAATCCTATTTATTCTCTTTATTTTGTGGAGCTGAACTGAGGATCAATTAAATTAATGCATGCATAACCATTTGGTTCTTGCATGTAGTCATTCACCCATTCAATTGATTGATTCATTAATTCACTCATTCAACAATCTGTACAATGGCCTAGGTACAGTCCAAGGTGCTGCTAGGATTCTAAGTTTGAGAAGAAACAGGCAAGACTCCTACTCTCATAAGGTTTTTTGTCTATTAAACAGCCAGGGGCTGATAAAC
1 TTCTATGGTGTCCTCAGCACTTGAATTTGTTAATTTTTAAATGCTAAACTTTATCACTCAGTTGTCATTCACAACAATTAATTGAGCGTGCACTTTGAGCTTAGCTTTGTTTGTATGCAGTTGTTGCCTTGCATTGTTAGGCATAGAGTTACATTTGCTTGTGTTCATTCCTATTGCAACAAAGCAATCCAATGATGGAAATAGAGGACTGAAAATCAAGCCATCCCTGAAAGATTAGTGTTGTACATAACTCAGTTCTAAATAGAGTTCTGTCAATTCTTCAATATTAAAAGCAAACAT
1 TTATCACATATTAAAAATAAATACACTGTTTGTTAGGTAATTCTGAAATTGTCATTTCTATTTTGGAGTTACAAATAATAAGCCCTGAGACAGAAGACACTGGTCCTCACACAGCAGCTGCCATTGCTCTGTTCTCAGTTGCGGTGCTTTATATAGAACAATAGGTATACAAAAGCGTTTGAGCCATTCCGGTATTCCCACTGCTCTGATAGATGAGAGACAAGTTGTAGGCAATATCTCTTCGTAAGTCTAACTGGTCAAGTTCTATACCCTAGGGAGAAAAAGATACCTTTATGTTTA
0.9203759008175221 AATGAAGTCCTTTTGACTGATAGATATCTTCTTGCTCAAGGCAATTTTTAAGCGAGGCTCATGGTAAACAATGCTGATTTATAAAACCACTGTACAATGTATTGTCTGATGTATAGTTTTAAATGACTATTAACATGTTTGCTTTATACACAAGGCTGTATTACATTATTTTGAACATACTATATTTGTTCCTCATTGTTCTTTCTGTACTTTGTGATTTAGACTAGCAAATACATGTATGTCATTACTGTTTAATGTTCTATAGAAAATTAGAATATGCTATTTATAATCTGAACATTT
1 TTTTGTTTTTTTTTAAAGTTGGAAATAGAAGAATGAGAAAAATCTATAATCAGGCCAAACTTGAGAACTTTCCTGTGCTTCAGCACTGTAATTCTGCTGACCTAATGTTCTCAAAAGAGGCACTTTTACTTTCTATTGTGCATGTATGATTGTTGTTTTTTGCTTTTGAGGGGGCTTTTGTGTTTGTAATAATGAAGCAGAAGAAAAGTGCAGTAGTAGATAAATGATCACAACATGTTATGCAATTTTATTTTATAAAATTTTAAGGGGAAAAGTTTAACTCTTTGTAAATCATTTCTT
1 TCTTATTCAGACAAATGAATGGCCTTTGGAAAGCTTTTGTGAAGAACTTTGCAATGACCTTTTTAATCCCTCCTGGGAGGTAAGATTTCTTCATTACAGTTTTTCTCAGCTCTATTTTCTGTGCTAATGAAGGGAACAATGTCAAGAGCAATATACTTTGTCAGAGTCCCTATTCTTCTCTGTTTGTCTCAGGACTCAGGGCACGTCATATCATTGACCTAAATAGAAAACTATAAATTGATTTTCACCTTTCATATCCTTCAGTCATATTCTTTAGTGAATTGTTTATTTCTTTTCGTT
0.3386932376070063 CCAGAGACACAAAGAGAAAAACTAAAATATACATAAAATGTATATCGGAGATACATGAGGTTAACATCTTGAGCTTTTGAGGATGTTGCTACTAAAGATACAAAATCATAGATTGTTTTGGACATAAAAAGCCTGAATATAACATTATTGCCTGCTGTTCCAGTTAACAAAAAAACAAAGAGCAATCATCAATCACACCCCACACACACATCTGACTTGTTTTGAATATCTTCAATGTTACTAAGTTAACAAATAATAAGTTACCCTTCACTCAGACTCTTATCCTTACAATTCTCTAAG
1 TGTGTGTTCTTAGATTTTAACTAAATGCAGTGCCCCCCTCCACACCCCATACCACTGGATTGTTGTCTAACTTTTCACATTGGTTAATTGTTCTTAGGATAGTGGGGTCATTGTTCCTTCTCACAAAACAAAACAGTTTCTTTAAAATCAGGATGAATGAGCAGTAATTGAGCATAAAAGCCTGACCTTGCCAACAGTGCATTGCATGCTTAGTCAAATTAGTTTAGACCATTACAGTTTATATTAATTGTGTTTGTCATTTGTAATTAATGTGAATTAAAATTTGGGGAATTTTAGAAT
0.7479982889966476 GATATTTTTTATTCTCAAAATGAAGAATCACATTAAAGTTATCTGGTCTTCTGATATCTAAGCAGGCACAAAGTTAGACCATTATGAGCTGTTTTAGAACAATGCTGATGGTGCTGTGTTTACAGCCTTTGTAAGATTTACTAAACAACAAAGGAGTATTGTTCGTATTGGCCTGCTAGTGTGTGTGCTGCCTGCTACTGGCTGTTTCCATTGATACTGTGATATATTTCATCCTGTTTACAATACATTGCCACTATCTTTGGCTGCTGGGTTATTGCATAATACAGATTATTTGGCTGT
0.822310114022791 GCTATAAGAAAACACTCTCCTGGTTCTTTCTCTTTTTATTTTTTATTTTATTATTATTATAATACTTTAAGTTTTAGGGTACATGTGCACAATTATTATTGTAGTTCGTTTCCATTGTATTACATATGTCAAGTACAATGCATATTGAAAGGCCCTCTGTGTACCTATAATATTGCTCTTATAGGTAAATGTAAGAATGTTAGGAACAGTGTTCTTTTGCATTAAGTAAGGGAGGTAAATTCAATATGATTTTGGAAATAATGATCTCATCCAAAGTAGCTTGTCCTTCATTAGAAGACA
1 GCTAGGAATATAACCAAAAGAACTGAAAACATTACATCCATACAAAAATTTACACAGAAGTGTTCACAGCAGGCTTATTTGAAACACCCCAAATGTTTACCAATTGATGAATGGATAAACAAAATGTAGCATGTCCAAACAATGGGATATTACCCAGCCATAGAAAAGAATTAAGTACACATTCATGCTACAATATGGATGAACCTTGAAAACCTTATGCAAAGAAGCCAGGTACAAAAGGCCACACATTGTATGATCCCATTTATATGAAATATTCAGAACAGGCAAATCCAGGGAGAC
0.9678307907298905 AGAATAAAAAAATTAAAATAATCCATTATCCCACCACTCCAAAATAACCTCTATTTATATTTTGGTGAATTTCTTTCCTTATTTTGTTCTATGCCTATACAAACATACACACTTTCAGACATACAAAACTGAATCATCACTTTTAATGGCTTCATATTATGCCATTGAACAATGCCTGTTAATACATTGTTTCCATTCCATCCCCCATGCTGTAATGTAACCATTTTGTTACCTAACGCGGTACATTCTAGATGTGAAATGTTGGGGTGGGTTTCTCCCAGGGCTTTGGGCCACCTTTCT
1 CTCAACACATATTAGAGGACCAAAAAAAATTGTTTTTAAATTAGTTTAGATGAATAATAATATGATTGCATAAAATAAGCTGGCTCTAAGTTGCTACCTACACAATGTTTCTTAAGTTTAAAAACAACTGAATGTAAACAGCATATTGTTTAGGTTACGTATTCAGGCTACACACACAAACATATATGCACATATATACAAACATAACACATATCCATACATACGTAAGTATACACACAAATGCACACATTTATAGAACTATTAAAACTACCAAAAAGGCAAGAGAATAATCAGCACAAA
0.9811160581442315 ATGTGCACTTGAGAAGATGATACATTTTGCTGTTGTTGAGGGAAGTGTTCTATCTGTGTCTATTCAGTCGAGCTCTTTGTAGTTTTGTTTAAGCCCCCTATTTTCTTATTGATTTTATGTCTAGCTGTTCCATTCACTACTGAAAATGGTATATTGATGTCTCCTACTATTATTGTAGGATTGTCTATTTTTTCTTCTCATTCTGTCAATGCTTGGTCATGTATTTTGGAGCTCTGTTGTTTGGTGTGTATATGTTTATAATTGCTACATATTCTTGACGCATTGACTCCTTTGTCAATA
1 CATGTTTAACTTATGTGTTATTCCCAGATTTTTCTCCGATGTTCATACTGTCTCTTGAAACCAGTCTTCCTTTTTTTCAGCACTATTGTGGCCTGTGTATAATTGGTACTTGTCTTTCAGATTTGTATTCTGTAAACAGGCTTTGACGGGGCAAATTTAAACTGTTGTAAAGATTGCCTATTCATTTCTAATACATGTTTTGTGGTAGAATTGAATTGCTGATTGTGTGAAGGGTTTTTGAAAATGAGGGACAAACAAAATGAGAACTTATGAATAGTAGCACAGTAAAAAAAAATCCAA
1 TGAATGGGAAGGCCTAGGACATTACTGTACACTTAGGCTATATTTAATTTATTTAAAAATATAGTAATTGCACTAGAATGTTATCATGGCTACAACATCACTAGACAATAGGCATTTTTTTCAGCTGCATTGTACACTGTTGTGCATGTGGTCCATTGTTGACTGAAGCATCCTTATGTGGCACATGGCTGTACTTTTCAACAGATAAAATAAGGAAACTACAACTACTTTCATCAACATGAATGAATCATGAATATAATGGTAAAATTTAAAAAGCAAATTATAGGAGAATAATACATT
0.6919843603740102 ATCATCAATAATTAACCAAGAGAAAATGCTTCTATTTATATTGGGTCTCTTATTATCATAAAAGTAGTCTTAAAAGGCTGATTTAAAATTACATGAGCTAATACAAGCCTAAAAGGACAATGAGACAAAGGTCCAAGTCATAATGAATGGTTTGTATGATGACTGGTTTTGTTCTTTAAGTCTATTTCTTATCCAATGACACATAATGACACAAACATATCCAGATAGTGTTCTTGCTTCCTTGTAAGTTGAGAATTCCTTTCATTAATTCAATAACAATAATAGGATGATACACTAAAA
1 ATGGGTTAAACTCCCTGATCAAAAGACATAGAGTGGCTGAATGGATTTTAAAAAAAACCAACAAGAAGAAGATCCAATTACCTGCAGATGTAAAGACATACATACAATGAAAGTGAAAGAATGAGGAAAAATGCTCATTTTCATTTACCATGAAAATGGCAACAAAAAGAGAGCCAGAATGACCATACTTACATCAGACAAAATAGACTTTAATTAACAAACTGTTATAAGAGACAAATGAGGATATTATGTAAAAACGAAAGGGCCAAATTATATAGAAAGATATAACAATTATAATTG
1 AGTCAGCAATAGTATTTTCCTTCATTGCCTTCCAAAATTTTTAAAGTTTTGCCTTTTGTATTTAAGGCTTTAATCCATCTGAAGTGGACTTTTTTTATGCTGTGACATAGGAATCCAGTCTCATTCTTCAGCCATATGAATGGACTATTGTCCAGACAATATCTTTTGTCACTCATCTTCAATTCCACTTTGGCATAAACCAAGTTTCTTTGTTTGCATGGGTCTGTTTCTGGTCTCTCTATTCTTTCACACTGGTATATTTTCCTATTCTTGCACCTGTACACACTTTCTTACTTGTCA
0.3905967976943139 AAGTCGGCAAATTCCCTTCACAGCCACACCACGTATCAAATAGAGAAGGGAGACTTTTTTTTTTGGTCCCTGGTGTGCACAAGGAGGATCCCTTGAGATGCATCCTCGTGGAGCAGGAAAGATCATAATAGCAATAATGACAACAATGCATCAATTGTTCTCAAAGGCATCTATGGGGCAGAGTATGCTTTTCAAAGGACATTCACTTCTATTCCATCCCATTTGATCATTATGACAACCGCAGGAGGGAGATAAGATGGGTTTCATTATCACCATTTCACAAGTAAGCATCCTGAGATG
1 GTGCTATTACCAGAAACAACAAACTTATATTTAAAATACCCTTCATTTGACACAGTTTTTAATGAGTGATTTAATTTCCTCTGTATTTGTATGTTTAGAAGACTGCCTAAAACATGAGCACTGTACTTCATAAAGGAAACTGCGTATGCAGATTCAGTATTGTGTATCTTTGGACAATTAGATGGACATTTAAAATGGAACTTCTTTTATCTGACAGGATCAGCTACAATGCCCTGTGTTAAATTGTTTAAAAGTTTCCCTTTTCTTTTTTGCCAATAAAGTTGTAAATAAAGACCATCA
1 AACTGTGTTGGCAATCTAGTGGCAAACCTAATAAACACTCTCTCATGTAGACAAATGTGCTTTAGATAATGATGGAGTTTTTGAGTGGGTGATTCCAGAGACAGTCATTCGAAAGGAGGACAATAGAATGAATAGAGCCAAATAGAAGAATTAACAAAAGCAGTGATACACAGAATTGTGAAGCTATTTACAGGCTGACACTCACTGCCACATGTAACTGACTGCCGATCTAAAACCTATTGTTCCATTTTTATTGGGTAAAAGTCATAGGCTCTAATTCAATACTTAAGAGAAATTGAA
1 ACATATACCATTGCATTTTTTAAACTAAAACTGAATGAGCTTAAAAATATAATAATCCATGCCTTAAGATTACAAATCTTACCAGAACAATAAGTGAGCAATTTCCAAGTAAATGAAGTACTGCCTCCCCTGTGGTTTAATTGTGTTTTGTGTCCTCTTATTGTCCTTCTGATGACATTTTCCCACCTTACTCAAGAGCTCTACCTATAGTTAGGGCAGCTTTGGGAACAGACTCTATTCATTTCCCAGTTAAAAAGATGAACAAGAAGAAAAAGCACTAGAACAAGGCTCTTGTCCTCT
1 GGAGTTACATAGAAGATAATTAAGTATATTGTTTTATTCAGCAATATTTATATAATAACTGTAGATGGTAAGGGGTAGAAGCTGGAGAGATGATACAAAAATGAATGAGACACATTGTGCCTGCTTGTTTAGGAAAGAGAGAGTTAAATAATTGCAATATAATACGGTAAATGCGGCAGGATGCTTTGGGGGCATAAAGGGAGAGTAACTGACTTTTCTAATAGAGTTAAGGTTTTGCAAACATTATGACATTTAATCTAAATCTTGAAAGACTTTGAGTGGGAATTTGTTAGGTAGATA
0.7527742405612281 ATCCTTGTCTTGTTCTGGTTCTTAGAGGAAAAGCATTCAACTTTTGTCTATTCAGTGTATTAGCTGTTGGGGACTTGTCATATATGGCCTTTATTGTACTGAAGTACATTCCTTTTATACCTAATTCATTGAGCTTTTATCAGAGAAAAATAACGAATTGTGTCAAATGTTTTTCTGTATCTATTGAAATGATCAATGTGGTTTTTGTCCTTCATTCTGTTAAAGTGATGTATCACATTTATTAATTTGCTTTATGTTGAATCATTCTTGCATGTCTGCTATGAATCCTTCTTGACCATC
0.9133842332759244 CTGGGAGACAGAACAAGACTGTCTCAAAAAAACAAAACAAAACAAAAAAGAAGAGAAGTAATATATGAAGAAAGAATAGCTGGGAACTTCTTGGAAATGATAAATAATACAAACAATACCAATACAGTTTTAAACAGCCCAGTGAATACTGAACAGGATTCACCCCTAGATGTGTCATAGCAAAAGTGTACAATAGCAGTAACAACAGCAATTATAAGCAGCCAGAGAGAAAAGACAGAGGACGTTAAAATGAACTACAAGTAAACAAATAGTTGACTTCTTAACAACTACAAAAGGAGC
0.513871897657068 TATGCAGTATTTGGGATATATACTAAAAAGAATCCATTATTTAACTAAAATTCAAATATAATGGGCAACCTATATTTGCATTCGTATTGTGTCTTCTGATGCCCCCTCTTTCTATGTCTTTGACAACATCTTCCTTTGTTCTTTGGATTGTCCTGTTTCTATGCCCAGTTATAATGCCTTTGTCTCTTAGGACTTAATAATGTCTCCTGGCTCCAGTCAGCTCCAATTTCTTAATCTTTTCAGTGTTGTCTGAAAAAGCAGCTCAAAGGAAATTTCCACAGCAGAACTTGACATCCTGTG
1 GATCATTATTTTGCTTTTCTTTTCTGGAAATGAATTGATTTTCTTTTCATTTGGGATCTGTTACTAAAGAATTATTATGTTCTTTTGGTGGCATCATATTCCCTTGCTTTTTCATATTTCTTGTATCCCTGCATTGATGTCTATGCATCTGGTGAGACAATCACCTCTTCCAAACTGTCTAAAGTGGCTTTCATAGAGAATGACTTTCACCTATATTTGCATTTTAGTGTGCTGATTGGTGACTCTGTTTCCAGACTTCTTTAGCTGCATTCAGCATCAGTAATAACTGTGTGCGCTTCA
0.7832146273496186 AACCACAATATTATTTTTCCTTGAAGAGGTCTCTTATCATAGAACTCATAGATGAGTCAGAAATAGAATACATCAAATAGGTCACTGTGTATTTTCTTGTTGAGCTCACAATGCCACAAAACACCCTGCTGTGCTTTTCATTCAGTCAAAAGACCATTATGTCAATTCCATTCATTTATTCATTTGCTGCATTGTTTCTAAGACTTTCATTTTGTGTAGCTACCTGAAATGTCTCTAAGCTGCTATGATTTTTTTAGTGGCCCATACTTCAGGAAACTGCTATGATTTTATCAGAGCTCT
1 CGTCACTGCAATATATGCCTTAAATATATCCACATCCAAAAGTTTGCTCCTGCCTTCTTTATTATTGTTACATTTTGAAAAGAACACAACATAAGATCTACCCTCATTCCACATGGTTTAAGTGTACAATACAGTATTGTTAACTACAGATAATATGCTGTACAGTAGATCTCTAAGATCTATTCATCTTGCATAATTTTATCTTTGTTTCTTTGACTAATTCCTCTCCATTTTCCTCTTCTAGTCACCTGGAAACAACTATACTATTCTCTGCTTCTATGTTTCCTCATCTTTAATGTT
0.6254313163414008 TGTTTAATCAATCTGGAGTTCAGAAAGATATTATTTTAAACAATATCTTCTTCAGTCTACATTTTGACTAAGTAACAAGGCAACATTTGTAACTACAGATGTTAGAAAATGAAAATAAAAAATAACAAGAGCTAACATGCATTGAGTGTTTACTGTGTGCCAGGTATTGTTCTAAATGCTTTGTATGTTTCAACACATTCAATCCTCACAACCTTCCTATGAGTTAAGTATCATTATTTCATTTGGCCGATGAAGGAACTAAGGCACAGAGAGGTTAAATAATTTGACCACTATGACATT
1 ACAGACTAAACTTCTGATTCTTCAGACAAGGTGCAATAACTAGTTTACATGTGCTCTTTGAAGTAAGGCCAGTTTTCTAAGCCATTTTGAAATCCTTTTTCAATGACAATGCTAAGGTTCTTTTGTTTGTTTGTTTTTGTTTTGGTTGTTGTTGTTTTGTTTTGTTGTTTGCCTCTTCCAACAAAAGCCATATACTATGTATTCCACAACAGAAGGGAGGAAAAGAAACAGTGCATTGATTGCACCCTGAGGTCATTTTTTTTTTCTAATGAAAACACATTATTCCAGAAAAAATATCTC
1 AACCAGAGATAAATAGAATGGTTTTCTCTGCCATTAAACAATAATTCTTGAAAATGACTTTTTTCTTTTATGTGGGGTAGAGTAAATCCAAATTATGCAGGACAAAGTTTACATGCACAGTAAGTGATCTATTGTGGTATTGTTTGCATTTTTCTTGGTACAGTTTAATTTATTGTTGTAACTGCTTCGCTATTTAGGAGAATAGAATTGGTTACCAAAGACATTGTAAAACTGTTCTATAATACTGTAGTACTCATTTAATATACATATATAAATAGTTTTACTTTTTAATTTAACTTT
0.9101067033642319 TTTTTCAAGAGTTAAAAAGGGCAAAAAATAAAAAGGACATAAATAGGATATTGAATAAAATGTCTATAGACAATTCCTACCTATATGCCTAAATCACTTACAATCAAAATGATGCCACTGATATACAATTAGTGACCTTACTTTGCTTTCTGCCACAAAGGACTCACCTAATTACCATGATCACACTTCTCTTTTGTGTTAATCCACTTCTATTGTTAGGGTTTTAACTATTTTTAAACTTCTTGACATAAAGTAATCCCTCAAGTAATAATATTCTAATTAAGAAATTTACATTAACTC
0.2658897043694075 ACACAATCTAAGTAAGTTACTTTGTGGATACAGACAAACTAATTCTAAATTTAATGTGGAAACGTAGAAGACCTAGAATATGCAATACACTGTAGAAGGAGAATAAAATAGGAAGAATACCTCATTTCAATACTTATTATCATGCTATAGTAACCAAGAAAGCATGATATTGATGAAAGAATGGTCAAATAGATTAATAGAACAGAATAGAGTGCTCTAAAATAGACCAACACAAACATAGTGAACTGATCTTTAACAAAGAAACAAAGCAATTTAATGGAGAAAGGATGATCTTTTTTA
1 ATTTTTTTCAAAATCCTACCAGCTGCCCTGACACTAGAAAAATTTTTTGAAAAATATGCATTGTAATAGATTATGAATTATGTATAGACATTTAAGGATATGTCCCATGGTCCCTTCTGAGAACAATATGTGCATACATGGTTCTCATTCAACAATAGACAGGGGAAATAATTGCTTTGAGAATATGAATGAGTTATTGGTCAACAAGGGATCAATGTGTGAGTTTGTTCAAAACAATATCTCAAGTTTACTTTTAAATAGATTGGGGAAAAGAATGAAAGAAGAAAGGCTATTTTTACG
1 ATGGAAAAAAATGGGAAGAACAGTACAAAGAACTACCATATTCCCTTCACCCAGATTCACTAAATATTAACATTTTGCCACATTTGTTTTATCATTCTTTCTCTTTTGTGTGTGTGAGAGAATAGAATGTTTTATTCCAACCATTGAGAATAAGTTGTATACATTATGCTCCTCTGTCCATGAATACTTCAGTGTGTATTCGCTATGAATAAGGACACCTTTATATAACCACAGTACAGTTATCAACTTCAAAAAATTCAACACTGACAAAAAATCCCAACATTTTGGATTTTCCCATGT
0.9528123487385254 GTGAGAGCTTAACCTTGATCCCTTTAAAACATTAATGGGCTAGAAAAAAAACCATTCATAAACCAGTGCCACCTCTGAATTTTGCTACCACAATTCCCTTATTTACCAATAGTGCATGAGCTAATTTGGAATAAAGAACTAGGCATTGTAGCACAACAGACATTATGTGGGCAAAGTGTTGTTTATATTCTGTCTAAATAGTGCTTCACATGTATGTACTATTTTCTAAATATGTATAGATGCTTTTGTGATTAATAATAAAACATGAATTCTTAAAACAATTTTGCTGACTTCATAGTA
0.8572052305282939 TTGCCTGATACCAATTTGCCACAGTGACTACTCTCCATGTTCTTTTCTCATGCATTTCATCTCCACTATTTGTCACTTGTGAACTTATAAGCAAAATAGCAAGTACTGTTTTTATTCAGCAATACTCAACAGTATAAAGGATGTATAGTCAGTCACTGAAGTTAGTAACATACAATGAAGTTCATTATTTTGAACTATTGAGGTTAAATTGCATTGCAACATACTTATTAATACAAATGAACTTAACCCTTGAATTAATATGTATCTAAACAAGTACAAAAGTCTGTTGCTGTTGTTTTC
1 TCATTTAACATTTTAAGAACTATTAGTTACATTTCACACTTCTTATTATATTCAATAGAAAATAGGTTAAGTGTCAAAAGCACACCTCTAGTCAAAAAGTGACACATTAATACATAAGTGCATGAAAGGAAAGCACGGACAATTCATTTGTACAATGACAAACGCTCAGGGTTGAAGAGGTTTACAGTATTGTGACTTGTCTAGATAGGATAAAGAAACGTATTTAGCGTCACACATTTTTGTACTGTATTTAAAGAGCTCTGCAGAAAGACGGTGTCAGGGAACCTGACAATTTGGAGC
1 TATTAAAATGTTTTTGATTCATACAAAATAGAAATTTTGAAGCTAATAAAAGCAGGCTCATTGAAATAAAAAACTCAAAACACGGATAAACTCTAGACCAGACACAGTAGGAACTGCCATAGACTGCTGAGGAATTAAGAATGCAACAAAGAACAACAAAAGGATGAACAAAAGAGAGGTTAGGTGATGTGGTTAATTGAGAAGCTCCACAACTATCTAATAGGCATTTCAGAAGCAGAGAAAGAGGTATCAGTAGGAAGGCAAAGACATAATGACTATTTTCCCAAAGTAAAGTCTTGA
0.3735009249295719 AGAAAACCCAAGTTAGAAAGTATTTCAAGTACCTAGTAAAGATTATCTTAGCTATCTTTCAGAAGATATAAACCTTTATTGAGGAAATTTACTACCTTTATATCCTCAATCCTTCTGTTTGAGACAATAATGGCTAGATAATGGCAATAATGGCTGTATCTCTTCCTCAGAATAAAAGTATACTCTTTATGTTTTCTTTTATTATTAACTCTTAACATTTTAGGTTATCTAACAGTATATCCTATTTATGGAATTGTTCTCTCATTAATTTCTAAGATTCTCCCTTTGGTTAAATTGTCT
0.8039568877597197 ATAGTGTAACCAATACAAGCTGGTTAAGAATTGTCTTTCTGTGTTAAAATAGAGTTGTATTTTACACACTGTGAATAACCACAATAACCATGTACTATTCTTTTAATCAGGAAAAGGGTTATTATATACATGTACACAATGTTGCGGAACATGAACAATTCCTACAGCAAGCAATAACTGCAGTCTTTTAATATAGCCTGTGTCATACTATAAAAAGAAATTCCAACACAATATATATATGTGCTATCCATTAAAATAAATAAACTATTAAATGCTATACTGTAACTTACTCTAACATTA
1 TACTGCTTCTTTAAGATAGTTGCTTTATGCTTCTATATTTTTTAAAAGGTTGTAGCTATGAATGTCTGTTGCATACTATGATGATTACAATGACATCAGTCTAAATGGCTTTTGAATTCTTGTATTTTGTTGTCATAGAAGCAATTTGAATACAATTGAAGAAAGTCTCCTTTTACCAAAAAATTCATTTATTGTGCATAAGTATAGCACACAATTAATCACAGAATTAGTATGCCCTTAAGTAGCTGTAAATATATATAGGCATTGAACTGAATGGAACATCAAAGTTTATTTGCATTT
0.7757173418991253 TTTCCCACCAAATTTGGAGCTCCTCAAAAACAGAATACATGTGCTGTTCATATTTTTTTCTTCAGCAACTACCACATGCATGGTGCATAGGAGGCAATTTGATAATGCTGAAAGATAAGTAAACAGAACAATTGAGCCACGAAAGATGCTTCAGTTCTTGGATTCAAAGCTACAACAATAGGACAAAAAATATAAAGTCAATTGCTGGCATCTATGGTTTGAATAGTTCCTAAGCAAACATTAATAAAATATTATTTATAAAAAAGAAAATGAAATGATAATGCAAATCATACAAAAAAC
1 CATAAAACTCTCCATTATGCATTAGAACATACACAAATACTCAAGAAATTCAAAGGAAACCTGAAGATACTTAGGAAGTTAAGCACTCCATTCATGCTAAAACCTTTTTAGGCAGGAAGATGAATAGGTTTTTTCATGCAAACTAAATAGCTGTGCATCACAACATAAGGAAGGCAATAATATCCTTAGAATGCACAATAAGCACTTTGGATCCTTTTTATCAATAATAACCAATAAACTATATTTTATGTTTGGGAACTATCCTGATATTGACACAGAAAAGCTGGACTAGAAGCAACT
0.5392877585716007 CTGCAAACTATCTCGACTTGTGATAATATTCTTTGCTTTTAAAATACTGTTGTAACAAGTCTATTGTTCAACAGGCACATTTAAAGTGTATTCCCTAGTCACACTAGCACAATGCTTGCTAAAATTTGTTTTTCTTTGGTTTGATTTTACTTTAAGCACCAATATTTGTTTACTATGAATGTAATTCTACTTCCACCAAATGGAATTCTTTCACTGAGCTTTTATCCCAAAAGCTTACATGTTCAATTATTATTGCTCTTCTTCAGTTTCTAGGTTTTGAAGATTTTTTTCCTTCCAAAA
1 AATGTAAGTGTGTCTTTTAAAAATATCTTTTTTCTGTTCATTCAGACTTAGTTTTTCTGTTTATTCAAACCCAGTTAACCAAAAAATAAAAAAAGAGAGAAGAGAATAAAAGTTAACAGCAAAAACAGCAACAATACACCTTTTCTTACAAGTCACAAAAGTAAAAACAGCATTGTGGCATCATACAAAGTCTGCAGACATACACTGTCACTCAATTTTAAATATATCATCAAGCAAGACAGGATTAAAATGGGTAGGAGGGTACAGAAACAGAAATTTTCGCTTCCTGGTTTGTCCTGG
0.4886338675278437 CTATTTGACTACAGTACTAAAGAAGTGTGGTACTGAAGAATAGACAAGTAGATCAGTGGAACAGAATAAAGAGCCCAGAAACAGACCCACATAAATATAGTCAACTGATCTGTGACAAAGGAGTAAAGGCAATACAATGGAGCAAAGATAGTCTTTGAACAAATGGTGTTTGAACAATTGAGCATAGATGTGCAACAAAATAAATCTAGACACATATCTTGTGCCCTTCACAAAAAAATTAACTAAAAATGGATCATATACCTAAATGAAAATGTAAAACAATAAAACTCCTAGAAGATA
1 TGCGTAGATAGATGGGTGAGTGGATGGATGGATGGATGAATGAATAAAACAATGAGTGAATAGATGGATGAGTGAGTGTATGAATGAATGAGTGAGTGGGTGGATGAGTGAGTGGCCAGATGAGTGAATGAATGAGTGGGTGGATGGGTGAGTGAATGGATGAATGAATGAAAGAATGAGTGAGTGGGTAGATGAGTGAGTACATGAATGGATGAGTGGGTGGATAGGTGAATGGATGGACAGATGAATGAATGAATGGGTGAATGAGAGTGAGTAGATAGATGAATACATGAATGAATG
1 TGTAATTTATTAAAAGACTATGATCATTGATAGAGACCTCATGTATTAATAGTGAGCTTGCTCTTAGTGTGCCCTGGGTATTTGTCTTCATTGAATGCATTTGTGACAAATTGAAGGAAAGGAGTGAGAGCAGGGTAGCTAGGCTTAATTGTGCTTTTTGAAAGGGCCCATTTATTCTCATTCTAAATAGCTGCTCACATCTATGCATTTACATTTTCATTGGTCATAATTTTGAAATAGATGCTAAGTATGCTGAGGTGAGTAAAAAGGAAAACAGAAACAGATAATATTTGGTTTTGA
0.5608193354860836 AGGGAGACAATGCATCCCACACAGGGAGACAATGCATCCCACACAGGAGAGACAATGCATCCCACACAGGGGAGACAATGCATCCCACACAGGGGAGACAATGCATCCCACACAGGGGATACAATGCATCCCACACAGGGAGACAATGCATCCTACACAGGGGAGACAATGCATCCCACACAGGGGAGACAATGCATCCTACACAGGGAGACAATGCATCCTACACAGGTAGACAATGCATCCTACACAGGGAGACAATGCATCCTACACAGGGGAAACAAAACAACAAATTTTTCTAAA
0.7233233676412375 GCTATGCTCAGTTTAAGCATTGTAATCTATAATGTTTCATTTACAATTGTGATCCATTAAACCATTTAGTGTCTCTGAATAAAATAGGAAAGGAGGTCATTGGAGGTCAGAGCTGCCAATGGTCTATTGTAATAATGAAATCATCTTTTCACATAAAGAGTAGAATCACTTCTTTATACTCTACTGTCTCCTGTGAACAATACCAGATTTAGTTGGGGTGGAGGGGAGTAATGAAAGCTGCATATAATTAGAGGAGAACTCCCCAGAAAGAAGTAGTATTGACAGTGTTGATGAAACACA
0.9980680711617389 GAGATTTTCTTATTTGAAATACCTTGTGGAAAACCCTTTTATCCCAACTGACAGAGCTCTAATTCATTCTTTTTTGATGACTGTATAATGTTCTTTGGTGGATCCAGTTGATGATCACTCCCATTGTTTCCATTCGTTGTTGTCATTGTTCTTGGTTTTTGCAGGCAGTAAATATCCTGTACCATATTCTTATGTATTTGAGCTTTCATTTATTTTGCTAGATTCCCAGAAAGGGAATTTGAGTGAAGACAAGTGTATTTTCGTTTTTAATGAATGTGGACACATTGTTTATCAACAAGG
1 TTTCCATTACAGTAATGTTACATATTAATGTATACCTTTGTGAACCAAAGTGTTTGATACAACTCTTCCTTCTGTGTTTGGTAAACAACTCATCTGTGGTACTGAATACTTGTAATCTTTCACCAGGATGGCCATTTAATGTTTAGCTGCTTTGTGGGATTTCTGAATAGATCCTATTGTACTTTTTGAATTAGTGCAGTTATCCATATGTTTCCTTTAATATTCTTTACCTTTGATTTTGTCTAAACTCTCATCCTCCCCCAACACACACATCCTCTACAAATAATTTTTAAAATGGAA
0.2941512631740486 TCTATGTATGCTTGAAAAATGAGTAATTTATTGTTGGATAGAGTATTCTGTATATGTGTGTTAGGTCTAATTTGTTTACAGTTTTGTTCAAATTTAGTATTTTCTTATTGATGTTCTGTCTGTTGTACCTGTTATTGAAGGCAAGGTATTGAGTCTTCGACTATTATCTCCCTTGTATTCCAGTATGTAGAACTATTTCTTCCTTCAATTCTAGGAATGTTTGTTTCACATATTTTGGGGTTTTGTTGTTTGGCACATAATTTATAATTGTTATATATTTTTGATGAATTGACCCTTTTA
1 CCATTTCAGATGCTTATTTTAAACTAGGAAATGCAATTCCTAATATATTCAACAGAAATGTTATTTCTTTCTCTTTGCACATTTCCATATGTAATGGTTATGTTTCCATCTACTTTTACAGCCAATTATGAAGGAACAAAAGCTATTCTGTTTGTTCACACATTTTCAACAAAATGCATTAAAACTATTATGTCAGCATGTTCTATTAAGCTCTGCATTCAGTGGAAAATACTTTTCAACCAGCTCACATTTATCAAAACATAAAGCCACTTTAAAACACAGTTTTGCTTGGTCAGCTGG
1 AAAGGCTACCTCACCATGGAGTTACCACAATTCCTTGGTTTTCTTCAAAAAGGTATTAATATTTTCAAAGGACATGATTCAGGCAGCTTAATACAGAAAACAACGTCAATGCAGGAAAGAAAACAATAGCAACAAAGAGTGCAATAGGACACCAAGTCCAATACCAGCAGTCACTGCTCCAAATAATGTAATTTGTAAATCAATTAAAAGCTGCATTCATAGAGATCAGGCACTCATTCAGTTTACCAAACATAATCAAATTACACTTCCAGGGGGAATTAATGTCACAGTATATTTAGT
0.807593111924738 TGTCCAACATAGTAATGGCAAATCCAGAATTTCAAACCAGGTCTTTTGGCTTCCAGTTCAATGTTCTTTTTCCTATATCCCAGTGAAGTTCTATTTATAAGACACAAACACCCCATTTGTCCCTTTACTTAGTCCTTGTTCATTTTTTAAACATCTATTGTGATGTGCTAGGCATTGTTCTAAACAGTTGGGACACATCAATGAACCAAAGATCCCTGCCCTTTTACAGTTTACATTCTAATACACACAAAAAAGGATAAGAAATAATATAATAAATAAGTAAAATATATAGTATGTTAG
0.2049841297434351 TTTGATGTGCTGTTGGATTCAGTTTGCTAGTATTTTGTTGAGGATTTTGGCTTCTGCGTTGAGTGATATTGGCCTGTAGTTTTCTTTGTTGCGTGCTTGCCTGATTCCTCCCTAACTCATTCTATGACACCAAAATTCAACAGTGCATCAAAAAGACAATTCATCACAATTAAGTGGACTTTATTCCAGGGATGGAAGAATGGCTCAACACACACAAATCAATAAATGTGACTCACCACGTAAACAGAACTAAGAATGAAAACCATGTGATCATCTCAACAGATGCAGAAAAAGCATTCC
1 TTAGGATTATGGCCTCCAGCTGCATCCATGTTGCTGCAAGAACATGATTTTATTTCTTTTTATGGCTGTATAGCTTTCCATTGTGTGTATGTTCCACATCTTCTTTATCCACTCCACCATTAATGGACACCCAGGTTGATCCCATGTCTTTGCTATTGTGAACAGTGCTCTTATTCACATAAAAGTGCATCTATTGAGAACGGGGTATTCATCTCCTCAAGTATTTATCCTTTTTGTTTACAAATAACCCAATTACACTCTTTTAGTTATTTTTAAATGCACAATTATTATTGACTTTAC
0.9053577205951557 TTTATTACCATGGATAATATAATTTTGATTGTAGAAAGCTCATTTCAGGATGAGCTCAGAGAATACAGTGAACTACTGTGTCAAAGACTTTGAAAGGCTGCAATAAATAAAAGAGAGCTGTGGTAAACAATCTTCAGAAGATCATCTGTCCCAAATGCATTGTCCTGATTTCTTATGTTCCATTCATAGCTTAGTGATAAAAGGATGAATGGACCCACTCTTGATTAATTTTACTTTACATTAGGGGGGCTAGAAAATCAGATATTCGTTTTCATTATTTATTGGCTTTTTTCTGTAATA
0.859542042854977 ATAACCACAAAGATAATAAGCTATAGAATATACACAAAAACAAATGAGAAATAAATTTAAACATTTCATCACAAAATGCCAACTAAACATAAAAGGGCAGTAATGCAGGAATTGAGGAACAAAAAGTACTAAAGGGCACATAGGAAACAAATGGTAAAATGACAGAAGCCCCTCCTGATCATTCAAGACTTAATAAAGGAAGGAAATACGGACATATGCTACAGTATGGAAGAAACTTGGTGACATTGTGCTGAGTAAAATAAATCAGTTACAAACAAAAACAAATACTGTAGGATTCCA
1 TATTAATGTATGTCTTCTTTCGTTATCTTCCTATTTCTCTGGTTTATCAGGCGATTTGAACTCAAAGCAGGGAGAACAATGTTTTACTATGACGTCAGTGTTTTAGGAAAAAGAGCCAGGAATGTGAAAAGTAAGCTCTTTGCAAATACAATGATGTCATTGTTGCTGCTGTTGTGCTTCTAGGATAAGTGTGTGATTGTTAATTGTGAAAACACAAATAGTAGTGGATACAATTTTTCTTAGAACAGAAGTGCTATGCCACTAAAACACGCATAATGGAGATTACAAGAACAATCAACA
1 ACTAACAGATCAGAACATTATTCAGAGAATATAATGCTGGTAACTTTCATTGTAGATGCTAGACACTAAGTACTACACAAATGGGTAGGAGGCACAATAGCGTCTTAAACATTTGATGAACAAATAACATAAAAGGTGGGAGTTAACCACCAAAAATAATACAATACTCTTTTCATCCTCCTGTCATTCTCCTCCACAAAAAATCCACAGCAATGATGAATAGTGTTTGTTATAGTTCTAATAATGTCATTTGATAGCAGGTTTAGGTTTTTCCTGAATCCAAGGGCTTTACATGAGTCT
1 TAACCATGGCTTTACAAAGAATTGGTTTAAAAATACTTGTTTGCTTAATATTAGACCCATGTTAAAATGCTACCCCATTCAAGCAGATGCAAACTAAGAACAAAAAACAAAAGCATCCACTCAAAAACTGAGTCACTGAATGTCTCTTTACAATGTCCCGCTCTCCACTGTGCTGAAAAAGACACAATGAGAAGAAAAGAGAAACACAAAAGGTTATCAGGAAAAAAAGCACTTATTGATTCCACATCCGATCTCAGACAAAATACCGAAGATATCAAATAGACTGACACCTAGTTTATT
0.4319942668295213 CTCATGAATATTATCATATTATATATAATGGGAACACTGGAGGAAACTATGCACTATTGCTACCCCATTATAAGTATTTACTATTTCAGAATATTTCCTTGTAGACACAGTATGATTACAAACATAAAACTGTAGCCACATTGCAATTGTTTAATTCAGAAATACAACAGATTGTCCACAAAACATACAATTTGATTATCACTGATGGCAGCATTTGCATCTGCTAAAAATAAATCCATTGAACTTGTCTTAAAGCCCTTTGAGAAAGTGTCTTTTTACCCTCCAGTTACAAAGTAATAA
1 TGAAACATATTTGTGCTTTTTAAAAAGTTTTAGGTGTGAGAGATAATTACACTGATGACATAGCATGATGACAAAATTTTATTTCTAGATCCAGTCTTTCTACCATCTCAAAAGTCATAAAAGACACTAGAGCAATAACCATATCATTAGAACAATGGTAAAAGGACAGGCACCAAATGACAAAACAATGAGCATTCAATTTAAATCAAAGAAAATCTGACTTAAGGGTGGCTGAAGACAGTGGTGGCAGCCCACTGCATGCCTCCTTAATACAGTACAAAACAGACAAAATAATAAAGA
0.6740356690716657 TAACAAAATAAGTTAAATGTGGTGTAAATTAGATCATTTACAAATAATAATTTGTTAGCAGCTTTTAATAAGTAGTATTTTTCCCAACTGGTGAAGTATTAATGTTGGTAGTTGAAAACAATAGGAATGTATGGAATATATGGTTCACTGGTTCTTTTGTTCCTGTCAAATAGTGGCACAATGGATCTGGGGTTTTTCTCAGTATAATGCTGGCATATTTGTTTCAAATTGTACATAGACTCTAAAAAGTTAGGCTTTCAAATTCTGGTCAATATAGTTTGCTTTAAATAGTAGCTGCCT
1 TGGTTGTAAGGATTTAGTAATTGATATCGCTAATACTTTGAAAATGAAGCATTTTCTGTGCACTCAGCCCACCAACATCAGAGACAGTTTAGCTCAATAAGAATGATAGAATAGGCTGCCTTAAGAGATGAGGAACAGGACCATTATGCTGCTACTATTTCAGTGTCTTTCATCTATTGTGTTTCATCTCCTCTCGTTCCTCAGATTCTATCCTATAAGGATTCTTGATTTGAATTAGTGAGAAAAGTAGTGGATAGTGTATGTAAAATATTTTTAAAATCTGTTTTATCTTTTTAAAGT
0.4031999353259855 CAATGATAAAAGGATTTGTTCAACAGGAAAATATCACAATACTAGATATATATTCACCTAACACTGGAGCTCCCAAATTCATAAAATGATTACTACTAGACCTAGGAAATGGGATTGACAGCAACACAATAATATTGAGGACACTTCAATACCTCCACTAACAGCACAATTCAGGTCATCATGGCAGAAAGTCAACAAAGAAACAATAGACATAAACTATGCCCTAGTAAACTATGCCATAGTTTTCACAAACTATGAAATTAACAAATATTTACAGAACATTCTACCTCACAACTGCAG
0.3230857644207997 GTAAGGTAAAAATAATTTAAGTGTAGTATTGGCATAGAAAGAGATTAACAGAAAAAAAGATTCACACAAACACAGGAATAAGACACAATTTGATAGAAGAGTTACATAGTATACAACAAAGGGGGCTTATTATAACTAGGAAAGGAAGGATGGCTTAATACCAATTGTTGAGACAACAGGCAATGGAAAAGATAATTCCTATGATATCATCCTATATAAAAATTGCACTGGTAGATTAAAGACCTAAAAATAAAAAAGAACAATGATTTTTAGAAGAAAACAGAAATGGTAAGGAAACTT
1 AGGTTTGGAGTTTTTCCTATTTTCTTATTTGAAGCTACGGTGAAACAAAGCCTTCTATTTTGTTCTATAAAAATCTCCCCCACAAACCTCAAGAACACAAATGTAAATGCAATCAGGTATTAGATCATGCTGAGAATGTAAACCCAACACAAAAGCACCTTTGTTTCCCAATTTAGTGTGTCTTTTAAGCTCTACTGTGGGTGATTTATGCACTGCGAAGAGGAGGATGTCAAAATGATGCTTTTCAACAAATCTTTATTTGGAGTATATAAAAGTCAGTGAATACAGAAGGCACACTAT
1 TCTATTTATATCTTATTGTATTGTCTACATCTTGAAAAGTTGTGGCTATTATATTTGATTGATTCATTGTTTTGTCTTTCTACTTAGATAAGAGTAATTTACACACCACAGTTATAAACACGCAGTGTTATAATTGTCTGTGTGTTTTCAGTGTACTTACTATTACCAGTGAGTTTTGCACTCATTATTCATTATGTCCTTTTCTTTCTCAGTGAAGTATTTCCTTTAGCATTTCTTATAGGACAGGTCCTATAATGATGAAATCCCTCAGCCTTTGTTTGTCTAGGGACATCTTTATTT
1 GCTATTCAGGGTCTTTTGTTGTTTCACACAAATTTTAGGATTGTTTTTCTGTTTCTGTGAAGAATGTCGTTGGTATTTTGATAGAGATTGCATTGAATCTGTAGATTTCTTTGGATAGTGTGACCATTTTCACAATTTCAATTGTTCCAATTCATGAACATGAGATGTCTTTCCATTTTGTTGTGTTCTCTTCAATTCTTTTGTCAGTGTTTTATAGTTTCCCCTGTAGGGATAATTTACCTCTTTGGTTAAATTGATTCTTAAGTACTCTATATTATTCGTTGCTATTATAAATGGGAT
1 ACCTTTATTTCCAGGTATTTTGTAAAGAAGTGTTTAAATTTCTTCACAAATTGAATCTCTGCCTCTTTTTTGTTGCTATTGCAAATGGGATATCTTCTTCCTTTGTGTCTTCTGATTGACTATTGTTTGCATACATGAAAGCAGTTGATGTTTATTAATTCTTTACCATGTTATTCCGTGGAATTCATTTATTGTTGTCAGCAGTCTCGCAATTGATTCTCTTGGTGTTTTCAGTTACATAATCTTTTCCCCCAAATACTGATAGATTTATTTCCTCTTTTCCACATCAATGCCTATAAG
1 AAGAAAAGTTATCTTTCTGGTAGTCTTACTGATCAAAAAAACAAAAAAAAACAAAAAAAAAAAAGAAGAGAAAGAAAAGTTATCTTACCCCATCATATTAATGCTGCTAAACAAAGAAAAGACATAAAGCTATCAGAATGAACATGCATTGTTACTTCTATGGACTACAGAGATAAGTATTATCCTGTGGCATCTAAGCTCTGATATACCATTCAGATAGAAATACAATTTTTAGAACAAATTCAATTTTGGGATTGTTCTGAAAATAGTTTTGTTGATAGATGAGACCCAGAAACAGTT
0.4939640815240436 TATAGTCATTCTAATAATTGCTTATTTTTATACTGAGATATGGATAAAATGAAAAGAGAGGTAAGAGACAGTCCTGACAGTTAATTTTATTAAACTCATGTTCCAGGAAATAGTTCTTGGTTAGGCACAATGTTTAAGAACAATAACCAGAACAATGACTATAACAATGATGATAATAAGGCCCAGAATTGCAAGTTTTGGCAGCCTGACAATCTGTTCTTATGATTTGTGATTGGACACATTTTTCTCAAAGTAACAAACTGCTTGTACGAGGCACCAGCAGAATCTTCTGAACATCTG
1 TTATTTTGTTGTCTAAATTAATCTGCATAATTTTTCTTCAGGCTTTTCTTCAGCAAAATGGATCAGCCTTTTGGGTTCTTTGTTTTGTAATTTTATGTTGTTTGGGTGCAGAACCAAAGCTTAAAAACTTTGTATCTAGAGCATATGGCATAATAAACACTTAACAAATATGTGAATGAATGAATGGATTGAATGAATGAACAAACAAAATTGAGGTGAAGCAAAAGCACTGATGTCATAGGGTGTAGGGTCTTCAGATGTAGAGATTTTTGCAGTTGGCCTAGTAAAATGAACTTGAAG
1 AGTTTGCTAAAGCAATTACTCCACCTGCTGTGATAGAATTTAGCTACTGAATCCAGAATTGGGCTGCGACCCCTACTTAGAATGGAATCATTCAGCCATAGAGGTGCTAAACTATTAACTACTACTCTTGGCTTGCTGAGTTAACAAAGCAGTGCATTCATAATACTGCCATTGCAGAAACAATGATACTTTTGAAAAGTATGCACAATAAACAGGTCATAGTCTGACTGATATGTCATTTGGAGACCATCTTATCAATTGTGTTTCCTTCTTCAGTGCTTACTAAAGTACGTTCATCAG
1 TTTTGGTGGGTAGATTTTTAAGTACTGTTTCAATTACATTAAAGTATGATATATATCCAGAAAAGTACATGCTATATAATAATAGTCATACAAATGTACTTTTTGTGTTTATTTTGTTCAACATCATTTGAGAGATTCAGCCATATTGTTGCATGTCATTCTGGTTCATTCATTCAAACTGCTTTATTAGATTACAGTATGTGAATGCACCATAACTTACCCATTCTATAGTTGATGGGCATTTGGGTAGTTCCCGTCTTTGACTGTTGGAAATAATGCTGCTGAGAACGTTCTAGTCCA
0.8460462188499447 TGAAAGTTTGTTATTTTAAAATAAAAGGTTAAAAGAATATATCGAGAACTCTTACAAATAATAAGAAAAACATGAATGATACAACATAAAAATGGAGGTGAAACATGAACAAACATTCTGCACAAGAGGATATACGTGTGGCAAATAAAGCCACAATGACATTTTTGACATCATTGGCAATCCCAGTTAAGACCATAGTGAGGTACCATGTACCGTTTTGCATTTAACTGCCAAATGTTTTAAAATCTGAAAATACCAAGTGTTTGAAAGGCTTTGGTTTCAAATGATTTGTTATACATT
0.4023257996177462 TCTAGTACACACAGCTTTCACATATTTAATTAAAATCAGATTGTAGCTAGAGCTGCCAGTGAAAAAATGAAGCACTGCCAGACAGGAGTGAGAATGACCAAACAAAATAACCTATTTTCACATAGTCACCTCAAGGGTACCAATGCCTGTGTTTTAACTGTGAAATCACAGTCATTGTTCTGGTGAACAATGGCACAAAACAAGTTAAGTCCAGTGTGAAAGTTCATTTTCCTCGAGCTGAGCAAGAATATTTTGAAATCCTGACAAAAGTTTATTTATTAAGAAAATACATACACTTGA
0.7325059322047245 ATTAGGCATCAGTTAAAAACAAAATAAAACTTAAAAAGTACTTTGTGATAAAAACAACGATTGGTTGAGTGATTGAATAAATGAATGTGTACATGACTTCACTGTAAACGGCATTATATCAATGGACACATTCAAGTCATTCATTGATCAGCAAAGAACTTCCTTTTATGCTATTTTGAAAGGTGTCTTTTTGTGTCTCTTATGGAGAATCCTCTTTTATTTCAATACCTGACAAATGAGTCACACCTCAACTGTAATGAAATTTTCCTTTTACTGCCAATTCTCTGTTCCTGATGGAAG
1 TGTTCCTTTTACATCTTTTTGACCAAAATGGAAATCATCAGAATATTATTCTGTGGAAAAAGCCATCCTCTCTCATTTTTATCTTCACTGAGTGAAAAAGAAATGCTACATTCTTCTTCATTGCGTATTAAATGCACTACATATAAAGGGACAACAATAAAAACATTCTGATACCAGTGTAAGAATTGAGAAGAGGCTCCACAAAACAAGACAGCCTCAAAAGTAATCTTTGTATACATATGTGTATGTGTAATTTGTATATGAAAAGGTAGCACCACAGTCAGTAGAGAAGATAAATGT
0.1162381003599579 ATATAAAACCAAAAATGAGCCTGAATAGCCAAAGTAATCACAAGCAAAAAGAACAGAGCCAGAGGCATCATATTACCTGACTTCAAACTATACTACAAGGCTACAGAAACCAAAAGAGCATGGTCATGGTGCAACAATACACACACACAATAGAACAGAATAGAGAAACTAGACATAAAGCCTCACAACTACACCCAACTGATCTTTGACAAAGGTGACAAAAATAAACAATGGGGAAAGACCTCCCTATTCAATAAATGGTGCTGAGAAAACTGGCTAGCCATATGCAGAAGAATGAGA
0.9443762039166765 TAAAAACTCTTTAAATATTACATTGTAGTTTTAATTTGTTTCTGACATCTTCAAAGTTTGAAATTTTCCCTTCAGCAACAACCATTTGTTAGCTACATTCACACGAAAGCAGCTTAATAAAGGACATTCTACACAAAGGTAATTATAATCCATTGATGCCCCTTAATGCAAGCTGCTTTGTAGTCATTATCTAGCAGTAGATGACTAAAGAACTTGATTATTCTTGTTTTTCATTTTTATTAAATTAAGAAGGTTTTTTTAAATTATGTCATTTTGCAAATGGTTCTTAGGAGTAATGCC
0.8929781619478652 TTTTTCATTATCTTGTTTCTTTTTTGTATTTGTGAAAGGACAACTTGATATTTTTGTCTCTTATTGGTATTTCTGTTCTCTTCTTTACACATAACATTCTTAGCTATGTGAGGCACTGCATTTATCCCTGCTCTCTTTTGTTGTACTTAGGACCCATGTTTCAATACTTTCTTTGATCCTTTTCAATTCAGCTTTCTCATTTGCACGGACATTACAATCTTTCTTACTAAGTTCACCAGTGTCCTCTTAACGAAATGTAATGGCCTTATTACAGGCTAATCTTTATTCTCCTAGCCATTT
1 TTCTTGCTGAATGAAAGGATGAATGAATGAATAAAACCTGAAGTGTAGTTCAACTGTTGCAACATTATAAGCAAATGAAATTGAAAAAGACAGACCATGTAATGAGGTCAATGTGTGTAAGGAAAGCTATTCATGTCAGAAGAAAGAGCAGGTTCACATCACATATTGCGACTGTGGTTTCAATTGTTATGTCTAAACTCCAGAATGACTTGTTATAAAATTCTGCTTTTTGTGTTCTATGCCTCTAGTTTATGTTTTAAGATGGCATCACACTAACTGCTTCCCATAAAAAGAGTATTC
1 TTTCTAGCTCTATCTTCGCTGCTTTCACCGGAAAAGCTATTTTAACAGTTACAAAGTTAAACAAATAAACCAGCTTTGCCAGATGTATTTGTTGTTTACCAACAATGGCCGAACATTTCTTTTCTGGACAGTGAGCAAGTGTGTGTCTAAAAAGTGTGCCTGCAAGCACTAAAGAAGGAGGAATTGTTCTCCGGACAAAGATAAAAAGTGCTTCTTTTGGAGCCATAGAATGAAGTCATCACAGCTCCTTTCTCTCCTATCAGAAAAGAGACAGGAAATGCCATCTCTAGAGACCCAGAG
1 ACTTGCCTATAGCTGAAACTCTTTTTATTTAATGTTTCATGTGACTAAGTAGAGGATGTGCTATCCATTTCCACTGAGATCTACTAAGCTATTATTTGCCAAATGGAAAAGCACTCAGAGCAAATGATTAATAGTTGTGATGAGTGGTGGACAATGGGGGATTCTCATAGCCATTATTATCTTCACGAATGTGTAATACAAATGAAACATCTAAAGGTTTTCCTTTTGCATTCATAACCAGGTTTCCCTACTCTGATTTTTAAAACAAAGAATGTGATCTCAAAAGAGAATCTTTTCTTT
1 TATTAAGAATACCCAACATAATAATTCTCTGTCATTTGGTGGTCTTGCATAAATTGCTACCTTGATTGAAAAGAACTGGGTTAGACTGCAGGTTAGGAATGCAGGGAATAATAGTCAAGGCCACTTAATAGACACAATACATGGGGATCTTATTATGCTTTAATAATGAGCATATAAAAAATGAATAGTGAAAGGATACAAAACATAATGAATATGAACTTTTCTGGTAGACAGCTGTGATACACATCAATACATTTTGTGGTATTGATATGATATATATCATACCACAAATCACCCAGG
1 AGTGTATGCTTCCTCAGCTTCAAACTCATTCTCTTCAGTGGCTTTGTCCTTTAATCTTTTAAATGTATCTTTCCTACCAAAAGCAAACAAGCAAAACAAAGCCAAACCAAACCAAACCAAGTTAGCCAGTCAACCAAATGATGACAATAGGAACAATAACAACAAATGAATACCTTGCTTTGACTCAGACTGTCTCTGAGATGCTAGAACAGCTTTAGGAATGTGCAACTGTTTATGCCTTGCTAGTTTGGGATTATTTAATACATAATCACTAGCCTACTGATGCTAGCAAGTTGTATA
1 TTCTGTCGATAATCCTCCCCTATAATACTAAAAATACAAAAAAGCCTATAGTTCAAAGATTTTTTTTCATGATATAAAGCATAGTGTCAATGTTGAAGGAAAATATTTACTCAAAAATGTATGCAATATCACAATGGCAGCATTTATTCTGTATTGAGACAATGATAAATCACACATACACACATTACATATGCAATCTAGTAAAGTACAAGTTTTTATCTCATGTAAACTTCTATTTCATGCCCATGCCCTTTCATTTGATAGTAGTGTGAACAAAGATACTGATTTTGCAATTAAAAG
0.5250523965324116 AAAATGGAATTTCTTGTTAATAGGGCTATTTAAAACAATAGAAATAATACATTTATATATACTTGTAAAAATTCAAACAATAAATTGATGTAAAATTTAAGGTCCTTAAGTCTTCTTTTTACACACATCCCTTATAAGACTATTAACTCTATAGTGTATACTTCTTGAGTTCCTTTTGATGCATTTGTAAACATATACAAATACATATATGTATACCTATGTGCTATTTTGTACCTCAAAAACTTCAGTGAACTAAAAGTATAAGGTTGGATTGTGGGTTTTTAAAAAACTGTTATAATT
1 CATTTTTATGAGCATTTTTGTGAATTCTTTGGTGTTTTTAATGTAGACAGTCATGTCATCTGCAAACAGGGGGAGTTTTATTTATTCTTTTCCAATCTGTGTGCCTTTTATTTCCTTTTCTAGCCTTATTGTACTGGCTTGAACTTTCAGCATTATGTTGAATAAGAATGGTAAGACTGAACATTCTTGCCTTGTTCTCATTCTTAGGGGAATGTGTTTAGTATTTCATAATTAAGAATGTTAGCTGTAGGTTTTTCATAGATGCTGTTCTCCTTTATTCCTCATTAGCTGAGGATTTTT
1 AGGTCTAAAATCCAGAATACATAAAGAACTATTACAACTCAATAAGACAAATAACAAAAGTGAGCAAAAGATTTTAATAGTGAGTGGAGCAGAAATGCAGACATTTCACCAAAGAAGATACAGAAGGGATCAATAAGCACATGAAACAATGCTCAGCATTATTATTCGTTAGCAAAATGCAAATCAAAACCACAATGCAATACCATTTCACACCCACTAAATGGCTATAGTTAAAAAAAACAGATAATAATATATGTTTGTGAAGATGTGCAGACGTTGGAACCCTGGTGGGATCATAAA
1 ATGAGGCTTCTGGGGAAATAATCACACCAGAAGAGCTCAGGATCATATGTGTGTGAAACTTGGTGTTTAATCACCTGTGCATTCCTTTTGTGATATTCACTGAAAGACTGTTGGCCTGTGAAGGAGAACAATAGACTGGCTAGCGTTCACATTAATTGTTCCCTTGATTGACAGCTAAACAAAGGCTTGGTGTTATTCTTCCCAATAAAGGCCACAAACCTCCTACACAAATTGCTAAAGAGTATTTTTAAATTTATGAGTTTTGCAATACCAAGGTTAGATTTCATTGTTGTTGTGTGT
1 AAATAATTGAAATCAGAATTTCAAGAAAATATTTACACTCCCATGTTCATTGTGGCACTCTTCACAATCACTGTTTCCAAAGTTATGGAAACAACCCAAATTTCCATTGAAAAATAAATGGACAAAGAAAATGTGCATATACGTACAATGGGATATTATTCAGCCTAAAAAAAGGGGGAATCCTGTTATTTATGACAACATGAATAAACCCGGAGGCCATTATGCTATGTAAAATGAGCAAGTAACAGAAAGACAAATACTGCCTGATTTCATTTATATGAGGTTCTAAAATAGTCAAAC
0.8898773145376703 AAAATCCTTTTCCTTCTGTATATAGGCTATGCTCTTTCTTGCTATTCCCTTATTTCTTCTAACTGAAAGGAACATGAACTGTGAGCATAAGGACAAAACCAATATGGTTAAGGACAATAACACAAAGAACAAAGTAGAGAAAGCACAGGTCCCTGGTGGCATGAATGATCCACTGCACTAGCCCTATTCTGCCTACCTCAGCCTTCTTGTTACATGATAAAGACAACGCACTATTAATTAAACAGCTGTAGGTGGGATTGGTTCCTTAAAAATTATGTAAAAAGAAATCAAAATACAAAT
1 TTCACTTAATTCTTTTATAGAGAGAAGGAGTACACTCTAAAACACTGATCAATAGTATATTATAGTAAATACATAAACCAGGAACACATTTATTATCATTATCACGTATTGTGTATTGTACAGAATGGTGTGTGCTGTGCTATCCAGGAACACATTTATTATCATTATCAAGTATTGTGTACTGTACAGAATGGTGTGCGCTGTGCTTTTATGCAAGTGGCAGCACAGTAGCTTTACACGAGCATCACTAGACACATGAGTAGCATTGCACTCGGCAACAGGAATTTTTTCAGGCCCATT
0.6430506585310252 ATTCAACATCTTCAAAAAATGGTAATTTTATATCTTCTTAAAGAACTAGGATTAAAATGTGTTTTAATTCAACAGAGTATAAAAGGGTACAAGAAAGGCTAAGAAAATCTGAAGGAACAAAATAAAGAGACATTGTCTTCTCATATGTTGTAATTCATGTAACATTCAAAGAGTTAATACAATTGCTGCAGAGAATAACCACAATGCCTGGACCTATTAATAATTTGACAGGTGTGTGCCATACTTTTATTACTATTATGACTACTCATCTTCCATCTTCCCATTCACAAAATTCGACAC
1 TCTAAAGCAATATTTAAACATGGGAGCAAATACAATATGGTAAACAATCCACTGATGATGCACAGTGTATCTGAAAGGCAAAAGACCAACCATGTTACAAAAGGATTGCTGGAGTTTATGAGTTGTACAACAGAAGCTGGAGGACAAAAGCACTATTCAAACACTGTGTAACAAGCCTAATAAATCCCCTTACCCAAACCCTGAATAAGTAGCACTGATTCTCTGGTTTAGAAGCTGGGGCCACTTTTAATTTTTAACATAAAAGCATCACTAACTAAATTTAAGTAACTAAGGAAAGAA
1 CTAACTATTGACTCTGCAAATCTTTTCTCCAAGAAGTATGTGAGCAGATATTATACCACTATCTTTAACTTCCTAGAATGAAAAATTCAGTCAGCATTCAAGTGTTTGTACTCTCTGTAGTATCAACTATTTCTCCCATTGTAGCAATGAATGCAGTGAAATCTATTATCACTGCAATTGTTGACACAGAATGATTTTTCTTCATAGTGAGAAAATAAGCTTTCATCAGTCCCTTTAAGAGAACAGAGATCTAGTAATAGGCCAAAAGAAAGAACAAATAATTAAAAGCCACTGATCCTA
0.9002271480358303 CCCAAGCTGACTAAGACAGCTCCAAATACAATTGGAATAATATTTGTATAAACTCATAATAATTTTATCTTTAAAAACATGTATTTCTGAGCCCTGTCTATTGATCATGGCTAGCAATGACAACTCAATAGCAAAGAGAATGCCTATTGTCCTGACAGTTGTCTCTACTATATTCCACTAAATCAACCAGGGCTTCTTGGAAAAAATGGCTGATTCTAGATCTAGGGCAGAAATACAAAACAGGAGATTAGAACATCTTGTCAATCCAGAAAATGGGGAGGCAAAAGGAGAAAAAGTCTC
1 TTATTATCTATAGCTCAATGTGTTTCATGTCAACAATAACTAACAAAATAGCCTTTACTCCTCTAACAGGTTACAAATGTATATGAGAGTGCCAAGCTTTCAAAGACAAATAAACACACTCTGTAAAGTATGACAATAGAGGGCTCTTGCAGTTTCATATCTGACAATAAAAATCTTTATTGTTCTCTGAAGGCATGTGTTTACAAAAGCTAAAGCAAGTATGCTTTTCACTTTCTCCCCTACCATCCCTGTCAATTTCATCACCCACAATAGGGATAATTAGGAAGAAATGTTAATTGT
1 GTTTGTCTTATACCCTGCAACCTTGCTGAACTCAGTTTTTTTGTAAATTTCTTGGCATTTTCTACATAGATCATTATGTCACCTATAAATGATGTGTGTCTTTTGTTTCCTTTTCTTGTCTTTTCACACAGGGTAGACCATCCAGTACTATGTTAAATAGCAGTGGTGACTGTACACCCTTGTCTTATTCTTGTTCTTAAACAGAAAGCATTCAGTCTATCACCAGTAAGTATAATGTTGTATATCTTTCTAGATGCTCTTTATGAAACTGAGGAAGCTCTCCACTATACTCAGTTTTCT
1 AACCACGTTGGGTGTTATTTATCTCTTTATATGTTATCTCTCTTTATTAAATTATATGTTCTATGAGGTCAGGAACCTTGTCTTTCTGTGTGTCTCTTTCTCCTTTGTTCTTGTTTTTGTTTGTTTTGTCTTACCATTGTTGCCTTTGCACTAAGTATAGCAGACATTCAATAAACATTTTTTGAGCGAATGAATGAATGGACATGGCATTTGAGTAAGGTCTTGAGGTTGGGTGGGATTTCCACAGATTGATGGTGATGGGGGAGGGAGGCTAAGAGAAAACAGCCTGAGTAGAAGCTG
0.9681778552492776 CATGTGAGGCTTGTAACTGCTATTTCTACTATAGTCAAATGAAATGATAAGGAAACTCACTTAACAACAGCTTTACAGAATATCTGAGCTAAACACTTTTAAACCACATTCACTATCCAATTTAATGTTCACAATCACCTTGCAAGGTAGGCATTATGATCCCCATATACAGAATAGAAAGCCTCAGAATTTTAGTAACTTTGCCAAAGATCACAATGCTGCTAAATGGTATTATAAAGAACAAGGATAATTCACTATATAGAATAAAATCTTGATCTCGAAAAATGCTGAGACTAAAGT
0.9662026482472776 TAAAATTAGTAATAAATGCTGATTTTTAAAAATATCTTTTTTCTTTTAAGTAAGAACAACTGTATTCTTAAAGTAATATATTTTAACTACCTAATTTCCCTGACAACAGCATTATCTTACCCAGTATGCGAAGAGTATACTTTTTGTTCCCATTTGTTTCCAGAAAATGCAATGTGTCTTGTGTTCATTATAACAACATGATCCCCACAGTCACCTACATTTTAAAAAGAAACAAGATTTTGTAAGAAAAATAAAAACCTTAAGAAAAAGTGGCCTTGGTTATTTATAAAGCTTATCAAA
1 TTTTCTTGATCCTTCTGGACAGAATCCATTTCACTTTTCTGTTATTTTTGCTACTCTTTTTGTAATTATTGCACTTAATTTCACTTGTTCAGTGCCTTAGCACAATGTAGGACAGAGATGCCTTCTCTTGTTTGTTGCTGTATTCTTAGTGCTTAGTGTGACATTTGTGATAGAGTACCTGCTTTGTAAATATTTTTTGAATGATCAGTTCTGTGCTTCCAGCATGATGTTTGTAATCCCTCTCTCTCTTGTTTAAGTACTTTTAAATTTTGACTTGTATTGTTATTAACTTGTCTTTCT
1 GCAAGTATAATACAGGTCAGAAACTCAAGATTTTCATATAACAAAAGAAAGCACACTAGAGAGGGAATGAGGTAAAATAAAAACTCATTTTTCCTATTCTTAATTGATCTAACAGATAACAGTTTTTCAAAATAATAGCAACAATGTATGTGGTTATGTATACTTATATGTGTGCATTGTGTGTACATACTGCATATGTGCACACACGCTTCTGTATAAGAGAGATAAATGCTAGCAATGTTACAAGAGACTGGAAGGAGAAATTAGGATTATTTTGTTATTAAGTTATTCATAATCCCT
0.6117537254302414 GGTAGGTTGTGATAAGTTAAAGATGTATATTGCCTAGGGAAACCACAAAGCAATTAGAAATAGATGTATAAATAAGTCAGTAGTGAAGATAAAGGAATCATTTAAAAAGTACCCAATCCAATAGTAGGCAGACAAAGGGGAGAAAGAGGACAAAGAACAAATGAAAAAATAGAAAACAAAATCTAGCAAGGTGGTAGCTAGGGAAAGCACAAAGCAATTAGAAATAGATGGATAAATAAGTCAATAGTGAAGATAAACAAATCATTTAAAAGGTACCCAATCCAATAGTAGGCAGAAAAA
1 TTAGAACGAGTTTAAAATGAATCTTCTAGATTATGGGATATTTGTCTTGTTCTCACTACAATTATATTTGTGGTGGTATGGAATATCACTATCAAGCAAGGTCAGATAATTGATGATTCAGATGAGTAGCCTATTCATGAGCTTACAACCATTTCTTTTGACTACACTGCTCCCTTATAGCATTGACGTGAATATAAACATAGGACTTTTTTTGACCATGATTTAAGCCTTTTTATTTCCAAAATATAAAATTCCATTTCGCCCATTAGACCCGAGTTGACAAAGATCCAGTGTGAGGTA
0.3687538133458656 CCTAGTGACTGCTCTTTGAGGTGCTTTGTTGGAGACCATCAATATATTATTATTTGTGGACAGAGGCTGCTTCAGGACACATCTCTTGGTTTGAGGTGACGATTATGGATTATTTTGTTGCCTTTGTTTGGCATGCTTGGTAGTAGAAAGACTGCTCTGTGTGGTTGGAGCATTGCATTTGTTATTGATGCACAAAAGGACATTCATTATTTATTGGGTGCTATTGATTTTTTTTTTTAACTCTTGGGAAACAGGGATCTGTTCATATCATTAGGTTTCATTTAACCGTATTGGAAAGAG
1 AGCTTCATATAATAAGCGTGTAGTGAAAGCTGCGCCCGGCAACGGGAGGGTTCACATACTTCTCAAATGCCCATGAAAACATATTAAAAAATAATACTAGGTCATAAATCAAGCAAGCAACAACGGATTTCAAAGAATGGTTATCAAAGAGACCACATTCTCTGCCCACAATGCAAGTAAATTAACATCAATAAAACATCATACATGGTGAAACTTTAAAGCACACTTATAATTACCTCATAAGCCAAAAAAGAGATTATGAAAACTGAGCATATTAGAAAAGAATGACAGCAAAAATAA
1 TCTTAGATATAAGAAAGTTAAAATAGGATATCAGTATTATTATAAAATGCTTCTTAGCCATATTTAGAAACAAATGCAAACGATAAGCTAACCTAAGCTTCAAAGAAGGATGAATGGTGACTGAGAGCTATTGCTAGGTACATAGAAGGTCAATTTCTATACTGATTAAAGAAATACTTTCATGGACAATGGTGGCTCTTTCCTATGTGTTTTAGTTTGCTTTGAATCATAAATAGTAAAAGGAGAGAAAAAGTCAAGATTTATTTGTAGGAACACTGAAGCTGAACAGAATAGCCACCA
0.8052592966611467 TTCTAATGCTTGCTTCAATTTTTATTTTGTTCTTTTTCTAGTTTCTTAATGTTGAAGCATAGATTGTTGATTTGATACCTTTTTTTTTTGAGACAGTCTCAAATGACTTTTAATTTAATTCCATTATGGCTAGAGAACACACATGATTTCCGTTCTTTGTGCACTTGAATGTACATTCTGCACTTGAATGTACATTTTTGTGTAGTGTGTTCTATAAATGTCAAATCCAGTTGGCTATTAGTGTTGGTCAATTCTTTTATATCTTTGCTGATTTTCTACTTGTTTATTGATTACCAGGAG
1 AATTTCTATAAAAATGATAATGTTCAGTTTCCTTTTTTATGAAGAGTCCAAATATTGTATTCAAAATATTACATTTTACTGAATGGAGAGCTTACTATATATAAAGCATTGTACAATGCACTGTAACCTACATACCATCCTGTTCTAAGCACATTATATGCATTACTTTATTTAATTCCTACAACAATGCCACAGTATAGCTATGCTGAGGCACACAAGGTATCTAAATAACTTTATAAAGATCACAAAAACTCACATGAAGCACATATCTCCCCATAAAAACTTCAAACTCTGGTGTTA
1 ATTAGCAAGTTTCACAGTTTATCTATGGCTTTCCATCAATTGTTAGAAAATGGCATTTACATTCCTTAGTCAGTTTAACAAGTGCTTTATTGTTTAGTGATATTTGGACTTCTGACATCTTTAGACCCTTGAGGTTAAAGTCAAAATACTTTAAACAAAACAGCATTTATTCAAGTCATTCAGGGCTTAAAAAGCATTTTTCTCCAAAGAAAGGGATATTAGTGGTCATTTCCCAACCTTTATCCTTAGCATATTATAAATTATAGCTTGTAGAAAACCTCTTGACCAAATATCTTTCAA
0.993076052979875 TCTCTTCTGTTGGTTTATTAGCTATTACTAATAGCTTTTTGTGTTGTTTTGGTGGTTGCTTTAGAGTTTGTAGTACATACAACAATTTACCTCAATCTATCTTTAGGTGATAGAATACCACTTACATACTGCATAAGAATGTTATGCCAATATACTTCCATTTCCCCCCTCACAGCCTTTGTGTTATTGTTGTCATGTATTTTACTTCTACACATTATAAACTTCACAGTAAATTATTATATTCATTTAAATTGATCAATTATCTTTTAAAGATATTTAAATAGTAAGTAAAAAGTCCTT
0.9310063103431291 TAGTGCATAAATAGGACAAACCAAGAGTGTTAAATTTCAGCAAAGATGCAAATTATTTAGTGAGTTAGGAACTATAATGTCCCAGAGACAAAGGTAGGGAGACAGACATCATAACATATCAATAATAACATTATCAGACAAAAGCAACTGTATCTGCTCATCTAAGGATTTGTTCTATGTGACAATGACTGCTTTGCATATTGGTTGGCACTGAATCTTTCACAACACCAAAAGTTGAATCATCTTAGGGTGAAAGAAACAATAATAAAATAAACAGAATTTTTCTCTCCAATATCTTTC
1 TCATTTTTAACATATCTCAGTGAAGCCACTTTGATATACTCTTTGAAATAATAATAATAATACAAATAACTTATGAGAAGGATATATACAGATCTTTTGAATGCACAGAGGAGTGTGTATTAATTTCCATTCAGGACAGATAATGCAGGATGGCTGCAAAGCATTTCAAAAAATACATTTCAAAGGAGATAATGTATTTGAATGCATTTAATCCAGAGCAGTGTTAGTAAAGCTTTGTGCCTCTCCAAAATAAACTAATGTCTCTTTGAAAACAACCTTTTGACACATTGGGGGATTATC
0.4871927740043891 CACATGAATTGCGTACATCAGAATGAAATGTCTATATAATTTTGAAAATCAAACTGTTTATACACTGTTTGAAAGATTCATTTCGGCCTTACATTTGCTAATCGCACAAGATGTTACAGAATACCACCATTTGTTATCTACAAATCCAAAGAACAAATGAATAAACTGTATTCAGCCATGTGTATAATCATCCCTCAGTTGATCCTCAGTGCATTTATAGCATAGTGGGAGTGTGGCTTTTTCTGCCTCTTCTCTGTAACATATAAAAGGTATTAACTTTCACTTAAAAAGGAAATAATG
0.9158586878808812 TTCTAGGTAGACAGTCATCATTTGAATAATGAGTTTTGTTTCTCTTTTTCTATCTTTATGTGAGATTTTTGTTTGGGTTTGGTTTTTGTTCTCATTATGCTGTGACTTGTGCTGAATGCAAGAATTGGTAATAGGCATTTTTGTCTCTTCATGAATGGGTATTGAATTTTGTCAAATTGTTTTCATACCTATTGAGATGAGCGTTTGATTTTTCTCCTTCAAACTGTTAATGTGTGGATTATGTTGCTAGTTTTTCTAAGATTTTTGAGATAAATCCTAATACAGCACATCATACTAGAT
1 TTGATTTGGGAATATAATCAGAAGACCTGCTTAACTTTTAATTATAAATCTTCTTAGATTAATGCAATAGACTATTCAGTGTATATTTGTTGGTTGAATTACAGATGTTTTTAGAACTTTGAAGTTTTGTTTGAATATAATGCTCTCATGGAACCTTTAAAAATTAACGGTCAATAAGAGTTTATTGTCCTTGTGCAAAGCACAAACACAAATTTACAATAGGTTAATCTTTTTTCTTAAATTGTGATATTCTTATGTATTTTCAGATTGAAATTTTATTTGTGGCTTTAAAAAAAATTC
1 AGACAAAATGGACACACATAATAGATTTTCAAATAGGTGAAAGGTTATCATGTAGAAAAGAAATGAGGCTATTATCATTATTAAATAGATCATGTAGTAGGGAAACATTATCGTGTGATTTAAGCAACATCAAGGACAATATATGCATCAACATCATTCATTAGCTGCTATTGATTAGCTACATAGTGTGAGCAAGTCACTTACTAGTCCTTGGATTCTGTTTCTTATCTGTGAAATAGGACTCACAATTTCTAACTCAAAAGGTTTTCTCAGTTCTATAAAAGATGATTAAACAAAAAT
0.9004157735057641 AGATGTTCCAACAGCACACATGTTGGGAGCATAATACATGTTCTCTTACAGAGGAAGCAATATAGAGCAAGCCCACATTCCAGAGCCCTGAGAAGGCAAATGAAGGCTAAGAGGTATTTTCAGGGAAAACAAAGCTACATGTACACAATGCCCTATTCAGCAGGGAATAAATACTTCAATGTCCTTGGTTTTCAGAACACAAACAAAATTGTATTAAATAAAAAGGATTCTTAAGCCTACCGGAAAGGTTAATGTCTTTATGAATTATTAAAACAAAGCCCCAAAGATTAAAAAGGAAAA
1 TAACTGTTAATTTAAAAATTATTTTAAATTTGAGTTTATTGAATTTGCCATTTTTTTGTACATAACAGTGGTTTCTGGTCCCAAGTTCCCCTTGAACTTATTTACTACAATGGTCTTTTTACTCCTATTTATTTCCTTCTACAATAGAAAAGAAAGGCTAACCATTCATGGGTCCCATAAAAAACAATGTGAAGGAAGGTTCTAAGAGTGACCAAATATACCAGTGAACATACTATCTTTCTGAAAAAGAAAGAATTAAGTGACCAACTAAGAGATCCACTTTTGCACCAATGAAACACA
1 AGTATATTCTGCCATCAGTGTAATAAACCTCATTAGATTTTTATAGGGATTACATACCCACACTGACTCACAAATACAGAACTCCAAAGAACTTACACTTCACAATGCCTTCACACAAAAGTGAATGGGAAACGTATGTTACTTTCCAACAATGGGCAATGGCAGCATTCATATGAGATTTGAAAACCTGAATGTCAAATACAATTGACGGTTTTCTATGTGCCTTTCATTATGGGAACTCACCAACTAACATCAATGCCAACTCCTCTTACAAGTTGTATTTTCTTTTTTTTTTTTTTT
1 AAATTACCGTGAAGTTTATTGTAATTACAATCATTACAATGTTTCAAACTTATCCTTGAACTTCATGTCCCTCTCTGGCTACCAGATTTCTCTAATATCCTTTTTGACAATCTCAAAACAATGGCTTATTCTTGCTGTTTTGAATTCCTCATTCTCTCCTGTACCTCCTTTACTCAGGCCTTTGTCTCTACTCATCCCTGAAAACCCACTGTCAAAGACATTAACAACTTATCATATAACCAAATCCAATAGTCTATTCTCAATCTTCAATGAGTAATATATCAAACCCTTACTATGCTG
1 ACAGGAAATTCTAAAGAATAATTCTTCCTCCTAAACTAGATGATCCCTAGGGTTTCTTTTAGCCTTAACAGTCTAAATAATTATTGTATTGGCTTATGTCTGTAATGTTTCACCTGCTAATTAGGGTGTTCCCTGACAATACACAGATATGAATCAGTGCCTCAGCAAGAATGAAACTCTGAACACCTAGGTGTTGTTTGCTTGTGAAGTGGTGTTGCTTTGTAGTTCCGTGTTTCTTCATGACATAACAAATGGCCTACATTGTTAAATGAAATATGTTTCCAGGGAAAGATTCTCTTC
0.626132870918614 TTGAGCTCAATAACAATATTGCTCTCTTGACTACTTTGAACTATTAACAATATATTTCTGAAGTAGTTATCTTATTTGTAATGAGAAATTATTTCCAGCTTCACACTGCTTTCTTTGTCTACAATAACAATGACAGAATACCAACAAATACCACTATTTGTTGCTACCACTCTATGCGCTACCACTTTCCTTTTTCTCCACCTATTTAGTCATTTTTCTCTTTAGTTGGGGAATGTTATAACAATCACTCTTCCCTGTTGTCACAGAATTTTAAAAACTTGTCCCCAGACTGAAAAAAAC
1 GCTTAAACATCACTACTTTTGGGACATTTCCATGATCTACAATCCCCTTCTCAACCAAGTGTTTCCATTTCATTCTTTCCTTATTGAACGTTTTCATTATTGCTTGTTTAATTGCCTGTTTATCCCTATTAAATTGGAAGTATAAGAAGGCAGCAACCATGTCTATTTTGCTTATTGTTGTATCCATAACACCTAACACAGTGCTACACAAAGCAAATGCTGAAAACATACTTATTGAATGAGTGAATAATGAATGAATAAATGACATTTTATAATTCAAGGAGAATCAAACTTTCCAAC
1 CATAGTATGTTATAAAGCTATTGTAATCAAAACAGCATGGTAATGGCATAAAAACAGACACATCAACCAACGGAAGAGAATAGAAAGACTGTAAATAAACCCACACATATACAGTCAATTGATTTTTGACAAAGGTTCCAAGAACACACAATGGAGAAAGGATGACCTCTTCAACAAATGGTGCTGGGAAAACTAGATATCCACATGCAAAAGAATAAAATTAGAAACTTATCTGACACCATGAACCAAAAACAACTCAAAATGAATTAAAGACTTAAACATAAAACCTGGAACTGTAAA
1 AAACCCACCTCATGCAACAGACCTTCCTACATCATGTGAAAAGGATGAGGCCTTTTTCTTCTCAGAATTTCTATTTAGCAATTACTTTTCACCACAGATTAACAATGACTTCAAGATAATAAACGTTTACAAATTATGAGACAGACGCATTGAAGACTGCAAGCCCCAAAAAGAAAGACATTGTATTGTGAATACACTGTATGATATATGGGCACAATTACAGAAACCATTTTATCTATTAAGGACCTAAAAGAAAAATCAAGTAACTCTTACTTTTCTAAAGACAATTTAAAGCAAATC
0.5959626463092634 TAAAGCACAGTGACTTTTTACCAAAGTGTAAGACCTTCATGCCCGCATAGCCTCCCAACCTAAGGCACAAATGCCTAGTGAACAACATGGCAGAGAAGAGCTATTCAATAATATTTGGTTGAATGAGTCAATGAATGAATGAATGAATGAATCAGAGAAGAAAGAGGGAATAATGTTGTCAATGGGAGCATTGTCAAGCTCAGGTATTAAGCGAACCTAGCAAAAGTCTGAGGGAACTACCTTGGCTTCTTAAAAACTATGCTCTACAAAGAACTCTGAACATCTATTCATTTTGTTATA
1 GGAATTGTGTCTGGCACGTTGTGGTGGCAGAAGAAATGTTAGTGCCCCTTTAAAAATGTTCATTTATTTAAACATTATACTATATTGATGTAGAACTCATACCATCCCATTTGGGGCCTTTTATGAGCCATTTTCTCAGTATTACAAATGTAGAACAATGAGCTTAATTATATGCTTGTGTAATGATAATAACTAGCTTTTACCAGCACAGCCTGTTCCAAGGCTAAGGCTAACGATTTTACTTGAGTTCTCTTATATATTTCTCACAACAGACCTCACAGGTAGGTAATATTATTGGTC
1 AAAATCAAAACTTTTAATTATAATAACTCTTTGATCTAGATACTACTATCTTCATTTTACAAAAGAGGAGTTAAGAAACTTGCCCAAGCTTCCATTGTGACAAAGTAATGGAGCCAGAACATACAAATCCCAGCAGAGCAGGCTTTGTTCATAACAATGGTTCTCAAACAATATGAGGGCATGCCACATGTGTGAATACCCAATAGGCATTCCAGGGCCAGGGAAACCAGCAGCTCCTCCAGAGGGACCAAGGTTCTCCAGGGGCCAAAATTTCAGGGCTCAGCTCCTTGCCTGAGGCCT
1 CACAGAAATACAATGGTAACATTCTATTTTACAACAAAGAAAATTAGATTACAAGTTATCCTACAATTCTCCCTCCTCCCAGCTAAGATCACACACCGTATAGAGTTACAATGGTGCCAATTACAACAGCTTTTCATGCATTGTATGTTGCTCTGGTTTTTGATGATCTGAATGGATTTCATACCTAATAGCAGCTACTGACAGCAATCAAAACAATTTGGGGGAAAACAGTTTTGTCTTCTGTGTTCAAGTAATGCTATTGATTTAAATTTAATGTTTGCTTCATTTCTTTCTTGGTAC
0.7312891283097281 AAATATTTGATTAATTGAATTAAGGGGTAAGTGAAAAATCTCCTTCCTCCCTGGGCCCCATTCACCCAGTTCTTACACCACTCTAATAGGAAACTATTATTTTGGGTTCTATGTACATTCTCACAGAGCTGTTAGGCAGAAAAAAGCAATGCATAATGCTTGTTTGTTCAATTTTTGACAACTTTGTTAAGGTATAATTGGCATACAATACATGATACATGTTTAACATGTATAATTTCATAATTTCTGACATAAATACGTCCATGAAACCCTCCCACAATCAAGAGAGTAAACATATCC
1 ACTGCAGAAGGCCAAAGGATCTCATTATTGCCCGGGTCTTTACAAGAAAGGTTCCCCAATGCATGACATGGCAATTTGTCGCCTTTATTTAGAGGGATTTAGACAAAGCTTGCAGCATTTAGCATTCCGTTCCTTTGACAGTACCTTTTAACATCCTTCTTATTGTTCTATTTGTGGGTCAATGCAAAGCATTCATGAAGATTTTGTGGTTTAGGGAGCAAGTGAGGCTGTTGTCTAATTTGTTGTAATTGCTCAACTTACTCAAATAGTTTAATTTACCTCTGAATATGTTCAGCAGCT
1 ACAAATGCAAAGTAAACGTGAAATATAAATGTTTTAACCCTTATTAAGATTTGTAAAGATTGAATGACAAATCATATTTAGATTATAAGGCCATGGAACAAAGGCATTCTGTTATGCTAAGCCTCTTTAAGTCTTCTTTTTCTGCATGGTAGGTAATAATGTTGTCAATTACATACTGCTTTAAATGAATTGAGATATTATCATACTGGTCATAATTCGAAGTTCTTAAGCATTACATTATTTCTAGGTATAGGATTGTGTTTCTATATAAATTCGTAAAATGTTTTTGTAGTACAGTCT
1 CTTTCTTCAGACTTCTCTCTTCACTGATATTTTTTCTGACTATTAAATTTCATTCACACTTATTTCCCCTCGCTACTTTGAAGCAATGACTCCATTGTTCTCTGGCTTCCGTTTGTGTGGCGGAGAAGTCTACTGTTGATCTGATTGATGTATTGTTGCAGATGATCTGTCCTTTCTTGCTAGTGACTTCTAAGACTTTAACTTATTTGTAGGGCTTTGTATCTCATTCTATCTCTCGTCCATATTTCCCAAATTCTCTTTCATTTTCCACATCTTTATTTATCTCTACATCCCTAGAAA
0.9185911111680278 CATTTATAAGTAGTAATAATCTTTTATCATTAATACTGATTATCTTGTGAATCTTCATATATAAACATATACATTTTGTCCTTTTAATACAGTATTTGTATATCCCACTGTGTGACTACACAAATACACATTTAACCAGATGAATTGTTTCCTGTTACTGTACACAATGCTGCAATGAACATCTTTATGTGCTTGTGAATGAATTTCTAGGACAATACCACATTAAAGACTTACATTACCTTTAATTTGTTGATCATGGCTTCTTCAGAGTCCATAGACATGGATAACCCATGAATTAAA
0.9979856245544166 TCCACACTTAACCTTCTATGGGATTCAACTCTGAATCTTTTTAGTATGTCCCCATATGTCATGTCCATGATTTTAATAGATATCTTCTATATTAAGTTCTAGCATTTATTTCATTAAAGTGCTGTGACCACAATGGTACTTATTGTTCTGGGGCAAGAGAACTAGATTTCATGTATTGATTGTGGTCTTTGTTCAGTTTCTGGTTAACTAAGTCAGAAACCGTTACTGATTCTTCCTTAAATATGTTTTTTCTTAATTAAAATAAACATCCTTCATTAAACTAAGAATAACTCTTAAAGA
1 ACAAAACACACCTACTCTGAAAACTTTTCCTTATAAATCAAACTCTACTCTTTAATTATTTCTTCACTACACACACACATACTTAAAAGTCACATTAACAATAACCATTCATGTAGCAGAAATTGTGTTGGATGCCCTAGGTGTTTTATCATGTTGAAACAGTAACAAATACACAGTACCCTTTATATAGCCAACTGAGTTCACAGAATGCTTTCATTGAATTTCGTCCATGACTTGTATCTATAGCCAACCCATAGTCACAACTGAGAAGCAAGTATAATTTTAACACAAATGGAAGTT
0.934989277804238 TTATAGATTACCTGGAAGGACTAGGCAGGTAGTGTTAAAAGCCAGGGCTATAAAGCTAGACTGCTTTTTTTCAAATTCTAGCTCTATTACTATGCAACTCTTGGATTAGTTACTTTTTACTTCTTGCTATCTCAGTTTCCTCCTGGACAATGAAGTCAATACCCTTCTTGTTAGGATTGAATGAATAGGTTTAAATAAAGCATTTAGAACAGTGTCTGTAGCATATAGTTAACCATGATTGTGATCATTATCATCATGTGGCCCCCTAAGCTATTGCCAAGAACTCTTTCCCAGCCCTCT
1 CATTTCCTTTACTACGGAGTACAATCAATACTTTACAACAGGGTTAATACACTGTCTTCAAACATGTTATTATTCTCACACAAGAGCACAATAACTTTATTAGTTATGCTGTCTGCAATCTTCCAAAGTGACAGAACTGAGTGGGCGTGCTGATTGCAAGCAATTCTTGGTGCCCTCTGTTGGAGTATTTTCAGTGTACACCAACAATAGCAACAAGCACAATACAGCTGCAGGTAATTTTAATGGTGGGAGTTCTAATTTTAATTAGCATAATTAACAGAAACAAATAAAAGAGAGGTT
0.02721277190199824 AGGAGCATTACATTAACATCCTAAATTTATAAAAATTTAGTTTGAATTTATATCAATTTAGCTTTAATACCATACAAAAACTGTTTCTATACAGCACTTCTCCTGTCTATGTTATTATTGTCACAATGTATTGTCTTAATACATTGTGCACCATCAATACAGATTTATACTTACTGCTTTCTTTGTTTACCTAAAAAATTCTGTAGCATTGAGTCTCTTAGTATGACTTTGAGTTACTATCTAGTGTCTTCATTTTTGCCTGAAATACTCTCTTAAGCAGATTCGTAGGACAATCTACTA
1 TTTCTATCAGAAATCACAGAGTTGAGAAGGCAATGGGATGACATATTCAAAGTGCTTAAAGAAAAAGAGGGTCAACAAGGAATTCTATACCTAAAGCCAATTTATCTTCAACAAAGATGCCAAGACCATTCAAAGTGGGGAAAGAATAGTCTTTTCAATCAATGGTTCTAGGACAATGGATATCCACATGTAAAAAAAGGAACTTGGGCCCCTAATTCACATCATATACAAAAATTAACTCGGAATGAGTCAAAGGCTTAACTGTAAGAGTTAAAACTATAAACTCTTTGCAAAGAACAC
1 AATTGTATGTCTAGATTCATTTTTTTGCATATTGATATCCAATTGTTCCAGCACCATTTGTTGAACAGACTGTTCTTTCTCCATTGAATAACATTTGCTCCTTTGCTCCTTTGTCAAAGATTAGTTGACTACATTTGTAAGGGTCTATGTGTGGGCTCTTTATTCTGCTCCATTATCATTTTGTCTATTATTTTGTCAATACCACACTGTCTTGATTACTGTATAGTAAGTCTCACATTTGAGTAGCGTCAGTCCTCTGACTTTGCTCTTTAGTTTGGTGTTATTCTGAGTCTTTTGCTG
0.6467462573673733 TTGCTTGAGAAGCAAATTTTTTCAGCTTGTACCCATCTAAAAATATTTGCTTTCAAATTTGATTGATAGGTTAGAAATATTAGTTCCTTGATTCAAAATTATTTCTCCTCATTCTTTAAAATGCATTGTTCCATTGTCATAGGCTCCCATTGTGCTCTTGAGAAGTTTAATGGCATTATGCATCCCAATCCTTCATGTGGAACCATTTTTTGTCCCTCCCTGGAGGCTTTTAGAATCTTTTTTAAAATCCCTGATGTGCCTTGATGTGGATCTTTTTCCCATTTCCTGAATTGGATGATT
0.2734252900889913 GTACATGGTCAAAGCTAAAAAGAAGTGCACTAGATTTGATAATCTGATTCAAAATCTCAGGCTTTTTCTACTATACTACACAGTCTCTAAAGACCAATAGAATCACTGAATGGTGAAAACATTATTAAATTCTTTTTGTTTCAGCTATGTTTGTAGCTCTCATAATTAGCTTTATTTTATCCTGATTGTCCAGCTACTAAATTGTGATGTAAAGGAGGGAGCTGATAAAAGGATGTCTCATCCTTTGGGAATCCTGGTTCTATTCTTTCCCTTTTAATTTATCTCTCCAAGAATCTGCTC
1 TTCCCTCATTTTACTGTTAAGGAAATTGACAGCCAGAGAGAAAAAACTGACTTGTACAGAGTTACGCAGAAAATTAGCTGCAGTTCTATTACTAGAATCTGGGTCTGTATTCATCTATTCATTGAGCACCTTGATAGAAAAGAAACCATCCTACCTTTGTGAGTGGACAATCAAATTCCATCAATACATATAGAATTAGAGCTGTGGCAAGTGACAAGTAAGGCACACAATGGTATGAGAGTGCAGAACGAGAAAGGAGACTGGAGAGGGGTGTTGAAGGTAGACCACAAAAGACCTTGT
1 AATAAGTGTAAAGAGAATAATAGGAGTCAACTGACAGTGTATAGAGGTGGGGAAGAATGCTTCCCTCTAAAAAGTATTTCAAAGACTATGTGCTTAGAGCTGACTTCTCCACACACAGTAAATCTCAGCGGATGAAAAGGAAACTGAATGAAATTTGTTGACAACAATTGATGCCTGTAGGAATAATTGGCTCAGACACAAAACAGACATCAATGTAGCCTGGGGATGACCAAAATGCAGCAGCCTCTAAGTCATTGTTAGTATATATTTTTTCAGTTCAAAAAAAAATAAAAGCAGTTT
1 GTGGATAAGAGCATAGGATTTGGATTAAAAAATGTCTTATTACATACTATAGTTCCACTATTTTCCAACTCTTTTATTTTGGAAAAGTTCCTTAATCTGTGAAAGCCTTATTATCTTCACTTTAGAAGGCACAATAATAGCACATTCTTCATAGGATTTCTGGTAAACATTCATTGAGATAATGCATTCAAAGTGATTGAATGGCGTTTGACATATAGTTAAGTACTCAATAAATATTAATTATTGTTAAGTTATTCAAAACCCAAAATGTAATCACATAATTAAAATCAATATTATAAA
0.886890587495777 CAGGTTAAACTTCTGGAAAATTTAACAAGTTGATATAAAAATCCCCCCAAAAAGCGCTTAGCATTTAAATCAAGGTGGCTTACAATTAGCAGTTTAAGTGAGCTAACTAAAAACAAAAACTAGTGTTTAGAACAAAATAACGTTTAGTGTTATCATGTCTATATGGTACTCAGGGAATAAGGTATTCATTTATAATGTAGCTAATTGTTGTATGTAATTCAAGTTTACACTCCAGAACTTAAGCCTTTTATAAGTAAATAACTATTTTTATGAAAAAGAAATCCAAAACATATTCATATT
1 AAATTGGTATGTTATTAATCAAAAAACAAAAAGCATTAAAAAGTAAATTGTTTATTTTTAGGCATTTTCATTTCCATATATACTTTAGAATCAGCTTGTGAAATAAAAGTCATAGCATGCTTAAAAGAAGAACAAAGGTGGAGGAATTACACTATTTGACTTTGTCTTACTATAAAGACACAACAATTGAGATGATAGGGCATTGGATAAGGATAGACATCTTTTAGCAATAAAGTATTTTTTAATTTTAAAAAAGAATAGTCAAAGTATAGTCAAATATATATTTTTATAGACATAGTC
1 GAGCAAACAATCCAGTACAACAGTGAACTAGAACAAAAGGTAAATGAATTAACAGGAGGACTAGAGGAGACTTTAAAAGAAAAGGATCAAAATGACCAAAAACTAGAAAAACTTATGGTTCAAATGAAAGTTCTCTCTGAAGACAAAGAAGTATTGTCAGCTGAAGTGAAGTCTCTTTATGAGGAAAACAATAAACTCAGTTCAGAAAAAAAACAGTTGAGTAGGGATTTGGAGGTTTTTTTGTCTCAAAAAGAAGATGTTATCCTTAAAGAACATATTACTCAATTAGAAAAGAAACTT
1 AGCCAGAATTATTTTCTAAGTTATGTGATTCAAAAATATGACACAGCTTATCAAGTAATGAAAGGTACGTATACAATGAGTTTCTTAGGAACATTTATTCAAAATGATTATATGGAACAACTAAAAATTGTTAACCTAAATGTCCAACAATAGGGTATTATTCAGCAAATAATGACCCAACTATTTGATGGTTATAAAAAGTATGTAATAACATGGAAAAATATTTATAGGGCTAGCTGATAAGCATAGAATGACAAATTGCATATGAAGCATGCCTATAACTGTTCTTTTTAACAACAG
1 CTTAGGGTCATTGATGTTATACTTGATGAAGTGACATCACTTCAAATGACCCTAAAATGACACAAATGCTTTACTTGCTGCTAGATCCATCAGAAGACAACAGGCACAATAAGTAAGCCTCACCGTGTTCCTTAGCTCATTAAGTCAATTGAGATGCTATTGTTAATGCATGGTTTAAAAGAATAGGATATTTACATTGTTCTATACAGTTCCTAATTTTATGTCTGTGACTTACCTCTAATGCCATAAAATGTTGGTACAAGATGACAAAATAAGAATTAAAAAGTTAGTGTTTTCTGT
1 ATTATTTGGAGATTTTTCAGTTATTTTTATATTTATTTCTCATTTAATTCCATTATGATCAGAGAACAAACACTGTATGTTATCATTTCTCTTAAATTAGAAAAGGTTTTATGACCTATGCTATTGCCTATTTTGCTGTAATTGTAAGCACTTGAAAAGAATGTGTATTATGCTGCTGTTGGGTAGAGTGTTCTATAAATGTCAATTAAATGCAGCTGGTTGTTAGAATAGTTCTTCTGTACCCTTGCAGATTTTCTATCTACTTGTTATATCAGTTACTCAGGGACAAGTACTGATGTT
1 TCTAGGCACTGATTTTATAGGAGTTGGAGAAAAATGTGTTTTTATTTATGCTTGCTTTGTGTTCACTTGACTACAGTGTTGTATTGTTACCAGAGATAATGGAGAAAATGAATGTAGATTTCCTGTTAAGGTTCTGTCATTCTTCGTGTCGATAATACAGAGTTAGAGGTATAGAAAATCAGCTTTATTCAAAACCAGCTTCTGGTCATAGTTCATTCAAACTGTTTTGGGGGTAGTTCTTTGTCCTTGTCTTTGACCGCTAGCAAAGAATGCCTCTCCAGTCATACGTGGAAAAACTTC
0.7151558157769388 TAAATTCAAAAACATCATTAATTGTGAAAAATAACCATACATATTAATAACATTCTTAACAATAAAAATTTAAAGCATACAAAGCATTATTTGTCCTATTCAAAGACTTGATCTTTGTTTTGTGACAAATACCACAGAAAAAGTTTTTGTTTTGGATTGTTACTGATTCGTTCAATTGTAATGAGTATTCCCAAAAACATCTCCAGGTTGGGTGCACTAAACAAAAATTATGGGAGGCCATTGTACTGAGCTCCTTCCTGTGCTAGATCCTAATAAGAACAAACCAAATAAGGGGCCCAA
1 TTATACAACTGTCTGTTCTCATTTTGAATTTAGCAATAGTAGTTTTAAAAATAATGGTAGCAATACATGAATGGATAGGAGTATATTCTTTAATGGGCATTTTGATTCTTACAAAGATGGTTATAAAATGTGCTGTTGTAATAAGGTTAGCTGTGCATCATAATGCTTTGATTCTGTAGTCTTAGAACAACTGGTCTCCTACTGTGCTCCAAAGTAGATCCTAGTTACAGGATCTACTTTGTAATTATTTTTCTGTCTTTTGATTAAATTAGATAAAAGTAATGTCCACTCATTTTTGCC
1 AATGTATAGGCATAGCTGCAGAGAACAACAGGAAACTGGGGAAATTATTAGGCATAGCTGGAACATTGGGACCAGGAAAATGAAGCAAGAGAAACAAGTAAAGGCCAAATCATGAAAGTAAAGGCCAAATCATGAAAGGCACATTGTATAGTATACAAAGGAATTTTATGTGTATCCTGTAGGCAGCAAGGGACCATTCAGGGCAGAATGTATTCACATTTATATTTTAGAAATTACTTAAGTAGCAGTGGAATGAAAAGCAGTGTGTGATAATAGAAATAGTCAGAAGATATTTCATAA
0.8778987949075746 TTACTGTGATTGGGGGGTGGGGGGGTTCCAATAGGATTCTTTTGAGAATCACAAGTAGGAAAGCCATGAGCTCACAAAAATGTATTGAGTATGCCTGAGTGAATAGTACTCAATATAGCTTTGAAACCAACTCATTGTCACTCTCAATGTAATCATTGTTTGTTTTCATTCATCCAGTGATGTGTCAAGAAGTACTTATTGATAGCACTTAATATCCATTAGAGCAGTATTGGGATCTATATATTGGTGTTATTTTTTAAAATTTATTTATTTTAGAGTTGAGGGTCTCAGTATGTTGAC
